{"learner":{"attributes":{"best_iteration":"599","best_ntree_limit":"600","scikit_learn":"{\"n_estimators\": 600, \"objective\": \"reg:squarederror\", \"max_depth\": 4, \"max_leaves\": null, \"max_bin\": null, \"grow_policy\": null, \"learning_rate\": 0.05, \"verbosity\": null, \"booster\": null, \"tree_method\": \"hist\", \"gamma\": null, \"min_child_weight\": 1.0, \"max_delta_step\": null, \"subsample\": 0.8, \"sampling_method\": null, \"colsample_bytree\": 0.9, \"colsample_bylevel\": null, \"colsample_bynode\": null, \"reg_alpha\": 0.0, \"reg_lambda\": 1.0, \"scale_pos_weight\": null, \"base_score\": null, \"missing\": NaN, \"num_parallel_tree\": null, \"random_state\": 42, \"n_jobs\": 1, \"monotone_constraints\": null, \"interaction_constraints\": null, \"importance_type\": null, \"gpu_id\": null, \"validate_parameters\": null, \"predictor\": null, \"enable_categorical\": false, \"feature_types\": null, \"max_cat_to_onehot\": null, \"max_cat_threshold\": null, \"eval_metric\": null, \"early_stopping_rounds\": null, \"callbacks\": null, \"_estimator_type\": \"regressor\"}"},"feature_names":[],"feature_types":[],"gradient_booster":{"model":{"gbtree_model_param":{"num_parallel_tree":"1","num_trees":"600","size_leaf_vector":"0"},"tree_info":[0,0,0,0,0,0,0,0,0,0,0,0,0,0,0,0,0,0,0,0,0,0,0,0,0,0,0,0,0,0,0,0,0,0,0,0,0,0,0,0,0,0,0,0,0,0,0,0,0,0,0,0,0,0,0,0,0,0,0,0,0,0,0,0,0,0,0,0,0,0,0,0,0,0,0,0,0,0,0,0,0,0,0,0,0,0,0,0,0,0,0,0,0,0,0,0,0,0,0,0,0,0,0,0,0,0,0,0,0,0,0,0,0,0,0,0,0,0,0,0,0,0,0,0,0,0,0,0,0,0,0,0,0,0,0,0,0,0,0,0,0,0,0,0,0,0,0,0,0,0,0,0,0,0,0,0,0,0,0,0,0,0,0,0,0,0,0,0,0,0,0,0,0,0,0,0,0,0,0,0,0,0,0,0,0,0,0,0,0,0,0,0,0,0,0,0,0,0,0,0,0,0,0,0,0,0,0,0,0,0,0,0,0,0,0,0,0,0,0,0,0,0,0,0,0,0,0,0,0,0,0,0,0,0,0,0,0,0,0,0,0,0,0,0,0,0,0,0,0,0,0,0,0,0,0,0,0,0,0,0,0,0,0,0,0,0,0,0,0,0,0,0,0,0,0,0,0,0,0,0,0,0,0,0,0,0,0,0,0,0,0,0,0,0,0,0,0,0,0,0,0,0,0,0,0,0,0,0,0,0,0,0,0,0,0,0,0,0,0,0,0,0,0,0,0,0,0,0,0,0,0,0,0,0,0,0,0,0,0,0,0,0,0,0,0,0,0,0,0,0,0,0,0,0,0,0,0,0,0,0,0,0,0,0,0,0,0,0,0,0,0,0,0,0,0,0,0,0,0,0,0,0,0,0,0,0,0,0,0,0,0,0,0,0,0,0,0,0,0,0,0,0,0,0,0,0,0,0,0,0,0,0,0,0,0,0,0,0,0,0,0,0,0,0,0,0,0,0,0,0,0,0,0,0,0,0,0,0,0,0,0,0,0,0,0,0,0,0,0,0,0,0,0,0,0,0,0,0,0,0,0,0,0,0,0,0,0,0,0,0,0,0,0,0,0,0,0,0,0,0,0,0,0,0,0,0,0,0,0,0,0,0,0,0,0,0,0,0,0,0,0,0,0,0,0,0,0,0,0,0,0,0,0,0,0,0,0,0,0,0,0,0,0,0,0,0,0,0,0,0,0,0,0,0,0,0,0,0,0,0,0,0,0,0,0,0,0,0,0,0,0,0,0,0,0,0,0,0,0,0,0,0,0,0,0,0,0,0,0,0,0,0,0,0,0,0,0,0,0,0,0,0,0,0,0,0,0,0,0,0,0,0,0,0,0,0,0,0,0,0],"trees":[{"base_weights":[4.7830305E0,7.746927E-1,8.790881E0,-7.599481E-2,3.964363E0,6.6532865E0,1.1541071E1,-3.3064443E-1,1.0871663E0,3.168305E0,6.8281817E0,5.3353395E0,7.9447913E0,1.0120021E1,1.6297796E1,-1.9759748E-2,3.1787436E-2,2.8757074E-1,3.8774595E-2,2.707326E-1,1.2891975E-1,2.0895338E-1,4.2095017E-1,2.458164E-1,5.307881E-1,2.9569778E-1,4.287377E-1,4.128487E-1,5.522025E-1,9.046888E-1,5.8356273E-1],"categories":[],"categories_nodes":[],"categories_segments":[],"categories_sizes":[],"default_left":[0,0,0,0,0,0,0,0,0,0,0,0,0,0,0,0,0,0,0,0,0,0,0,0,0,0,0,0,0,0,0],"id":0,"left_children":[1,3,5,7,9,11,13,15,17,19,21,23,25,27,29,-1,-1,-1,-1,-1,-1,-1,-1,-1,-1,-1,-1,-1,-1,-1,-1],"loss_changes":[5.1079312E4,4.317341E3,9.270484E3,3.7268103E2,7.420879E2,1.4844258E3,4.5261875E3,6.462864E1,3.2408212E2,3.358767E2,2.682439E2,9.368242E2,5.262754E2,8.332578E2,1.1016719E3,0E0,0E0,0E0,0E0,0E0,0E0,0E0,0E0,0E0,0E0,0E0,0E0,0E0,0E0,0E0,0E0],"parents":[2147483647,0,0,1,1,2,2,3,3,4,4,5,5,6,6,7,7,8,8,9,9,10,10,11,11,12,12,13,13,14,14],"right_children":[2,4,6,8,10,12,14,16,18,20,22,24,26,28,30,-1,-1,-1,-1,-1,-1,-1,-1,-1,-1,-1,-1,-1,-1,-1,-1],"split_conditions":[2.4228756E-1,5.8910772E-2,8.046917E-1,3.9415827E-1,7.0992815E-1,5.361919E-1,8.128863E-1,3.6053124E-3,6.0294116E-1,7.375E-1,5.784085E-1,5.670687E-1,3.9244765E-1,4.550849E-1,1.9738302E-1,-1.9759748E-2,3.1787436E-2,2.8757074E-1,3.8774595E-2,2.707326E-1,1.2891975E-1,2.0895338E-1,4.2095017E-1,2.458164E-1,5.307881E-1,2.9569778E-1,4.287377E-1,4.128487E-1,5.522025E-1,9.046888E-1,5.8356273E-1],"split_indices":[1,1,4,4,6,4,1,1,3,3,4,2,1,1,6,0,0,0,0,0,0,0,0,0,0,0,0,0,0,0,0],"split_type":[0,0,0,0,0,0,0,0,0,0,0,0,0,0,0,0,0,0,0,0,0,0,0,0,0,0,0,0,0,0,0],"sum_hessian":[3.179E3,1.59E3,1.589E3,1.256E3,3.34E2,8.96E2,6.93E2,1.031E3,2.25E2,2.63E2,7.1E1,4.46E2,4.5E2,5.36E2,1.57E2,9.67E2,6.4E1,1.3E1,2.12E2,5.3E1,2.1E2,2.8E1,4.3E1,4.15E2,3.1E1,1.09E2,3.41E2,1.81E2,3.55E2,1.11E2,4.6E1],"tree_param":{"num_deleted":"0","num_feature":"8","num_nodes":"31","size_leaf_vector":"0"}},{"base_weights":[4.6585975E0,3.8484132E-1,7.935088E0,-2.9817343E-2,3.391916E0,7.025734E0,1.28335E1,6.047539E-1,-2.382966E-1,3.7492075E0,2.1231337E0,5.3224335E0,8.200317E0,1.6380785E1,7.2024145E0,4.727627E-2,-7.6050884E-3,-1.5252316E-2,7.224415E-2,1.11688435E-1,2.0199583E-1,7.239641E-2,1.7608427E-1,2.9296198E-1,1.2308563E-1,4.6491513E-1,3.2812554E-1,8.271658E-2,8.453134E-1,3.819805E-1,1.6763006E-1],"categories":[],"categories_nodes":[],"categories_segments":[],"categories_sizes":[],"default_left":[0,0,0,0,0,0,0,0,0,0,0,0,0,0,0,0,0,0,0,0,0,0,0,0,0,0,0,0,0,0,0],"id":1,"left_children":[1,3,5,7,9,11,13,15,17,19,21,23,25,27,29,-1,-1,-1,-1,-1,-1,-1,-1,-1,-1,-1,-1,-1,-1,-1,-1],"loss_changes":[4.442821E4,1.7183425E3,7.9099297E3,1.6048558E2,6.774524E1,2.9913672E3,5.475039E3,7.751826E1,1.030179E2,4.7807007E1,3.1728943E1,9.4075195E2,1.5502422E3,1.2953086E3,1.5953076E2,0E0,0E0,0E0,0E0,0E0,0E0,0E0,0E0,0E0,0E0,0E0,0E0,0E0,0E0,0E0,0E0],"parents":[2147483647,0,0,1,1,2,2,3,3,4,4,5,5,6,6,7,7,8,8,9,9,10,10,11,11,12,12,13,13,14,14],"right_children":[2,4,6,8,10,12,14,16,18,20,22,24,26,28,30,-1,-1,-1,-1,-1,-1,-1,-1,-1,-1,-1,-1,-1,-1,-1,-1],"split_conditions":[6.929823E-3,1.09028555E-1,8.2053095E-1,9.805195E-1,2.6857296E-1,4.07854E-1,8.809769E-1,1.564563E-1,2.2235801E-2,1.2993334E-3,3.8462862E-1,1E0,9.16821E-1,1.8322768E-2,8.304367E-1,4.727627E-2,-7.6050884E-3,-1.5252316E-2,7.224415E-2,1.11688435E-1,2.0199583E-1,7.239641E-2,1.7608427E-1,2.9296198E-1,1.2308563E-1,4.6491513E-1,3.2812554E-1,8.271658E-2,8.453134E-1,3.819805E-1,1.6763006E-1],"split_indices":[0,1,1,3,6,1,0,6,1,0,1,3,0,0,6,0,0,0,0,0,0,0,0,0,0,0,0,0,0,0,0],"split_type":[0,0,0,0,0,0,0,0,0,0,0,0,0,0,0,0,0,0,0,0,0,0,0,0,0,0,0,0,0,0,0],"sum_hessian":[3.172E3,1.377E3,1.795E3,1.211E3,1.66E2,1.516E3,2.79E2,2.99E2,9.12E2,1.28E2,3.8E1,6.21E2,8.95E2,1.7E2,1.09E2,2.06E2,9.3E1,8.78E2,3.4E1,2.2E1,1.06E2,2.7E1,1.1E1,5.22E2,9.9E1,5.33E2,3.62E2,6E0,1.64E2,9.7E1,1.2E1],"tree_param":{"num_deleted":"0","num_feature":"8","num_nodes":"31","size_leaf_vector":"0"}},{"base_weights":[4.386866E0,7.8841496E-1,7.922402E0,-1.8643288E-2,3.5994923E0,5.8451567E0,1.0506478E1,-2.4323128E-1,1.1648135E0,2.213478E0,4.8115396E0,4.794062E0,7.3710885E0,8.439314E0,1.2729386E1,-1.4432264E-2,2.0962028E-2,4.715478E-2,3.1425056E-1,9.385242E-2,3.027243E-1,2.9201388E-1,1.2597805E-1,2.0944832E-1,3.9928898E-1,4.454982E-1,3.067029E-1,3.502259E-1,4.6983036E-1,5.733445E-1,7.709294E-1],"categories":[],"categories_nodes":[],"categories_segments":[],"categories_sizes":[],"default_left":[0,0,0,0,0,0,0,0,0,0,0,0,0,0,0,0,0,0,0,0,0,0,0,0,0,0,0,0,0,0,0],"id":2,"left_children":[1,3,5,7,9,11,13,15,17,19,21,23,25,27,29,-1,-1,-1,-1,-1,-1,-1,-1,-1,-1,-1,-1,-1,-1,-1,-1],"loss_changes":[4.0705605E4,3.600499E3,8.602156E3,3.2826843E2,5.8403955E2,1.4033594E3,3.1918672E3,3.1349728E1,2.1771478E2,2.0443762E2,4.2855957E2,9.978594E2,6.3826953E2,4.492539E2,9.911172E2,0E0,0E0,0E0,0E0,0E0,0E0,0E0,0E0,0E0,0E0,0E0,0E0,0E0,0E0,0E0,0E0],"parents":[2147483647,0,0,1,1,2,2,3,3,4,4,5,5,6,6,7,7,8,8,9,9,10,10,11,11,12,12,13,13,14,14],"right_children":[2,4,6,8,10,12,14,16,18,20,22,24,26,28,30,-1,-1,-1,-1,-1,-1,-1,-1,-1,-1,-1,-1,-1,-1,-1,-1],"split_conditions":[2.4228756E-1,5.8910772E-2,8.1340736E-1,4.384404E-1,5.726407E-1,6.037387E-1,6.182058E-1,3.6053124E-3,3.5686892E-1,3.5255024E-1,8.601695E-1,4.5033824E-1,4.7697303E-1,4.1696122E-1,8.9505863E-1,-1.4432264E-2,2.0962028E-2,4.715478E-2,3.1425056E-1,9.385242E-2,3.027243E-1,2.9201388E-1,1.2597805E-1,2.0944832E-1,3.9928898E-1,4.454982E-1,3.067029E-1,3.502259E-1,4.6983036E-1,5.733445E-1,7.709294E-1],"split_indices":[1,1,4,4,4,4,1,1,2,5,3,5,7,1,1,0,0,0,0,0,0,0,0,0,0,0,0,0,0,0,0],"split_type":[0,0,0,0,0,0,0,0,0,0,0,0,0,0,0,0,0,0,0,0,0,0,0,0,0,0,0,0,0,0,0],"sum_hessian":[3.199E3,1.586E3,1.613E3,1.233E3,3.53E2,8.96E2,7.17E2,1.037E3,1.96E2,1.66E2,1.87E2,5.33E2,3.63E2,3.74E2,3.43E2,9.71E2,6.6E1,1.89E2,7E0,1.54E2,1.2E1,1.28E2,5.9E1,4.5E2,8.3E1,1.59E2,2.04E2,1.53E2,2.21E2,2.37E2,1.06E2],"tree_param":{"num_deleted":"0","num_feature":"8","num_nodes":"31","size_leaf_vector":"0"}},{"base_weights":[4.169096E0,6.5110433E-1,7.6149335E0,-7.926512E-2,3.2024493E0,5.60484E0,1.0114182E1,-2.841198E-1,9.2676455E-1,2.6193812E0,6.063511E0,4.618137E0,6.996649E0,9.121935E0,1.5099021E1,-1.6470922E-2,2.253389E-2,2.5945678E-1,3.4324948E-2,1.1520827E-1,2.771449E-1,1.7895012E-1,3.7220284E-1,2.0175433E-1,3.4809977E-1,2.309505E-1,3.882059E-1,4.010422E-1,5.3884417E-1,8.1895083E-1,5.302983E-1],"categories":[],"categories_nodes":[],"categories_segments":[],"categories_sizes":[],"default_left":[0,0,0,0,0,0,0,0,0,0,0,0,0,0,0,0,0,0,0,0,0,0,0,0,0,0,0,0,0,0,0],"id":3,"left_children":[1,3,5,7,9,11,13,15,17,19,21,23,25,27,29,-1,-1,-1,-1,-1,-1,-1,-1,-1,-1,-1,-1,-1,-1,-1,-1],"loss_changes":[3.8823176E4,2.9556448E3,8.0716953E3,2.5457825E2,5.7298975E2,1.2022871E3,3.4235312E3,3.429918E1,2.1047478E2,2.5908228E2,1.7572632E2,6.9483203E2,6.41125E2,1.0123789E3,5.049121E2,0E0,0E0,0E0,0E0,0E0,0E0,0E0,0E0,0E0,0E0,0E0,0E0,0E0,0E0,0E0,0E0],"parents":[2147483647,0,0,1,1,2,2,3,3,4,4,5,5,6,6,7,7,8,8,9,9,10,10,11,11,12,12,13,13,14,14],"right_children":[2,4,6,8,10,12,14,16,18,20,22,24,26,28,30,-1,-1,-1,-1,-1,-1,-1,-1,-1,-1,-1,-1,-1,-1,-1,-1],"split_conditions":[2.4228756E-1,5.8910772E-2,8.046917E-1,3.9415827E-1,7.61874E-1,5.966446E-1,8.9505863E-1,3.6053124E-3,5.833333E-1,3.133284E-1,5.784085E-1,3.749755E-1,3.9244765E-1,6.182058E-1,1.9738302E-1,-1.6470922E-2,2.253389E-2,2.5945678E-1,3.4324948E-2,1.1520827E-1,2.771449E-1,1.7895012E-1,3.7220284E-1,2.0175433E-1,3.4809977E-1,2.309505E-1,3.882059E-1,4.010422E-1,5.3884417E-1,8.1895083E-1,5.302983E-1],"split_indices":[1,1,4,4,6,4,1,1,3,5,4,5,1,1,6,0,0,0,0,0,0,0,0,0,0,0,0,0,0,0,0],"split_type":[0,0,0,0,0,0,0,0,0,0,0,0,0,0,0,0,0,0,0,0,0,0,0,0,0,0,0,0,0,0,0],"sum_hessian":[3.202E3,1.585E3,1.617E3,1.233E3,3.52E2,8.98E2,7.19E2,1.025E3,2.08E2,2.94E2,5.8E1,5.28E2,3.7E2,6.02E2,1.17E2,9.66E2,5.9E1,1E1,1.98E2,2.67E2,2.7E1,2.2E1,3.6E1,4.25E2,1.03E2,9.2E1,2.78E2,3.65E2,2.37E2,8.9E1,2.8E1],"tree_param":{"num_deleted":"0","num_feature":"8","num_nodes":"31","size_leaf_vector":"0"}},{"base_weights":[3.9561014E0,2.9292476E-1,6.848027E0,-4.2814426E-2,2.8899868E0,5.0807347E0,9.266351E0,-1.9539696E-1,7.389147E-1,2.0077465E0,3.9120054E0,6.5013523E0,3.6829107E0,8.432804E0,1.4346087E1,-1.31657E-2,5.435902E-2,4.0431824E-1,3.133459E-2,8.6713254E-2,1.6744746E-1,1.7475496E-1,3.4572968E-1,2.8997993E-1,6.241309E-1,9.609201E-2,2.2865525E-1,2.786633E-1,4.613391E-1,8.117477E-1,3.9912087E-1],"categories":[],"categories_nodes":[],"categories_segments":[],"categories_sizes":[],"default_left":[0,0,0,0,0,0,0,0,0,0,0,0,0,0,0,0,0,0,0,0,0,0,0,0,0,0,0,0,0,0,0],"id":4,"left_children":[1,3,5,7,9,11,13,15,17,19,21,23,25,27,29,-1,-1,-1,-1,-1,-1,-1,-1,-1,-1,-1,-1,-1,-1,-1,-1],"loss_changes":[3.3950594E4,1.2339125E3,7.6074453E3,1.4971927E2,1.3821545E2,2.0353027E3,3.0758438E3,9.1750565E1,1.6396568E2,2.68367E1,6.846582E1,2.0808574E3,8.1425146E2,1.4266133E3,1.1325176E3,0E0,0E0,0E0,0E0,0E0,0E0,0E0,0E0,0E0,0E0,0E0,0E0,0E0,0E0,0E0,0E0],"parents":[2147483647,0,0,1,1,2,2,3,3,4,4,5,5,6,6,7,7,8,8,9,9,10,10,11,11,12,12,13,13,14,14],"right_children":[2,4,6,8,10,12,14,16,18,20,22,24,26,28,30,-1,-1,-1,-1,-1,-1,-1,-1,-1,-1,-1,-1,-1,-1,-1,-1],"split_conditions":[6.736945E-3,1.09028555E-1,8.14767E-1,4.5560074E-1,7.2019655E-1,9.059553E-1,8.9505863E-1,2.2235801E-2,4.5996505E-1,1.2866147E-1,9.990789E-1,8.419719E-1,3.6456037E-1,3.2965642E-1,9.3325216E-1,-1.31657E-2,5.435902E-2,4.0431824E-1,3.133459E-2,8.6713254E-2,1.6744746E-1,1.7475496E-1,3.4572968E-1,2.8997993E-1,6.241309E-1,9.609201E-2,2.2865525E-1,2.786633E-1,4.613391E-1,8.117477E-1,3.9912087E-1],"split_indices":[0,1,4,4,4,0,1,1,4,5,4,1,4,1,0,0,0,0,0,0,0,0,0,0,0,0,0,0,0,0,0],"split_type":[0,0,0,0,0,0,0,0,0,0,0,0,0,0,0,0,0,0,0,0,0,0,0,0,0,0,0,0,0,0,0],"sum_hessian":[3.204E3,1.414E3,1.79E3,1.253E3,1.61E2,1.036E3,7.54E2,1.049E3,2.04E2,8.8E1,7.3E1,5.12E2,5.24E2,6.5E2,1.04E2,9.97E2,5.2E1,2E0,2.02E2,7.5E1,1.3E1,6.6E1,7E0,4.6E2,5.2E1,1.77E2,3.47E2,1.43E2,5.07E2,7.9E1,2.5E1],"tree_param":{"num_deleted":"0","num_feature":"8","num_nodes":"31","size_leaf_vector":"0"}},{"base_weights":[3.7625027E0,3.376964E-1,6.7001185E0,-7.418554E-2,2.7447956E0,4.8552747E0,8.977816E0,2.9246297E0,-1.2698983E-1,9.612095E-1,3.6800613E0,3.6120155E0,5.9043517E0,7.3107586E0,1.1886918E1,-2.127222E-2,3.9054486E-1,-1.0185782E-2,3.117522E-2,3.6632374E-2,3.1393346E-1,9.866998E-2,2.2257338E-1,1.5938745E-1,3.6838037E-1,2.646119E-1,3.883352E-1,2.0614047E-1,3.9538434E-1,6.599602E-1,3.8007855E-1],"categories":[],"categories_nodes":[],"categories_segments":[],"categories_sizes":[],"default_left":[0,0,0,0,0,0,0,0,0,0,0,0,0,0,0,0,0,0,0,0,0,0,0,0,0,0,0,0,0,0,0],"id":5,"left_children":[1,3,5,7,9,11,13,15,17,19,21,23,25,27,29,-1,-1,-1,-1,-1,-1,-1,-1,-1,-1,-1,-1,-1,-1,-1,-1],"loss_changes":[3.233304E4,1.4724929E3,7.225867E3,2.0131792E2,3.584464E2,1.2281699E3,3.661871E3,3.6344904E2,7.198971E1,8.776802E1,1.781626E2,6.791909E2,5.494004E2,9.0746875E2,1.4742695E3,0E0,0E0,0E0,0E0,0E0,0E0,0E0,0E0,0E0,0E0,0E0,0E0,0E0,0E0,0E0,0E0],"parents":[2147483647,0,0,1,1,2,2,3,3,4,4,5,5,6,6,7,7,8,8,9,9,10,10,11,11,12,12,13,13,14,14],"right_children":[2,4,6,8,10,12,14,16,18,20,22,24,26,28,30,-1,-1,-1,-1,-1,-1,-1,-1,-1,-1,-1,-1,-1,-1,-1,-1],"split_conditions":[1.8951389E-1,6.787465E-2,8.1340736E-1,5.833333E-1,3.6080992E-1,5.0777364E-1,6.8972504E-1,5.9045625E-1,7.821374E-1,3.3511615E-1,1.6416892E-2,8.654817E-1,2.6777413E-1,1.2547598E-2,9.3325216E-1,-2.127222E-2,3.9054486E-1,-1.0185782E-2,3.117522E-2,3.6632374E-2,3.1393346E-1,9.866998E-2,2.2257338E-1,1.5938745E-1,3.6838037E-1,2.646119E-1,3.883352E-1,2.0614047E-1,3.9538434E-1,6.599602E-1,3.8007855E-1],"split_indices":[1,1,4,3,4,4,1,4,4,5,0,1,5,0,0,0,0,0,0,0,0,0,0,0,0,0,0,0,0,0,0],"split_type":[0,0,0,0,0,0,0,0,0,0,0,0,0,0,0,0,0,0,0,0,0,0,0,0,0,0,0,0,0,0,0],"sum_hessian":[3.213E3,1.484E3,1.729E3,1.268E3,2.16E2,9.57E2,7.72E2,2.1E1,1.247E3,7.5E1,1.41E2,4.4E2,5.17E2,4.93E2,2.79E2,1.3E1,8E0,1.132E3,1.15E2,7.3E1,2E0,4.5E1,9.6E1,3.97E2,4.3E1,3.92E2,1.25E2,7.9E1,4.14E2,2.12E2,6.7E1],"tree_param":{"num_deleted":"0","num_feature":"8","num_nodes":"31","size_leaf_vector":"0"}},{"base_weights":[3.607419E0,6.0402405E-1,6.601014E0,4.3096952E-2,3.5404735E0,4.8392305E0,8.798897E0,-1.3432674E-1,1.1009461E0,5.549777E0,2.292405E0,3.84184E0,5.8575E0,8.13255E0,1.50525675E1,-1.0663227E-2,3.9115373E-2,7.347035E-2,1.9579379E-2,2.8712422E-2,3.1227243E-1,7.702689E-2,2.0256554E-1,1.6612081E-1,3.465409E-1,4.7459025E-2,3.0391675E-1,3.2702702E-1,4.6729356E-1,9.087265E-1,3.104475E-1],"categories":[],"categories_nodes":[],"categories_segments":[],"categories_sizes":[],"default_left":[0,0,0,0,0,0,0,0,0,0,0,0,0,0,0,0,0,0,0,0,0,0,0,0,0,0,0,0,0,0,0],"id":6,"left_children":[1,3,5,7,9,11,13,15,17,19,21,23,25,27,29,-1,-1,-1,-1,-1,-1,-1,-1,-1,-1,-1,-1,-1,-1,-1,-1],"loss_changes":[2.8614195E4,2.6187905E3,6.129703E3,2.5089838E2,6.267532E2,8.7834375E2,2.8278984E3,8.301572E1,4.960782E1,3.321631E2,2.040304E2,7.0059717E2,4.6790723E2,1.1789727E3,1.7369883E3,0E0,0E0,0E0,0E0,0E0,0E0,0E0,0E0,0E0,0E0,0E0,0E0,0E0,0E0,0E0,0E0],"parents":[2147483647,0,0,1,1,2,2,3,3,4,4,5,5,6,6,7,7,8,8,9,9,10,10,11,11,12,12,13,13,14,14],"right_children":[2,4,6,8,10,12,14,16,18,20,22,24,26,28,30,-1,-1,-1,-1,-1,-1,-1,-1,-1,-1,-1,-1,-1,-1,-1,-1],"split_conditions":[2.4228756E-1,4.029651E-2,8.1340736E-1,9.679708E-3,8.884348E-1,5.361919E-1,9.8973507E-1,7.547252E-1,3.6353935E-3,1.1098665E-1,7.0716083E-1,4.5033824E-1,6.1874976E-3,5.302862E-1,8.3821946E-1,-1.0663227E-2,3.9115373E-2,7.347035E-2,1.9579379E-2,2.8712422E-2,3.1227243E-1,7.702689E-2,2.0256554E-1,1.6612081E-1,3.465409E-1,4.7459025E-2,3.0391675E-1,3.2702702E-1,4.6729356E-1,9.087265E-1,3.104475E-1],"split_indices":[1,0,4,1,0,4,1,4,0,4,6,5,0,1,0,0,0,0,0,0,0,0,0,0,0,0,0,0,0,0,0],"split_type":[0,0,0,0,0,0,0,0,0,0,0,0,0,0,0,0,0,0,0,0,0,0,0,0,0,0,0,0,0,0,0],"sum_hessian":[3.182E3,1.589E3,1.593E3,1.335E3,2.54E2,8.86E2,7.07E2,1.144E3,1.91E2,9.6E1,1.58E2,4.5E2,4.36E2,6.41E2,6.6E1,1.054E3,9E1,1.25E2,6.6E1,1.2E1,8.4E1,1.12E2,4.6E1,3.87E2,6.3E1,1.9E1,4.17E2,2.8E2,3.61E2,4.8E1,1.8E1],"tree_param":{"num_deleted":"0","num_feature":"8","num_nodes":"31","size_leaf_vector":"0"}},{"base_weights":[3.3637931E0,5.259089E-1,6.138755E0,-4.2878043E-2,2.6288738E0,4.4816155E0,8.236789E0,-2.2837478E-1,8.3821553E-1,2.0989873E0,4.9253745E0,3.340267E0,5.479881E0,6.4437013E0,1.0366594E1,-1.3109176E-2,1.4139483E-2,2.0641625E-1,2.7928E-2,9.094801E-2,2.5622746E-1,1.4074758E-1,3.1661475E-1,1.462623E-1,3.054612E-1,2.5649604E-1,4.2481288E-1,1.4777167E-1,3.367128E-1,4.7540426E-1,6.748339E-1],"categories":[],"categories_nodes":[],"categories_segments":[],"categories_sizes":[],"default_left":[0,0,0,0,0,0,0,0,0,0,0,0,0,0,0,0,0,0,0,0,0,0,0,0,0,0,0,0,0,0,0],"id":7,"left_children":[1,3,5,7,9,11,13,15,17,19,21,23,25,27,29,-1,-1,-1,-1,-1,-1,-1,-1,-1,-1,-1,-1,-1,-1,-1,-1],"loss_changes":[2.5417336E4,1.9103467E3,5.6371133E3,2.0579893E2,4.034026E2,1.0230762E3,2.6790078E3,1.8047237E1,1.9919539E2,2.262113E2,1.6923438E2,4.75125E2,4.6944043E2,3.7841602E2,7.503867E2,0E0,0E0,0E0,0E0,0E0,0E0,0E0,0E0,0E0,0E0,0E0,0E0,0E0,0E0,0E0,0E0],"parents":[2147483647,0,0,1,1,2,2,3,3,4,4,5,5,6,6,7,7,8,8,9,9,10,10,11,11,12,12,13,13,14,14],"right_children":[2,4,6,8,10,12,14,16,18,20,22,24,26,28,30,-1,-1,-1,-1,-1,-1,-1,-1,-1,-1,-1,-1,-1,-1,-1,-1],"split_conditions":[2.4228756E-1,5.8910772E-2,8.14767E-1,4.384404E-1,7.61874E-1,5.114555E-1,6.225826E-1,3.6053124E-3,6.0294116E-1,3.588736E-1,5.784085E-1,4.5033824E-1,8.9505863E-1,2.7940908E-1,9.8973507E-1,-1.3109176E-2,1.4139483E-2,2.0641625E-1,2.7928E-2,9.094801E-2,2.5622746E-1,1.4074758E-1,3.1661475E-1,1.462623E-1,3.054612E-1,2.5649604E-1,4.2481288E-1,1.4777167E-1,3.367128E-1,4.7540426E-1,6.748339E-1],"split_indices":[1,1,4,4,6,4,1,1,3,5,4,5,1,1,1,0,0,0,0,0,0,0,0,0,0,0,0,0,0,0,0],"split_type":[0,0,0,0,0,0,0,0,0,0,0,0,0,0,0,0,0,0,0,0,0,0,0,0,0,0,0,0,0,0,0],"sum_hessian":[3.227E3,1.596E3,1.631E3,1.257E3,3.39E2,9.13E2,7.18E2,1.039E3,2.18E2,2.77E2,6.2E1,4.28E2,4.85E2,3.92E2,3.26E2,9.75E2,6.4E1,1.6E1,2.02E2,2.55E2,2.2E1,2.6E1,3.6E1,3.74E2,5.4E1,4.37E2,4.8E1,3.1E1,3.61E2,2.59E2,6.7E1],"tree_param":{"num_deleted":"0","num_feature":"8","num_nodes":"31","size_leaf_vector":"0"}},{"base_weights":[3.177685E0,2.7439108E-1,5.5744734E0,-2.3187017E-2,1.8811535E0,4.175636E0,7.9179296E0,-1.928151E-1,7.800901E-1,1.6021463E0,6.769772E0,5.330967E0,2.9282794E0,9.427818E0,6.482233E0,-1.1108835E-2,1.9617984E-2,2.1167333E-1,3.0433182E-2,5.3709317E-2,1.1221092E-1,1.6921209E-1,4.0197536E-1,2.0422804E-1,3.2438898E-1,1.6814288E-1,2.6057204E-2,2.3078468E-1,5.693803E-1,3.4540594E-1,2.3826852E-1],"categories":[],"categories_nodes":[],"categories_segments":[],"categories_sizes":[],"default_left":[0,0,0,0,0,0,0,0,0,0,0,0,0,0,0,0,0,0,0,0,0,0,0,0,0,0,0,0,0,0,0],"id":8,"left_children":[1,3,5,7,9,11,13,15,17,19,21,23,25,27,29,-1,-1,-1,-1,-1,-1,-1,-1,-1,-1,-1,-1,-1,-1,-1,-1],"loss_changes":[2.2432936E4,6.9764594E2,5.756086E3,1.680207E2,3.0013672E2,1.5811406E3,1.3674297E3,1.7578102E1,1.2470328E2,7.114972E1,2.4377014E1,8.0112695E2,5.579048E2,2.9558457E3,2.1641602E2,0E0,0E0,0E0,0E0,0E0,0E0,0E0,0E0,0E0,0E0,0E0,0E0,0E0,0E0,0E0,0E0],"parents":[2147483647,0,0,1,1,2,2,3,3,4,4,5,5,6,6,7,7,8,8,9,9,10,10,11,11,12,12,13,13,14,14],"right_children":[2,4,6,8,10,12,14,16,18,20,22,24,26,28,30,-1,-1,-1,-1,-1,-1,-1,-1,-1,-1,-1,-1,-1,-1,-1,-1],"split_conditions":[7.316445E-3,1.1335588E-3,8.399206E-1,3.9415827E-1,9.859836E-1,9.087163E-1,8.7343365E-1,5.613242E-5,5.6666666E-1,5.67787E-1,2.5997804E-3,5.784085E-1,9.137931E-1,2.2691322E-2,9.6637416E-1,-1.1108835E-2,1.9617984E-2,2.1167333E-1,3.0433182E-2,5.3709317E-2,1.1221092E-1,1.6921209E-1,4.0197536E-1,2.0422804E-1,3.2438898E-1,1.6814288E-1,2.6057204E-2,2.3078468E-1,5.693803E-1,3.4540594E-1,2.3826852E-1],"split_indices":[0,0,4,4,4,0,0,0,3,4,0,4,3,0,0,0,0,0,0,0,0,0,0,0,0,0,0,0,0,0,0],"split_type":[0,0,0,0,0,0,0,0,0,0,0,0,0,0,0,0,0,0,0,0,0,0,0,0,0,0,0,0,0,0,0],"sum_hessian":[3.223E3,1.458E3,1.765E3,1.231E3,2.27E2,1.107E3,6.58E2,1.017E3,2.14E2,2.16E2,1.1E1,5.73E2,5.34E2,3.18E2,3.4E2,9.69E2,4.8E1,9E0,2.05E2,1.2E2,9.6E1,4E0,7E0,2.78E2,2.95E2,4.52E2,8.2E1,9.3E1,2.25E2,2.7E2,7E1],"tree_param":{"num_deleted":"0","num_feature":"8","num_nodes":"31","size_leaf_vector":"0"}},{"base_weights":[3.0157475E0,5.2532023E-1,5.51995E0,7.241828E-2,2.9805217E0,4.433033E0,7.677248E0,-1.2503639E-1,9.425088E-1,4.6810412E0,1.9190387E0,5.3798146E0,3.207354E0,5.6608543E0,9.710453E0,-1.0877262E-2,2.9344112E-2,2.7607208E-1,3.939417E-2,-2.7566697E-3,2.6194435E-1,6.138283E-2,1.7408131E-1,2.3504315E-1,5.016794E-1,1.8182269E-1,1.2873813E-2,3.0046E-1,1.0103146E-1,1.9506541E-1,5.0992155E-1],"categories":[],"categories_nodes":[],"categories_segments":[],"categories_sizes":[],"default_left":[0,0,0,0,0,0,0,0,0,0,0,0,0,0,0,0,0,0,0,0,0,0,0,0,0,0,0,0,0,0,0],"id":9,"left_children":[1,3,5,7,9,11,13,15,17,19,21,23,25,27,29,-1,-1,-1,-1,-1,-1,-1,-1,-1,-1,-1,-1,-1,-1,-1,-1],"loss_changes":[1.9872936E4,1.7778169E3,3.6918633E3,2.3222429E2,4.4048022E2,1.2116621E3,2.121996E3,7.270404E1,1.7265459E2,2.5128418E2,1.631792E2,1.8360098E3,5.863911E2,3.2896484E2,7.057461E2,0E0,0E0,0E0,0E0,0E0,0E0,0E0,0E0,0E0,0E0,0E0,0E0,0E0,0E0,0E0,0E0],"parents":[2147483647,0,0,1,1,2,2,3,3,4,4,5,5,6,6,7,7,8,8,9,9,10,10,11,11,12,12,13,13,14,14],"right_children":[2,4,6,8,10,12,14,16,18,20,22,24,26,28,30,-1,-1,-1,-1,-1,-1,-1,-1,-1,-1,-1,-1,-1,-1,-1,-1],"split_conditions":[2.4228756E-1,4.1336562E-2,8.806268E-1,4.5560074E-1,8.884348E-1,9.1082585E-1,6.2676674E-1,3.6053124E-3,5.6666666E-1,1.1098665E-1,6.9634414E-1,8.2987356E-1,9.137931E-1,9.646842E-1,2.0040398E-2,-1.0877262E-2,2.9344112E-2,2.7607208E-1,3.939417E-2,-2.7566697E-3,2.6194435E-1,6.138283E-2,1.7408131E-1,2.3504315E-1,5.016794E-1,1.8182269E-1,1.2873813E-2,3.0046E-1,1.0103146E-1,1.9506541E-1,5.0992155E-1],"split_indices":[1,0,4,4,0,0,1,1,3,4,6,1,3,0,0,0,0,0,0,0,0,0,0,0,0,0,0,0,0,0,0],"split_type":[0,0,0,0,0,0,0,0,0,0,0,0,0,0,0,0,0,0,0,0,0,0,0,0,0,0,0,0,0,0,0],"sum_hessian":[3.186E3,1.598E3,1.588E3,1.35E3,2.48E2,1.058E3,5.3E2,1.101E3,2.49E2,9.4E1,1.54E2,5.95E2,4.63E2,2.68E2,2.62E2,9.75E2,1.26E2,7E0,2.42E2,1E1,8.4E1,1.08E2,4.6E1,5.21E2,7.4E1,4.04E2,5.9E1,2.44E2,2.4E1,2.1E1,2.41E2],"tree_param":{"num_deleted":"0","num_feature":"8","num_nodes":"31","size_leaf_vector":"0"}},{"base_weights":[2.9596233E0,4.2182344E-1,5.476409E0,-6.32643E-3,2.7740307E0,4.815397E0,8.538506E0,-1.4483713E-1,9.3187875E-1,4.2655735E0,1.487464E0,5.174369E0,2.2396288E0,1.1443575E1,3.7074256E0,1.1448398E-2,-1.1976973E-2,8.03357E-2,7.6947333E-3,7.071603E-2,2.398256E-1,1.0678568E-1,-2.845167E-3,1.6268228E-1,2.8416285E-1,1.3546158E-1,4.1534123E-3,6.488549E-1,3.7302774E-1,1.961311E-1,-2.8441025E-2],"categories":[],"categories_nodes":[],"categories_segments":[],"categories_sizes":[],"default_left":[0,0,0,0,0,0,0,0,0,0,0,0,0,0,0,0,0,0,0,0,0,0,0,0,0,0,0,0,0,0,0],"id":10,"left_children":[1,3,5,7,9,11,13,15,17,19,21,23,25,27,29,-1,-1,-1,-1,-1,-1,-1,-1,-1,-1,-1,-1,-1,-1,-1,-1],"loss_changes":[2.022563E4,1.589217E3,3.1771758E3,1.7375012E2,4.5996472E2,1.1996758E3,3.9013027E3,4.1296093E1,9.005461E1,1.6276636E2,1.3227142E2,1.1045801E3,1.6383673E2,9.7209375E2,1.0069629E2,0E0,0E0,0E0,0E0,0E0,0E0,0E0,0E0,0E0,0E0,0E0,0E0,0E0,0E0,0E0,0E0],"parents":[2147483647,0,0,1,1,2,2,3,3,4,4,5,5,6,6,7,7,8,8,9,9,10,10,11,11,12,12,13,13,14,14],"right_children":[2,4,6,8,10,12,14,16,18,20,22,24,26,28,30,-1,-1,-1,-1,-1,-1,-1,-1,-1,-1,-1,-1,-1,-1,-1,-1],"split_conditions":[2.4228756E-1,4.1336562E-2,8.2053095E-1,2.2235801E-2,8.9962137E-1,9.678553E-1,8.809769E-1,9.5033115E-1,2.5997804E-3,4.804737E-2,9.37343E-1,1.7848436E-2,7.008266E-1,2.0817222E-1,9.0228134E-1,1.1448398E-2,-1.1976973E-2,8.03357E-2,7.6947333E-3,7.071603E-2,2.398256E-1,1.0678568E-1,-2.845167E-3,1.6268228E-1,2.8416285E-1,1.3546158E-1,4.1534123E-3,6.488549E-1,3.7302774E-1,1.961311E-1,-2.8441025E-2],"split_indices":[1,0,1,1,0,0,0,3,0,1,0,0,7,7,6,0,0,0,0,0,0,0,0,0,0,0,0,0,0,0,0],"split_type":[0,0,0,0,0,0,0,0,0,0,0,0,0,0,0,0,0,0,0,0,0,0,0,0,0,0,0,0,0,0,0],"sum_hessian":[3.166E3,1.577E3,1.589E3,1.335E3,2.42E2,1.309E3,2.8E2,1.164E3,1.71E2,1.11E2,1.31E2,1.148E3,1.61E2,1.74E2,1.06E2,2.35E2,9.29E2,9.1E1,8E1,1.8E1,9.3E1,9.2E1,3.9E1,2.42E2,9.06E2,1.32E2,2.9E1,1.24E2,5E1,1.01E2,5E0],"tree_param":{"num_deleted":"0","num_feature":"8","num_nodes":"31","size_leaf_vector":"0"}},{"base_weights":[2.7244449E0,1.7115572E-2,4.6140766E0,-3.5508905E-2,2.0530047E0,3.1431537E0,6.2507906E0,-1.4112198E-1,4.8976132E-1,3.7139446E-1,4.611529E0,2.5642436E0,4.585442E0,5.608571E0,1.0507683E1,-9.30911E-3,2.5069645E-2,6.1752623E-1,1.8804666E-2,-1.8856652E-2,2.4941352E-1,5.109908E-1,9.5353045E-2,1.5547277E-1,3.826813E-2,2.1958433E-1,7.220584E-1,1.9567342E-1,3.2383707E-1,6.375691E-1,2.6149023E-1],"categories":[],"categories_nodes":[],"categories_segments":[],"categories_sizes":[],"default_left":[0,0,0,0,0,0,0,0,0,0,0,0,0,0,0,0,0,0,0,0,0,0,0,0,0,0,0,0,0,0,0],"id":11,"left_children":[1,3,5,7,9,11,13,15,17,19,21,23,25,27,29,-1,-1,-1,-1,-1,-1,-1,-1,-1,-1,-1,-1,-1,-1,-1,-1],"loss_changes":[1.6278574E4,1.4031602E2,4.4919688E3,7.091122E1,1.4026784E2,8.140117E2,2.3632656E3,3.0898132E1,2.8386755E2,7.445426E1,1.776868E2,6.9200586E2,4.750869E2,1.1107578E3,1.2951406E3,0E0,0E0,0E0,0E0,0E0,0E0,0E0,0E0,0E0,0E0,0E0,0E0,0E0,0E0,0E0,0E0],"parents":[2147483647,0,0,1,1,2,2,3,3,4,4,5,5,6,6,7,7,8,8,9,9,10,10,11,11,12,12,13,13,14,14],"right_children":[2,4,6,8,10,12,14,16,18,20,22,24,26,28,30,-1,-1,-1,-1,-1,-1,-1,-1,-1,-1,-1,-1,-1,-1,-1,-1],"split_conditions":[1.09028555E-1,2.6238716E-1,7.738267E-1,4.5560074E-1,5.480004E-1,1.996729E-1,9.012006E-1,3.124604E-2,4.5996505E-1,8.6703384E-1,6.235575E-1,9.487683E-1,8.035259E-1,4.0990797E-1,8.3821946E-1,-9.30911E-3,2.5069645E-2,6.1752623E-1,1.8804666E-2,-1.8856652E-2,2.4941352E-1,5.109908E-1,9.5353045E-2,1.5547277E-1,3.826813E-2,2.1958433E-1,7.220584E-1,1.9567342E-1,3.2383707E-1,6.375691E-1,2.6149023E-1],"split_indices":[1,5,4,4,4,5,1,1,4,0,4,0,2,1,0,0,0,0,0,0,0,0,0,0,0,0,0,0,0,0,0],"split_type":[0,0,0,0,0,0,0,0,0,0,0,0,0,0,0,0,0,0,0,0,0,0,0,0,0,0,0,0,0,0,0],"sum_hessian":[3.181E3,1.308E3,1.873E3,1.276E3,3.2E1,9.88E2,8.85E2,1.063E3,2.13E2,2E1,1.2E1,7.07E2,2.81E2,7.71E2,1.14E2,9.94E2,6.9E1,1E0,2.12E2,1.8E1,2E0,3E0,9E0,5.42E2,1.65E2,2.77E2,4E0,2.63E2,5.08E2,7.9E1,3.5E1],"tree_param":{"num_deleted":"0","num_feature":"8","num_nodes":"31","size_leaf_vector":"0"}},{"base_weights":[2.7165935E0,2.1091868E-1,4.800245E0,3.0487995E0,6.1296582E-2,3.8367887E0,6.342947E0,1.6820618E0,4.4067783E0,-8.8791706E-2,1.7367448E0,2.592467E0,4.2854295E0,8.25767E0,3.4615529E0,4.5858692E-2,2.804301E-1,3.8423568E-1,1.1099571E-1,1.4965395E-2,-1.1053032E-2,1.23666406E-1,1.56116085E-2,8.869107E-2,1.9542508E-1,2.7347866E-1,1.6565953E-1,1.7303987E-1,4.6719828E-1,2.035143E-1,7.7821605E-2],"categories":[],"categories_nodes":[],"categories_segments":[],"categories_sizes":[],"default_left":[0,0,0,0,0,0,0,0,0,0,0,0,0,0,0,0,0,0,0,0,0,0,0,0,0,0,0,0,0,0,0],"id":12,"left_children":[1,3,5,7,9,11,13,15,17,19,21,23,25,27,29,-1,-1,-1,-1,-1,-1,-1,-1,-1,-1,-1,-1,-1,-1,-1,-1],"loss_changes":[1.6753023E4,6.18894E2,2.579707E3,1.2807556E2,3.486849E2,5.923623E2,3.6788926E3,1.0898376E2,2.4100299E2,6.541374E1,1.1884476E2,3.0442566E2,8.948369E2,2.067621E3,3.0678638E2,0E0,0E0,0E0,0E0,0E0,0E0,0E0,0E0,0E0,0E0,0E0,0E0,0E0,0E0,0E0,0E0],"parents":[2147483647,0,0,1,1,2,2,3,3,4,4,5,5,6,6,7,7,8,8,9,9,10,10,11,11,12,12,13,13,14,14],"right_children":[2,4,6,8,10,12,14,16,18,20,22,24,26,28,30,-1,-1,-1,-1,-1,-1,-1,-1,-1,-1,-1,-1,-1,-1,-1,-1],"split_conditions":[1.8951389E-1,6.9166666E-1,6.2446E-1,8.6351E-3,1.1299819E-1,5.627437E-2,9.059553E-1,3.588736E-1,8.6796224E-1,9.805195E-1,8.9503765E-1,4.550849E-1,9.1082585E-1,2.1299994E-2,6.413155E-1,4.5858692E-2,2.804301E-1,3.8423568E-1,1.1099571E-1,1.4965395E-2,-1.1053032E-2,1.23666406E-1,1.56116085E-2,8.869107E-2,1.9542508E-1,2.7347866E-1,1.6565953E-1,1.7303987E-1,4.6719828E-1,2.035143E-1,7.7821605E-2],"split_indices":[1,3,1,0,1,0,0,5,0,3,0,1,0,0,7,0,0,0,0,0,0,0,0,0,0,0,0,0,0,0,0],"split_type":[0,0,0,0,0,0,0,0,0,0,0,0,0,0,0,0,0,0,0,0,0,0,0,0,0,0,0,0,0,0,0],"sum_hessian":[3.208E3,1.457E3,1.751E3,7.2E1,1.385E3,1.08E3,6.71E2,3.7E1,3.5E1,1.272E3,1.13E2,2.88E2,7.92E2,4.02E2,2.69E2,3.2E1,5E0,1.3E1,2.2E1,3.23E2,9.49E2,7.4E1,3.9E1,1.79E2,1.09E2,3.55E2,4.37E2,7.5E1,3.27E2,2.03E2,6.6E1],"tree_param":{"num_deleted":"0","num_feature":"8","num_nodes":"31","size_leaf_vector":"0"}},{"base_weights":[2.5654545E0,4.6454868E-1,4.7682185E0,-8.68809E-2,2.0665271E0,3.2420893E0,6.3118033E0,1.7735319E0,-1.1462222E-1,1.6417509E0,3.7714407E0,4.184243E0,2.2550404E0,5.5578E0,1.0121177E1,1.0981962E-2,7.0474267E-1,-7.0529203E-3,5.2151203E-2,9.56767E-2,-1.5961627E-2,6.5114215E-2,2.2673145E-1,9.907245E-2,2.540798E-1,1.3256761E-1,3.438899E-4,1.80208E-1,3.0314606E-1,6.083303E-1,2.596943E-1],"categories":[],"categories_nodes":[],"categories_segments":[],"categories_sizes":[],"default_left":[0,0,0,0,0,0,0,0,0,0,0,0,0,0,0,0,0,0,0,0,0,0,0,0,0,0,0,0,0,0,0],"id":13,"left_children":[1,3,5,7,9,11,13,15,17,19,21,23,25,27,29,-1,-1,-1,-1,-1,-1,-1,-1,-1,-1,-1,-1,-1,-1,-1,-1],"loss_changes":[1.4816002E4,1.4489199E3,3.6615117E3,6.3219475E1,2.9797522E2,7.233662E2,2.1726348E3,3.415324E2,3.699404E1,1.8075201E2,1.5050232E2,7.845576E2,3.4478833E2,6.1958594E2,1.2167676E3,0E0,0E0,0E0,0E0,0E0,0E0,0E0,0E0,0E0,0E0,0E0,0E0,0E0,0E0,0E0,0E0],"parents":[2147483647,0,0,1,1,2,2,3,3,4,4,5,5,6,6,7,7,8,8,9,9,10,10,11,11,12,12,13,13,14,14],"right_children":[2,4,6,8,10,12,14,16,18,20,22,24,26,28,30,-1,-1,-1,-1,-1,-1,-1,-1,-1,-1,-1,-1,-1,-1,-1,-1],"split_conditions":[2.714063E-1,5.8910772E-2,7.75887E-1,5.6666666E-1,7.0992815E-1,9.031219E-1,8.9505863E-1,5.3333336E-1,9.8226196E-1,9.290078E-1,3.6456037E-1,1.7848436E-2,9.137931E-1,2.21151E-2,8.3821946E-1,1.0981962E-2,7.0474267E-1,-7.0529203E-3,5.2151203E-2,9.56767E-2,-1.5961627E-2,6.5114215E-2,2.2673145E-1,9.907245E-2,2.540798E-1,1.3256761E-1,3.438899E-4,1.80208E-1,3.0314606E-1,6.083303E-1,2.596943E-1],"split_indices":[1,1,4,3,6,0,1,3,4,0,4,0,3,0,0,0,0,0,0,0,0,0,0,0,0,0,0,0,0,0,0],"split_type":[0,0,0,0,0,0,0,0,0,0,0,0,0,0,0,0,0,0,0,0,0,0,0,0,0,0,0,0,0,0,0],"sum_hessian":[3.201E3,1.639E3,1.562E3,1.22E3,4.19E2,7.87E2,7.75E2,1.7E1,1.203E3,3.37E2,8.2E1,4.01E2,3.86E2,6.49E2,1.26E2,1.6E1,1E0,1.177E3,2.6E1,2.96E2,4.1E1,2E1,6.2E1,1.17E2,2.84E2,3.28E2,5.8E1,1.35E2,5.14E2,8.8E1,3.8E1],"tree_param":{"num_deleted":"0","num_feature":"8","num_nodes":"31","size_leaf_vector":"0"}},{"base_weights":[2.4315248E0,3.5513675E-1,4.4716263E0,-6.340486E-2,1.8267714E0,3.1621392E0,6.1475935E0,-2.0121296E-1,6.637323E-1,3.546262E0,1.2977899E0,2.2268193E0,3.936129E0,5.4234962E0,1.0240539E1,-1.14194965E-2,1.1536357E-2,3.7765425E-1,2.7716924E-2,8.226628E-2,2.250732E-1,3.0036708E-2,8.940517E-2,1.0083286E-1,3.2393897E-1,1.8041246E-1,3.3300123E-1,2.3084573E-1,3.3449766E-1,4.1704726E-1,7.845787E-1],"categories":[],"categories_nodes":[],"categories_segments":[],"categories_sizes":[],"default_left":[0,0,0,0,0,0,0,0,0,0,0,0,0,0,0,0,0,0,0,0,0,0,0,0,0,0,0,0,0,0,0],"id":14,"left_children":[1,3,5,7,9,11,13,15,17,19,21,23,25,27,29,-1,-1,-1,-1,-1,-1,-1,-1,-1,-1,-1,-1,-1,-1,-1,-1],"loss_changes":[1.3536803E4,9.7638135E2,3.5183496E3,1.2388719E2,3.146598E2,6.478379E2,2.0368281E3,1.2249329E1,1.4428255E2,1.414873E2,9.120526E1,3.5599182E2,4.180586E2,5.8405664E2,9.563662E2,0E0,0E0,0E0,0E0,0E0,0E0,0E0,0E0,0E0,0E0,0E0,0E0,0E0,0E0,0E0,0E0],"parents":[2147483647,0,0,1,1,2,2,3,3,4,4,5,5,6,6,7,7,8,8,9,9,10,10,11,11,12,12,13,13,14,14],"right_children":[2,4,6,8,10,12,14,16,18,20,22,24,26,28,30,-1,-1,-1,-1,-1,-1,-1,-1,-1,-1,-1,-1,-1,-1,-1,-1],"split_conditions":[2.4228756E-1,5.8910772E-2,8.14767E-1,4.5560074E-1,7.176471E-1,5.01241E-1,8.9505863E-1,3.6053124E-3,4.5996505E-1,5.67787E-1,3.1201336E-1,6.5928084E-1,4.0185815E-1,6.182058E-1,9.8116165E-1,-1.14194965E-2,1.1536357E-2,3.7765425E-1,2.7716924E-2,8.226628E-2,2.250732E-1,3.0036708E-2,8.940517E-2,1.0083286E-1,3.2393897E-1,1.8041246E-1,3.3300123E-1,2.3084573E-1,3.3449766E-1,4.1704726E-1,7.845787E-1],"split_indices":[1,1,4,4,3,4,1,1,4,4,4,2,2,1,4,0,0,0,0,0,0,0,0,0,0,0,0,0,0,0,0],"split_type":[0,0,0,0,0,0,0,0,0,0,0,0,0,0,0,0,0,0,0,0,0,0,0,0,0,0,0,0,0,0,0],"sum_hessian":[3.195E3,1.584E3,1.611E3,1.234E3,3.5E2,9.06E2,7.05E2,1.038E3,1.96E2,8.1E1,2.69E2,4.12E2,4.94E2,6.01E2,1.04E2,9.77E2,6.1E1,2E0,1.94E2,2.8E1,5.3E1,1.12E2,1.57E2,3.94E2,1.8E1,4.43E2,5.1E1,3.7E2,2.31E2,7.9E1,2.5E1],"tree_param":{"num_deleted":"0","num_feature":"8","num_nodes":"31","size_leaf_vector":"0"}},{"base_weights":[2.2201505E0,2.490324E-1,4.0105424E0,-2.6435662E-2,1.5988216E0,2.8461902E0,6.0293E0,-1.1097668E-1,5.4839796E-1,1.2877647E0,5.062811E0,3.8851993E0,1.903799E0,5.5198455E0,1.0641269E1,-7.3429565E-3,1.4582655E-2,6.8643117E-1,1.91147E-2,1.7933543E-1,5.533671E-2,-8.699438E-3,2.8116053E-1,1.4856118E-1,2.7166668E-1,-7.1594194E-3,1.13443315E-1,1.6381611E-1,3.0304024E-1,3.9439943E-1,9.5621663E-1],"categories":[],"categories_nodes":[],"categories_segments":[],"categories_sizes":[],"default_left":[0,0,0,0,0,0,0,0,0,0,0,0,0,0,0,0,0,0,0,0,0,0,0,0,0,0,0,0,0,0,0],"id":15,"left_children":[1,3,5,7,9,11,13,15,17,19,21,23,25,27,29,-1,-1,-1,-1,-1,-1,-1,-1,-1,-1,-1,-1,-1,-1,-1,-1],"loss_changes":[1.132027E4,5.681891E2,3.9341055E3,6.1779076E1,2.7255212E2,1.0383389E3,1.3839102E3,1.6050488E1,3.516056E2,9.5497284E1,6.2607117E1,7.0123975E2,4.2030066E2,6.537207E2,1.250523E3,0E0,0E0,0E0,0E0,0E0,0E0,0E0,0E0,0E0,0E0,0E0,0E0,0E0,0E0,0E0,0E0],"parents":[2147483647,0,0,1,1,2,2,3,3,4,4,5,5,6,6,7,7,8,8,9,9,10,10,11,11,12,12,13,13,14,14],"right_children":[2,4,6,8,10,12,14,16,18,20,22,24,26,28,30,-1,-1,-1,-1,-1,-1,-1,-1,-1,-1,-1,-1,-1,-1,-1,-1],"split_conditions":[1.2068992E-2,1.1892438E-1,8.519405E-1,6.1579025E-1,9.990789E-1,9.055176E-1,9.8973507E-1,3.6053124E-3,6.235575E-1,1.4991468E-1,2.2559133E-1,5.75574E-1,1.2982017E-1,3.2965642E-1,9.9340117E-1,-7.3429565E-3,1.4582655E-2,6.8643117E-1,1.91147E-2,1.7933543E-1,5.533671E-2,-8.699438E-3,2.8116053E-1,1.4856118E-1,2.7166668E-1,-7.1594194E-3,1.13443315E-1,1.6381611E-1,3.0304024E-1,3.9439943E-1,9.5621663E-1],"split_indices":[0,1,4,4,4,0,1,1,4,1,1,1,4,1,4,0,0,0,0,0,0,0,0,0,0,0,0,0,0,0,0],"split_type":[0,0,0,0,0,0,0,0,0,0,0,0,0,0,0,0,0,0,0,0,0,0,0,0,0,0,0,0,0,0,0],"sum_hessian":[3.207E3,1.527E3,1.68E3,1.269E3,2.58E2,1.067E3,6.13E2,1.107E3,1.62E2,2.38E2,2E1,5.06E2,5.61E2,5.54E2,5.9E1,1.017E3,9E1,1E0,1.61E2,1.6E1,2.22E2,2E0,1.8E1,3.2E2,1.86E2,8.5E1,4.76E2,1.09E2,4.45E2,4.6E1,1.3E1],"tree_param":{"num_deleted":"0","num_feature":"8","num_nodes":"31","size_leaf_vector":"0"}},{"base_weights":[2.1503053E0,6.560924E-2,3.7941062E0,-1.2912779E-1,9.1817176E-1,2.8546073E0,5.9484377E0,-1.6104132E-1,2.6999637E-1,7.230479E-1,5.287072E0,1.6391323E0,3.6709137E0,4.1912165E0,7.8460655E0,-6.8360195E-3,-2.6850978E-2,1.9057041E-1,-2.3608655E-3,3.2689948E-2,1.7208743E-1,2.9200718E-1,-6.090939E-3,7.6074176E-2,6.4910316E-1,2.596287E-1,1.4163464E-1,1.3078736E-1,2.4461897E-1,4.4864735E-1,2.2827347E-1],"categories":[],"categories_nodes":[],"categories_segments":[],"categories_sizes":[],"default_left":[0,0,0,0,0,0,0,0,0,0,0,0,0,0,0,0,0,0,0,0,0,0,0,0,0,0,0,0,0,0,0],"id":16,"left_children":[1,3,5,7,9,11,13,15,17,19,21,23,25,27,29,-1,-1,-1,-1,-1,-1,-1,-1,-1,-1,-1,-1,-1,-1,-1,-1],"loss_changes":[1.0897057E4,2.330523E2,3.5816797E3,1.4602394E1,2.1867361E2,1.2243105E3,1.7644375E3,9.610226E0,9.5667625E1,4.5004868E1,3.361795E1,6.474889E2,9.3042676E2,2.987168E2,9.128203E2,0E0,0E0,0E0,0E0,0E0,0E0,0E0,0E0,0E0,0E0,0E0,0E0,0E0,0E0,0E0,0E0],"parents":[2147483647,0,0,1,1,2,2,3,3,4,4,5,5,6,6,7,7,8,8,9,9,10,10,11,11,12,12,13,13,14,14],"right_children":[2,4,6,8,10,12,14,16,18,20,22,24,26,28,30,-1,-1,-1,-1,-1,-1,-1,-1,-1,-1,-1,-1,-1,-1,-1,-1],"split_conditions":[7.316445E-3,9.679708E-3,8.806268E-1,7.88941E-1,9.990789E-1,5.01241E-1,6.225826E-1,4.976332E-1,8.1913835E-1,7.8675187E-1,4.656814E-1,8.035259E-1,8.7071556E-1,3.3673668E-1,9.201687E-1,-6.8360195E-3,-2.6850978E-2,1.9057041E-1,-2.3608655E-3,3.2689948E-2,1.7208743E-1,2.9200718E-1,-6.090939E-3,7.6074176E-2,6.4910316E-1,2.596287E-1,1.4163464E-1,1.3078736E-1,2.4461897E-1,4.4864735E-1,2.2827347E-1],"split_indices":[0,1,4,4,4,4,1,4,4,6,1,2,0,1,0,0,0,0,0,0,0,0,0,0,0,0,0,0,0,0,0],"split_type":[0,0,0,0,0,0,0,0,0,0,0,0,0,0,0,0,0,0,0,0,0,0,0,0,0,0,0,0,0,0,0],"sum_hessian":[3.179E3,1.402E3,1.777E3,1.142E3,2.6E2,1.239E3,5.38E2,1.058E3,8.4E1,2.5E2,1E1,4.99E2,7.4E2,2.81E2,2.57E2,9.95E2,6.3E1,6E0,7.8E1,2.45E2,5E0,9E0,1E0,4.95E2,4E0,2.61E2,4.79E2,8.8E1,1.93E2,1.9E2,6.7E1],"tree_param":{"num_deleted":"0","num_feature":"8","num_nodes":"31","size_leaf_vector":"0"}},{"base_weights":[2.053099E0,6.622828E-1,4.3446007E0,-1.5632924E-2,2.025383E0,5.377865E0,2.8448815E0,1.6742628E0,-7.531085E-2,2.3065314E0,1.1290002E-1,4.8018355E0,1.0470158E1,3.3154612E0,1.2270728E0,1.8865503E-2,2.4188688E-1,8.990369E-3,-8.071563E-3,6.1717626E-2,1.4168881E-1,1.3972624E-1,-1.6174186E-2,1.0824776E-1,2.819049E-1,4.0238094E-1,8.8459456E-1,2.1187988E-1,1.2884532E-1,3.6114932E-4,9.3933724E-2],"categories":[],"categories_nodes":[],"categories_segments":[],"categories_sizes":[],"default_left":[0,0,0,0,0,0,0,0,0,0,0,0,0,0,0,0,0,0,0,0,0,0,0,0,0,0,0,0,0,0,0],"id":17,"left_children":[1,3,5,7,9,11,13,15,17,19,21,23,25,27,29,-1,-1,-1,-1,-1,-1,-1,-1,-1,-1,-1,-1,-1,-1,-1,-1],"loss_changes":[1.0090534E4,1.8222919E3,1.8380293E3,1.3304568E2,3.519275E2,2.0235723E3,3.689724E2,1.8280417E2,2.8019936E1,3.1928882E2,1.0037245E2,1.392458E3,1.0997622E3,2.4719727E2,8.9010315E1,0E0,0E0,0E0,0E0,0E0,0E0,0E0,0E0,0E0,0E0,0E0,0E0,0E0,0E0,0E0,0E0],"parents":[2147483647,0,0,1,1,2,2,3,3,4,4,5,5,6,6,7,7,8,8,9,9,10,10,11,11,12,12,13,13,14,14],"right_children":[2,4,6,8,10,12,14,16,18,20,22,24,26,28,30,-1,-1,-1,-1,-1,-1,-1,-1,-1,-1,-1,-1,-1,-1,-1,-1],"split_conditions":[4.07854E-1,1.1299819E-1,9.083254E-1,6.785714E-1,9.40272E-1,9.8973507E-1,6.5367687E-1,5.3820336E-1,9.805195E-1,5.627437E-2,6.8820226E-1,1.7848436E-2,9.75E-1,9.4986075E-1,4.9881393E-1,1.8865503E-2,2.4188688E-1,8.990369E-3,-8.071563E-3,6.1717626E-2,1.4168881E-1,1.3972624E-1,-1.6174186E-2,1.0824776E-1,2.819049E-1,4.0238094E-1,8.8459456E-1,2.1187988E-1,1.2884532E-1,3.6114932E-4,9.3933724E-2],"split_indices":[1,1,0,3,0,1,7,6,3,0,3,0,3,0,6,0,0,0,0,0,0,0,0,0,0,0,0,0,0,0,0],"split_type":[0,0,0,0,0,0,0,0,0,0,0,0,0,0,0,0,0,0,0,0,0,0,0,0,0,0,0,0,0,0,0],"sum_hessian":[3.166E3,1.971E3,1.195E3,1.317E3,6.54E2,7.06E2,4.89E2,4.4E1,1.273E3,5.7E2,8.4E1,6.36E2,7E1,3.78E2,1.11E2,3.2E1,1.2E1,3.21E2,9.52E2,1.89E2,3.81E2,1.1E1,7.3E1,1.54E2,4.82E2,5.4E1,1.6E1,1.66E2,2.12E2,3.9E1,7.2E1],"tree_param":{"num_deleted":"0","num_feature":"8","num_nodes":"31","size_leaf_vector":"0"}},{"base_weights":[1.9627793E0,1.5479438E-1,3.6120956E0,-1.274446E-1,1.6003678E0,1.9968399E0,4.6885533E0,-1.6998784E-1,2.1230498E-1,1.3319262E0,4.6208487E0,1.2570871E0,3.55272E0,4.2790236E0,9.015048E0,1.5183019E-3,-1.1347168E-2,2.46574E-2,-1.9531406E-2,7.602023E-2,-3.662708E-2,1.7916255E-2,2.5372776E-1,9.719494E-2,1.1839045E-2,1.665208E-1,6.133935E-1,1.1667263E-1,2.4255939E-1,3.428906E-1,8.6837435E-1],"categories":[],"categories_nodes":[],"categories_segments":[],"categories_sizes":[],"default_left":[0,0,0,0,0,0,0,0,0,0,0,0,0,0,0,0,0,0,0,0,0,0,0,0,0,0,0,0,0,0,0],"id":18,"left_children":[1,3,5,7,9,11,13,15,17,19,21,23,25,27,29,-1,-1,-1,-1,-1,-1,-1,-1,-1,-1,-1,-1,-1,-1,-1,-1],"loss_changes":[9.556557E3,6.2443964E2,2.904787E3,1.8551718E1,1.9655096E2,7.689834E2,1.7421094E3,1.3004318E1,2.4406765E1,9.099762E1,3.6860382E1,3.1978613E2,3.776245E2,1.01281055E3,1.4304614E3,0E0,0E0,0E0,0E0,0E0,0E0,0E0,0E0,0E0,0E0,0E0,0E0,0E0,0E0,0E0,0E0],"parents":[2147483647,0,0,1,1,2,2,3,3,4,4,5,5,6,6,7,7,8,8,9,9,10,10,11,11,12,12,13,13,14,14],"right_children":[2,4,6,8,10,12,14,16,18,20,22,24,26,28,30,-1,-1,-1,-1,-1,-1,-1,-1,-1,-1,-1,-1,-1,-1,-1,-1],"split_conditions":[1.2068992E-2,1.1892438E-1,6.7179614E-1,3.6053124E-3,9.990789E-1,2.081549E-1,9.804575E-1,9.805195E-1,2.7810985E-3,6.3931185E-1,1.47394E-1,9.2546207E-1,8.035259E-1,3.3673668E-1,9.8116165E-1,1.5183019E-3,-1.1347168E-2,2.46574E-2,-1.9531406E-2,7.602023E-2,-3.662708E-2,1.7916255E-2,2.5372776E-1,9.719494E-2,1.1839045E-2,1.665208E-1,6.133935E-1,1.1667263E-1,2.4255939E-1,3.428906E-1,8.6837435E-1],"split_indices":[0,1,4,1,4,5,1,3,0,1,1,0,2,1,4,0,0,0,0,0,0,0,0,0,0,0,0,0,0,0,0],"split_type":[0,0,0,0,0,0,0,0,0,0,0,0,0,0,0,0,0,0,0,0,0,0,0,0,0,0,0,0,0,0,0],"sum_hessian":[3.204E3,1.529E3,1.675E3,1.28E3,2.49E2,6.71E2,1.004E3,1.138E3,1.42E2,2.3E2,1.9E1,4.56E2,2.15E2,9.19E2,8.5E1,2.52E2,8.86E2,9.7E1,4.5E1,2.11E2,1.9E1,2E0,1.7E1,2.72E2,1.84E2,2.11E2,4E0,2.1E2,7.09E2,6.9E1,1.6E1],"tree_param":{"num_deleted":"0","num_feature":"8","num_nodes":"31","size_leaf_vector":"0"}},{"base_weights":[1.8911625E0,3.6022502E-1,3.4957078E0,1.673042E-2,1.5859823E0,2.2460842E0,4.7537313E0,1.7425946E0,-4.057902E-2,1.8438277E0,7.223083E-2,2.7215917E0,8.298312E-1,4.2748013E0,7.546381E0,2.6999176E-2,3.7533543E-1,-5.413178E-3,2.7800579E-2,5.2839883E-2,1.1813698E-1,-3.3854168E-2,1.10398464E-1,1.1707747E-1,3.0350402E-1,2.8526112E-2,2.0985699E-1,1.1602539E-1,2.3827267E-1,4.6572086E-1,1.3131052E-1],"categories":[],"categories_nodes":[],"categories_segments":[],"categories_sizes":[],"default_left":[0,0,0,0,0,0,0,0,0,0,0,0,0,0,0,0,0,0,0,0,0,0,0,0,0,0,0,0,0,0,0],"id":19,"left_children":[1,3,5,7,9,11,13,15,17,19,21,23,25,27,29,-1,-1,-1,-1,-1,-1,-1,-1,-1,-1,-1,-1,-1,-1,-1,-1],"loss_changes":[7.8225625E3,6.8669135E2,2.433871E3,1.2617882E2,1.3920892E2,5.2437085E2,1.0029512E3,2.8015796E2,4.9929436E1,1.2206482E2,8.631295E1,7.302388E2,1.7049374E2,6.2467773E2,9.4983057E2,0E0,0E0,0E0,0E0,0E0,0E0,0E0,0E0,0E0,0E0,0E0,0E0,0E0,0E0,0E0,0E0],"parents":[2147483647,0,0,1,1,2,2,3,3,4,4,5,5,6,6,7,7,8,8,9,9,10,10,11,11,12,12,13,13,14,14],"right_children":[2,4,6,8,10,12,14,16,18,20,22,24,26,28,30,-1,-1,-1,-1,-1,-1,-1,-1,-1,-1,-1,-1,-1,-1,-1,-1],"split_conditions":[2.6907456E-1,1.0609242E-1,7.738267E-1,6.785714E-1,9.290078E-1,9.491397E-1,9.0720844E-1,7.573227E-1,7.526994E-1,4.1336562E-2,7.210348E-1,8.419719E-1,5.0664544E-1,2.0425515E-2,8.1903464E-1,2.6999176E-2,3.7533543E-1,-5.413178E-3,2.7800579E-2,5.2839883E-2,1.1813698E-1,-3.3854168E-2,1.10398464E-1,1.1707747E-1,3.0350402E-1,2.8526112E-2,2.0985699E-1,1.1602539E-1,2.3827267E-1,4.6572086E-1,1.3131052E-1],"split_indices":[1,1,4,3,0,0,1,4,4,0,6,1,2,0,0,0,0,0,0,0,0,0,0,0,0,0,0,0,0,0,0],"split_type":[0,0,0,0,0,0,0,0,0,0,0,0,0,0,0,0,0,0,0,0,0,0,0,0,0,0,0,0,0,0,0],"sum_hessian":[3.184E3,1.63E3,1.554E3,1.274E3,3.56E2,7.81E2,7.73E2,4E1,1.234E3,3.04E2,5.2E1,5.84E2,1.97E2,6.62E2,1.11E2,3.4E1,6E0,1.109E3,1.25E2,1.22E2,1.82E2,3.9E1,1.3E1,5.26E2,5.8E1,1.84E2,1.3E1,1.34E2,5.28E2,8.1E1,3E1],"tree_param":{"num_deleted":"0","num_feature":"8","num_nodes":"31","size_leaf_vector":"0"}},{"base_weights":[1.7079731E0,1.7134272E-1,3.1004708E0,-3.3969197E-2,9.8866284E-1,2.377315E0,4.752381E0,-1.15544505E-1,6.911997E-1,8.4670556E-1,3.205053E0,3.6799266E0,1.7916642E0,6.003242E0,3.9433331E0,-4.5827165E-2,-4.2518224E-3,2.8599083E-1,2.589096E-2,5.3707004E-2,-1.865744E-2,-4.3577086E-2,2.0392375E-1,1.1352297E-1,2.2509722E-1,6.63911E-2,1.431386E-1,1.4337252E-1,3.5796258E-1,2.1871309E-1,9.693771E-2],"categories":[],"categories_nodes":[],"categories_segments":[],"categories_sizes":[],"default_left":[0,0,0,0,0,0,0,0,0,0,0,0,0,0,0,0,0,0,0,0,0,0,0,0,0,0,0,0,0,0,0],"id":20,"left_children":[1,3,5,7,9,11,13,15,17,19,21,23,25,27,29,-1,-1,-1,-1,-1,-1,-1,-1,-1,-1,-1,-1,-1,-1,-1,-1],"loss_changes":[6.831705E3,2.549302E2,1.9896377E3,7.195426E1,9.324924E1,8.836826E2,4.9143848E2,2.6631613E1,1.04277504E2,8.030266E1,6.764513E1,4.0803613E2,3.9713647E2,6.9722217E2,2.6103418E2,0E0,0E0,0E0,0E0,0E0,0E0,0E0,0E0,0E0,0E0,0E0,0E0,0E0,0E0,0E0,0E0],"parents":[2147483647,0,0,1,1,2,2,3,3,4,4,5,5,6,6,7,7,8,8,9,9,10,10,11,11,12,12,13,13,14,14],"right_children":[2,4,6,8,10,12,14,16,18,20,22,24,26,28,30,-1,-1,-1,-1,-1,-1,-1,-1,-1,-1,-1,-1,-1,-1,-1,-1],"split_conditions":[1.2547598E-2,1.2132162E-3,8.806268E-1,7.547252E-1,9.88574E-1,8.7071556E-1,8.428244E-1,7.083333E-1,6.676136E-1,9.133228E-3,2.5997804E-3,5.114555E-1,2.036902E-1,2.21151E-2,9.678553E-1,-4.5827165E-2,-4.2518224E-3,2.8599083E-1,2.589096E-2,5.3707004E-2,-1.865744E-2,-4.3577086E-2,2.0392375E-1,1.1352297E-1,2.2509722E-1,6.63911E-2,1.431386E-1,1.4337252E-1,3.5796258E-1,2.1871309E-1,9.693771E-2],"split_indices":[0,0,4,4,4,0,0,3,3,0,0,4,5,0,0,0,0,0,0,0,0,0,0,0,0,0,0,0,0,0,0],"split_type":[0,0,0,0,0,0,0,0,0,0,0,0,0,0,0,0,0,0,0,0,0,0,0,0,0,0,0,0,0,0,0],"sum_hessian":[3.192E3,1.518E3,1.674E3,1.214E3,3.04E2,1.166E3,5.08E2,1.092E3,1.22E2,2.87E2,1.7E1,3.6E2,8.06E2,1.97E2,3.11E2,3.9E1,1.053E3,3E0,1.19E2,2.42E2,4.5E1,3E0,1.4E1,1.34E2,2.26E2,5.64E2,2.42E2,5.4E1,1.43E2,2.55E2,5.6E1],"tree_param":{"num_deleted":"0","num_feature":"8","num_nodes":"31","size_leaf_vector":"0"}},{"base_weights":[1.6805289E0,2.0073411E-1,3.0074565E0,-1.6211387E-2,1.0936602E0,1.4234246E0,3.7757423E0,-1.332865E-1,5.059534E-1,6.8774467E0,9.697973E-1,1.3143367E0,1.1076823E1,5.118467E0,2.8736932E0,-5.775358E-3,-3.9402355E-2,3.674099E-2,-4.3795202E-2,1.4468569E-1,6.6990274E-1,1.4643277E-2,8.294412E-2,4.5735512E-2,1.4784971E-1,6.892821E-1,1.8863958E-1,1.3782145E-1,2.9082212E-1,1.6199397E-1,6.0724672E-2],"categories":[],"categories_nodes":[],"categories_segments":[],"categories_sizes":[],"default_left":[0,0,0,0,0,0,0,0,0,0,0,0,0,0,0,0,0,0,0,0,0,0,0,0,0,0,0,0,0,0,0],"id":21,"left_children":[1,3,5,7,9,11,13,15,17,19,21,23,25,27,29,-1,-1,-1,-1,-1,-1,-1,-1,-1,-1,-1,-1,-1,-1,-1,-1],"loss_changes":[6.241619E3,2.9136703E2,2.0342979E3,7.4098885E1,2.0395084E2,5.635762E2,1.3515303E3,1.1433771E1,7.0853516E1,1.1708801E2,1.3432214E2,3.5440375E2,6.670148E1,7.291533E2,4.0739404E2,0E0,0E0,0E0,0E0,0E0,0E0,0E0,0E0,0E0,0E0,0E0,0E0,0E0,0E0,0E0,0E0],"parents":[2147483647,0,0,1,1,2,2,3,3,4,4,5,5,6,6,7,7,8,8,9,9,10,10,11,11,12,12,13,13,14,14],"right_children":[2,4,6,8,10,12,14,16,18,20,22,24,26,28,30,-1,-1,-1,-1,-1,-1,-1,-1,-1,-1,-1,-1,-1,-1,-1,-1],"split_conditions":[1.2068992E-2,6.1579025E-1,5.9045625E-1,5.613242E-5,5.6666666E-1,7.867073E-1,8.7071556E-1,4.976332E-1,8.245586E-3,6.216559E-5,9.773792E-4,3.749755E-1,7.9759896E-1,2.21151E-2,9.678553E-1,-5.775358E-3,-3.9402355E-2,3.674099E-2,-4.3795202E-2,1.4468569E-1,6.6990274E-1,1.4643277E-2,8.294412E-2,4.5735512E-2,1.4784971E-1,6.892821E-1,1.8863958E-1,1.3782145E-1,2.9082212E-1,1.6199397E-1,6.0724672E-2],"split_indices":[0,4,4,0,3,2,0,4,0,2,0,5,0,0,0,0,0,0,0,0,0,0,0,0,0,0,0,0,0,0,0],"split_type":[0,0,0,0,0,0,0,0,0,0,0,0,0,0,0,0,0,0,0,0,0,0,0,0,0,0,0,0,0,0,0],"sum_hessian":[3.178E3,1.503E3,1.675E3,1.21E3,2.93E2,5.48E2,1.127E3,9.89E2,2.21E2,5E0,2.88E2,5.43E2,5E0,4.51E2,6.76E2,9.64E2,2.5E1,1.9E2,3.1E1,4E0,1E0,1.46E2,1.42E2,4.38E2,1.05E2,3E0,2E0,1.04E2,3.47E2,5.53E2,1.23E2],"tree_param":{"num_deleted":"0","num_feature":"8","num_nodes":"31","size_leaf_vector":"0"}},{"base_weights":[1.6249099E0,1.3106897E-1,2.9782867E0,-6.596122E-2,9.326799E-1,1.4026488E0,3.6957684E0,1.572277E0,-8.646968E-2,6.93675E-1,3.6224575E0,9.1594833E-1,3.723226E0,5.2698383E0,2.9264665E0,-9.0787625E-3,6.531552E-1,-5.976887E-3,1.6802354E-2,4.1441955E-2,-2.86762E-2,2.412797E-1,1.1166097E-1,7.016479E-2,-2.1981923E-2,4.770654E-1,1.5196256E-1,1.7904815E-1,3.4132007E-1,1.2397158E-1,1.9186865E-1],"categories":[],"categories_nodes":[],"categories_segments":[],"categories_sizes":[],"default_left":[0,0,0,0,0,0,0,0,0,0,0,0,0,0,0,0,0,0,0,0,0,0,0,0,0,0,0,0,0,0,0],"id":22,"left_children":[1,3,5,7,9,11,13,15,17,19,21,23,25,27,29,-1,-1,-1,-1,-1,-1,-1,-1,-1,-1,-1,-1,-1,-1,-1,-1],"loss_changes":[6.3963623E3,2.3776357E2,1.8714326E3,4.0755627E1,1.8841962E2,5.8502075E2,1.365044E3,3.0467014E2,1.6736485E1,4.740602E1,2.9338043E1,2.8601425E2,3.2914966E2,9.561123E2,3.032202E2,0E0,0E0,0E0,0E0,0E0,0E0,0E0,0E0,0E0,0E0,0E0,0E0,0E0,0E0,0E0,0E0],"parents":[2147483647,0,0,1,1,2,2,3,3,4,4,5,5,6,6,7,7,8,8,9,9,10,10,11,11,12,12,13,13,14,14],"right_children":[2,4,6,8,10,12,14,16,18,20,22,24,26,28,30,-1,-1,-1,-1,-1,-1,-1,-1,-1,-1,-1,-1,-1,-1,-1,-1],"split_conditions":[1.2068992E-2,1.2132162E-3,5.56447E-1,5.6666666E-1,9.88574E-1,4.2971417E-1,8.428244E-1,5.083333E-1,5.613242E-5,5.277828E-1,6.929823E-3,9.4986075E-1,5.083333E-1,3.374406E-2,9.042418E-1,-9.0787625E-3,6.531552E-1,-5.976887E-3,1.6802354E-2,4.1441955E-2,-2.86762E-2,2.412797E-1,1.1166097E-1,7.016479E-2,-2.1981923E-2,4.770654E-1,1.5196256E-1,1.7904815E-1,3.4132007E-1,1.2397158E-1,1.9186865E-1],"split_indices":[0,0,4,3,4,5,0,3,0,6,0,0,3,0,4,0,0,0,0,0,0,0,0,0,0,0,0,0,0,0,0],"split_type":[0,0,0,0,0,0,0,0,0,0,0,0,0,0,0,0,0,0,0,0,0,0,0,0,0,0,0,0,0,0,0],"sum_hessian":[3.163E3,1.504E3,1.659E3,1.208E3,2.96E2,5.2E2,1.139E3,1.4E1,1.194E3,2.73E2,2.3E1,4.31E2,8.9E1,3.72E2,7.67E2,1.3E1,1E0,1.108E3,8.6E1,2.47E2,2.6E1,1.1E1,1.2E1,3.17E2,1.14E2,8E0,8.1E1,1.8E2,1.92E2,5.17E2,2.5E2],"tree_param":{"num_deleted":"0","num_feature":"8","num_nodes":"31","size_leaf_vector":"0"}},{"base_weights":[1.4568992E0,2.5370067E-1,2.7866256E0,-1.3684745E-2,1.1953057E0,2.1500251E0,4.462435E0,1.8838129E0,-8.0697075E-2,1.5939957E0,-4.4254524E-1,1.3606328E0,2.8187408E0,3.2156427E0,5.570562E0,8.96467E-4,2.340821E-1,-2.5939408E-3,-4.623988E-2,9.9542595E-2,2.2678938E-2,-5.282673E-2,7.6317005E-2,4.4942185E-2,1.579592E-1,1.8432899E-1,1.076638E-1,1.9317693E-1,3.8011007E-2,6.456851E-2,3.067249E-1],"categories":[],"categories_nodes":[],"categories_segments":[],"categories_sizes":[],"default_left":[0,0,0,0,0,0,0,0,0,0,0,0,0,0,0,0,0,0,0,0,0,0,0,0,0,0,0,0,0,0,0],"id":23,"left_children":[1,3,5,7,9,11,13,15,17,19,21,23,25,27,29,-1,-1,-1,-1,-1,-1,-1,-1,-1,-1,-1,-1,-1,-1,-1,-1],"loss_changes":[5.149452E3,4.257619E2,1.6215742E3,1.6774329E2,2.4492542E2,5.8211035E2,5.6236035E2,2.3483513E2,3.0942722E1,1.3532397E2,9.106935E1,4.2157208E2,3.385713E2,3.1523438E2,5.2539404E2,0E0,0E0,0E0,0E0,0E0,0E0,0E0,0E0,0E0,0E0,0E0,0E0,0E0,0E0,0E0,0E0],"parents":[2147483647,0,0,1,1,2,2,3,3,4,4,5,5,6,6,7,7,8,8,9,9,10,10,11,11,12,12,13,13,14,14],"right_children":[2,4,6,8,10,12,14,16,18,20,22,24,26,28,30,-1,-1,-1,-1,-1,-1,-1,-1,-1,-1,-1,-1,-1,-1,-1,-1],"split_conditions":[2.7940908E-1,1.0609242E-1,9.0305966E-1,6.785714E-1,9.2546207E-1,6.2704486E-1,6.3058114E-1,5.966446E-1,8.628801E-1,9.338235E-1,1.09773815E-1,3.6115372E-1,4.1731513E-1,9.3252265E-1,2.21151E-2,8.96467E-4,2.340821E-1,-2.5939408E-3,-4.623988E-2,9.9542595E-2,2.2678938E-2,-5.282673E-2,7.6317005E-2,4.4942185E-2,1.579592E-1,1.8432899E-1,1.076638E-1,1.9317693E-1,3.8011007E-2,6.456851E-2,3.067249E-1],"split_indices":[1,1,4,3,0,4,1,4,0,3,5,5,7,0,0,0,0,0,0,0,0,0,0,0,0,0,0,0,0,0,0],"split_type":[0,0,0,0,0,0,0,0,0,0,0,0,0,0,0,0,0,0,0,0,0,0,0,0,0,0,0,0,0,0,0],"sum_hessian":[3.218E3,1.69E3,1.528E3,1.317E3,3.73E2,1.109E3,4.19E2,4.4E1,1.273E3,3E2,7.3E1,5.1E2,5.99E2,1.99E2,2.2E2,2.7E1,1.7E1,1.232E3,4.1E1,2.22E2,7.8E1,5.6E1,1.7E1,4.07E2,1.03E2,2.58E2,3.41E2,1.57E2,4.2E1,2.6E1,1.94E2],"tree_param":{"num_deleted":"0","num_feature":"8","num_nodes":"31","size_leaf_vector":"0"}},{"base_weights":[1.4186273E0,1.274839E-1,2.5793538E0,-5.2896995E-2,9.1635823E-1,3.4614234E0,1.5151925E0,-3.0342886E-2,-1.3542205E0,8.016192E0,8.3701587E-1,2.0380716E0,4.1468544E0,8.7097126E-1,2.5971406E0,-2.319738E-3,1.3720433E-1,-8.1170045E-2,-8.408137E-3,6.3097423E-1,-2.9759794E-2,-5.060583E-2,4.690718E-2,7.262076E-2,2.050679E-1,2.3497944E-1,1.2709284E-1,2.7336637E-2,1.2958138E-1,1.3961127E-1,5.8423454E-4],"categories":[],"categories_nodes":[],"categories_segments":[],"categories_sizes":[],"default_left":[0,0,0,0,0,0,0,0,0,0,0,0,0,0,0,0,0,0,0,0,0,0,0,0,0,0,0,0,0,0,0],"id":24,"left_children":[1,3,5,7,9,11,13,15,17,19,21,23,25,27,29,-1,-1,-1,-1,-1,-1,-1,-1,-1,-1,-1,-1,-1,-1,-1,-1],"loss_changes":[4.7924E3,2.1562975E2,1.5754648E3,3.6177048E1,1.5214586E2,8.8911035E2,5.3095374E2,5.419256E1,6.4315376E0,1.26433304E2,5.3309113E1,3.5776465E2,5.380791E2,2.6693445E2,1.4371655E2,0E0,0E0,0E0,0E0,0E0,0E0,0E0,0E0,0E0,0E0,0E0,0E0,0E0,0E0,0E0,0E0],"parents":[2147483647,0,0,1,1,2,2,3,3,4,4,5,5,6,6,7,7,8,8,9,9,10,10,11,11,12,12,13,13,14,14],"right_children":[2,4,6,8,10,12,14,16,18,20,22,24,26,28,30,-1,-1,-1,-1,-1,-1,-1,-1,-1,-1,-1,-1,-1,-1,-1,-1],"split_conditions":[1.2068992E-2,6.1579025E-1,9.083254E-1,5.842425E-1,6.235575E-1,6.4876884E-1,8.046917E-1,5.67787E-1,6.1132747E-1,5.613242E-5,6.62792E-1,3.749755E-1,4.9775967E-1,3.749755E-1,7.031389E-1,-2.319738E-3,1.3720433E-1,-8.1170045E-2,-8.408137E-3,6.3097423E-1,-2.9759794E-2,-5.060583E-2,4.690718E-2,7.262076E-2,2.050679E-1,2.3497944E-1,1.2709284E-1,2.7336637E-2,1.2958138E-1,1.3961127E-1,5.8423454E-4],"split_indices":[0,4,0,4,4,4,4,4,4,0,4,5,7,5,7,0,0,0,0,0,0,0,0,0,0,0,0,0,0,0,0],"split_type":[0,0,0,0,0,0,0,0,0,0,0,0,0,0,0,0,0,0,0,0,0,0,0,0,0,0,0,0,0,0,0],"sum_hessian":[3.197E3,1.514E3,1.683E3,1.233E3,2.81E2,9.19E2,7.64E2,1.213E3,2E1,2E0,2.79E2,3E2,6.19E2,4.8E2,2.84E2,1.207E3,6E0,1.6E1,4E0,1E0,1E0,1.4E1,2.65E2,2.35E2,6.5E1,4.59E2,1.6E2,4.05E2,7.5E1,2.64E2,2E1],"tree_param":{"num_deleted":"0","num_feature":"8","num_nodes":"31","size_leaf_vector":"0"}},{"base_weights":[1.3914001E0,4.5570177E-1,2.914116E0,1.6162818E-2,1.3268714E0,2.2589169E0,4.457708E0,2.294283E0,-4.1902147E-2,1.5100511E0,-8.75666E-1,3.0228584E0,1.2773688E0,4.0075083E0,7.081838E0,8.064431E-3,3.0067912E-1,-4.1439128E-4,-4.98715E-2,5.571964E-2,1.313105E-1,-6.1211426E-2,1.8065707E-1,4.740228E-2,1.8445985E-1,-6.303229E-2,7.339379E-2,1.9015057E-1,4.911731E-1,1.5743938E-1,6.8736E-1],"categories":[],"categories_nodes":[],"categories_segments":[],"categories_sizes":[],"default_left":[0,0,0,0,0,0,0,0,0,0,0,0,0,0,0,0,0,0,0,0,0,0,0,0,0,0,0,0,0,0,0],"id":25,"left_children":[1,3,5,7,9,11,13,15,17,19,21,23,25,27,29,-1,-1,-1,-1,-1,-1,-1,-1,-1,-1,-1,-1,-1,-1,-1,-1],"loss_changes":[4.5851113E3,7.6389E2,1.2288457E3,1.7563031E2,2.7123718E2,6.425054E2,4.0164307E2,2.6082715E2,4.1586388E1,2.6999304E2,8.5784065E1,6.65646E2,1.8510065E2,3.3490576E2,1.3199038E3,0E0,0E0,0E0,0E0,0E0,0E0,0E0,0E0,0E0,0E0,0E0,0E0,0E0,0E0,0E0,0E0],"parents":[2147483647,0,0,1,1,2,2,3,3,4,4,5,5,6,6,7,7,8,8,9,9,10,10,11,11,12,12,13,13,14,14],"right_children":[2,4,6,8,10,12,14,16,18,20,22,24,26,28,30,-1,-1,-1,-1,-1,-1,-1,-1,-1,-1,-1,-1,-1,-1,-1,-1],"split_conditions":[4.07854E-1,1.1299819E-1,9.0305966E-1,6.0294116E-1,9.566495E-1,9.087163E-1,9.8973507E-1,5.966446E-1,8.628801E-1,6.9634414E-1,4.7993293E-1,1.7848436E-2,5.0508298E-2,1.0736767E-2,9.75E-1,8.064431E-3,3.0067912E-1,-4.1439128E-4,-4.98715E-2,5.571964E-2,1.313105E-1,-6.1211426E-2,1.8065707E-1,4.740228E-2,1.8445985E-1,-6.303229E-2,7.339379E-2,1.9015057E-1,4.911731E-1,1.5743938E-1,6.8736E-1],"split_indices":[1,1,4,3,0,0,1,4,0,6,2,0,4,2,3,0,0,0,0,0,0,0,0,0,0,0,0,0,0,0,0],"split_type":[0,0,0,0,0,0,0,0,0,0,0,0,0,0,0,0,0,0,0,0,0,0,0,0,0,0,0,0,0,0,0],"sum_hessian":[3.218E3,1.994E3,1.224E3,1.326E3,6.68E2,8.61E2,3.63E2,3.2E1,1.294E3,6.17E2,5.1E1,4.83E2,3.78E2,3.12E2,5.1E1,2.1E1,1.1E1,1.251E3,4.3E1,4.57E2,1.6E2,4.8E1,3E0,1.18E2,3.65E2,2.6E1,3.52E2,3.03E2,9E0,3.3E1,1.8E1],"tree_param":{"num_deleted":"0","num_feature":"8","num_nodes":"31","size_leaf_vector":"0"}},{"base_weights":[1.3065509E0,1.4980389E-1,2.5424294E0,6.2209763E-2,1.8122653E0,2.0924723E0,4.539774E0,6.6842884E-3,1.7367244E0,2.050211E0,-1.5434148E0,2.3351893E0,4.3171442E-1,6.426971E0,1.7188185E0,2.4114158E-3,-6.160712E-2,1.1101582E-1,9.477693E-3,4.0399935E-2,1.3919406E-1,-2.2128632E-2,-9.9159636E-2,3.6913887E-2,1.303125E-1,5.7926048E-2,-2.6484221E-2,2.294503E-1,4.531188E-1,1.0597161E-1,-2.677668E-2],"categories":[],"categories_nodes":[],"categories_segments":[],"categories_sizes":[],"default_left":[0,0,0,0,0,0,0,0,0,0,0,0,0,0,0,0,0,0,0,0,0,0,0,0,0,0,0,0,0,0,0],"id":26,"left_children":[1,3,5,7,9,11,13,15,17,19,21,23,25,27,29,-1,-1,-1,-1,-1,-1,-1,-1,-1,-1,-1,-1,-1,-1,-1,-1],"loss_changes":[4.532877E3,2.3856146E2,1.3682373E3,1.4484848E2,6.8638824E1,5.0406836E2,1.4849126E3,7.772139E1,3.6989075E1,6.792642E1,2.027051E0,4.711919E2,1.1311256E2,7.7216846E2,1.0409119E2,0E0,0E0,0E0,0E0,0E0,0E0,0E0,0E0,0E0,0E0,0E0,0E0,0E0,0E0,0E0,0E0],"parents":[2147483647,0,0,1,1,2,2,3,3,4,4,5,5,6,6,7,7,8,8,9,9,10,10,11,11,12,12,13,13,14,14],"right_children":[2,4,6,8,10,12,14,16,18,20,22,24,26,28,30,-1,-1,-1,-1,-1,-1,-1,-1,-1,-1,-1,-1,-1,-1,-1,-1],"split_conditions":[2.714063E-1,2.4788627E-1,8.2053095E-1,8.2368296E-1,8.2186884E-1,9.678553E-1,8.809769E-1,9.2546207E-1,2.3480035E-1,1.9504031E-2,5.1250905E-1,1.2547598E-2,8.333333E-1,5.209849E-2,7.5930065E-1,2.4114158E-3,-6.160712E-2,1.1101582E-1,9.477693E-3,4.0399935E-2,1.3919406E-1,-2.2128632E-2,-9.9159636E-2,3.6913887E-2,1.303125E-1,5.7926048E-2,-2.6484221E-2,2.294503E-1,4.531188E-1,1.0597161E-1,-2.677668E-2],"split_indices":[1,5,1,6,7,0,0,0,1,0,6,0,3,0,7,0,0,0,0,0,0,0,0,0,0,0,0,0,0,0,0],"split_type":[0,0,0,0,0,0,0,0,0,0,0,0,0,0,0,0,0,0,0,0,0,0,0,0,0,0,0,0,0,0,0],"sum_hessian":[3.17E3,1.638E3,1.532E3,1.557E3,8.1E1,1.252E3,2.8E2,1.508E3,4.9E1,7.6E1,5E0,1.092E3,1.6E2,1.67E2,1.13E2,1.46E3,4.8E1,3.7E1,1.2E1,2.9E1,4.7E1,2E0,3E0,1.59E2,9.33E2,9.1E1,6.9E1,1E2,6.7E1,9.6E1,1.7E1],"tree_param":{"num_deleted":"0","num_feature":"8","num_nodes":"31","size_leaf_vector":"0"}},{"base_weights":[1.1358503E0,1.8941341E-1,2.3473427E0,-5.8792047E-2,8.7478644E-1,1.8098457E0,3.6999097E0,-6.927718E-2,1.7302811E-1,1.1954393E0,-3.8751146E-1,2.2327192E0,1.05334304E-1,1.0322734E0,4.335012E0,-2.0040104E-3,-4.3489415E-2,7.78709E-4,7.950151E-2,-3.7651677E-2,7.0994556E-2,9.810333E-2,2.6433957E-1,-3.350672E-2,7.9968825E-2,1.0499886E-2,1.4539526E-1,2.544162E-1,1.0867899E-1],"categories":[],"categories_nodes":[],"categories_segments":[],"categories_sizes":[],"default_left":[0,0,0,0,0,0,0,0,0,0,0,0,0,0,0,0,0,0,0,0,0,0,0,0,0,0,0,0,0],"id":27,"left_children":[1,3,5,7,9,11,13,15,-1,17,19,21,23,25,27,-1,-1,-1,-1,-1,-1,-1,-1,-1,-1,-1,-1,-1,-1],"loss_changes":[3.7225693E3,3.1033813E2,1.0285527E3,4.9686947E1,1.9677164E2,7.356941E2,6.799907E2,3.121418E1,0E0,1.8014844E2,6.647313E1,6.6577954E2,2.3742271E2,1.2122999E2,5.197446E2,0E0,0E0,0E0,0E0,0E0,0E0,0E0,0E0,0E0,0E0,0E0,0E0,0E0,0E0],"parents":[2147483647,0,0,1,1,2,2,3,3,4,4,5,5,6,6,7,7,9,9,10,10,11,11,12,12,13,13,14,14],"right_children":[2,4,6,8,10,12,14,16,-1,18,20,22,24,26,28,-1,-1,-1,-1,-1,-1,-1,-1,-1,-1,-1,-1,-1,-1],"split_conditions":[3.272057E-1,1.0609242E-1,9.0305966E-1,6.0540926E-1,9.2546207E-1,9.566495E-1,2.21151E-2,8.609937E-1,1.7302811E-1,3.1201336E-1,8.344014E-1,8.9505863E-1,5.781558E-1,9.9616575E-1,9.3325216E-1,-2.0040104E-3,-4.3489415E-2,7.78709E-4,7.950151E-2,-3.7651677E-2,7.0994556E-2,9.810333E-2,2.6433957E-1,-3.350672E-2,7.9968825E-2,1.0499886E-2,1.4539526E-1,2.544162E-1,1.0867899E-1],"split_indices":[1,1,4,5,0,0,0,0,0,4,6,1,6,4,0,0,0,0,0,0,0,0,0,0,0,0,0,0,0],"split_type":[0,0,0,0,0,0,0,0,0,0,0,0,0,0,0,0,0,0,0,0,0,0,0,0,0,0,0,0,0],"sum_hessian":[3.246E3,1.823E3,1.423E3,1.339E3,4.84E2,1.02E3,4.03E2,1.336E3,3E0,3.86E2,9.8E1,8.17E2,2.03E2,7.8E1,3.25E2,1.29E3,4.6E1,9.7E1,2.89E2,8.2E1,1.6E1,7.52E2,6.5E1,1.34E2,6.9E1,5.5E1,2.3E1,2.4E2,8.5E1],"tree_param":{"num_deleted":"0","num_feature":"8","num_nodes":"29","size_leaf_vector":"0"}},{"base_weights":[1.1434104E0,3.5789648E-1,2.45865E0,4.4996656E-2,1.1870846E0,3.190596E0,1.4084499E0,9.767972E-2,-2.8563287E0,1.7203434E0,-1.6734532E-1,3.6055284E0,2.8285673E-1,1.9338772E0,6.4194876E-1,6.756368E-4,6.833263E-2,-1.1819029E-1,-2.052052E-1,1.0338717E-1,8.220496E-3,-4.40014E-2,7.5209804E-2,6.601815E-2,2.1723767E-1,-9.6155884E-4,4.4745603E-1,6.4228855E-2,1.5564202E-1,2.6765954E-1,2.3520743E-2],"categories":[],"categories_nodes":[],"categories_segments":[],"categories_sizes":[],"default_left":[0,0,0,0,0,0,0,0,0,0,0,0,0,0,0,0,0,0,0,0,0,0,0,0,0,0,0,0,0,0,0],"id":28,"left_children":[1,3,5,7,9,11,13,15,17,19,21,23,25,27,29,-1,-1,-1,-1,-1,-1,-1,-1,-1,-1,-1,-1,-1,-1,-1,-1],"loss_changes":[3.3041323E3,5.1988995E2,9.1485986E2,2.2282962E2,3.9680957E2,8.483662E2,1.9730975E2,1.5282036E2,6.2772064E0,2.126294E2,1.871632E2,1.0348418E3,2.3317172E2,2.1952759E2,1.6072559E2,0E0,0E0,0E0,0E0,0E0,0E0,0E0,0E0,0E0,0E0,0E0,0E0,0E0,0E0,0E0,0E0],"parents":[2147483647,0,0,1,1,2,2,3,3,4,4,5,5,6,6,7,7,8,8,9,9,10,10,11,11,12,12,13,13,14,14],"right_children":[2,4,6,8,10,12,14,16,18,20,22,24,26,28,30,-1,-1,-1,-1,-1,-1,-1,-1,-1,-1,-1,-1,-1,-1,-1,-1],"split_conditions":[4.0990797E-1,5.627437E-2,4.3212664E-1,1.4735069E-2,9.260172E-1,9.730896E-1,6.5367687E-1,2.3725958E-1,9.0877974E-1,9.007353E-1,6.925105E-1,2.2691322E-2,4.9698594E-1,5.788755E-1,5.083333E-1,6.756368E-4,6.833263E-2,-1.1819029E-1,-2.052052E-1,1.0338717E-1,8.220496E-3,-4.40014E-2,7.5209804E-2,6.601815E-2,2.1723767E-1,-9.6155884E-4,4.4745603E-1,6.4228855E-2,1.5564202E-1,2.6765954E-1,2.3520743E-2],"split_indices":[1,0,7,0,0,0,7,1,4,3,6,0,2,7,3,0,0,0,0,0,0,0,0,0,0,0,0,0,0,0,0],"split_type":[0,0,0,0,0,0,0,0,0,0,0,0,0,0,0,0,0,0,0,0,0,0,0,0,0,0,0,0,0,0,0],"sum_hessian":[3.198E3,2.003E3,1.195E3,1.455E3,5.48E2,7.03E2,4.92E2,1.43E3,2.5E1,3.93E2,1.55E2,6.15E2,8.8E1,2.91E2,2.01E2,1.342E3,8.8E1,2E1,5E0,3.21E2,7.2E1,1.09E2,4.6E1,1.51E2,4.64E2,8.6E1,2E0,1.89E2,1.02E2,6E0,1.95E2],"tree_param":{"num_deleted":"0","num_feature":"8","num_nodes":"31","size_leaf_vector":"0"}},{"base_weights":[1.0542648E0,2.8107882E-1,2.3413813E0,-2.8092468E-2,1.0847516E0,1.0422813E0,2.9994354E0,1.6419461E-2,-2.8998582E0,1.2947803E0,-8.4432226E-1,9.2666143E-1,5.041705E-1,3.8166776E0,2.0333257E0,-5.404813E-3,2.7237331E-2,-1.8367968E-1,-1.14693776E-1,4.626117E-2,1.1537893E-1,-5.7829317E-2,1.7130958E-1,6.941708E-2,-7.4673877E-3,6.248347E-2,2.1873303E-1,6.8542205E-2,1.5783754E-1],"categories":[],"categories_nodes":[],"categories_segments":[],"categories_sizes":[],"default_left":[0,0,0,0,0,0,0,0,0,0,0,0,0,0,0,0,0,0,0,0,0,0,0,0,0,0,0,0,0],"id":29,"left_children":[1,3,5,7,9,11,13,15,17,19,21,23,-1,25,27,-1,-1,-1,-1,-1,-1,-1,-1,-1,-1,-1,-1,-1,-1],"loss_changes":[3.1739673E3,4.9548474E2,1.0201631E3,1.8424753E2,2.255523E2,4.1297086E2,6.1913916E2,9.347365E1,1.888382E0,1.8500824E2,7.730672E1,1.9891617E2,0E0,6.090093E2,2.6806738E2,0E0,0E0,0E0,0E0,0E0,0E0,0E0,0E0,0E0,0E0,0E0,0E0,0E0,0E0],"parents":[2147483647,0,0,1,1,2,2,3,3,4,4,5,5,6,6,7,7,8,8,9,9,10,10,11,11,13,13,14,14],"right_children":[2,4,6,8,10,12,14,16,18,20,22,24,-1,26,28,-1,-1,-1,-1,-1,-1,-1,-1,-1,-1,-1,-1,-1,-1],"split_conditions":[4.07854E-1,5.627437E-2,6.4876884E-1,1.564419E-2,9.566495E-1,7.867073E-1,3.6650114E-2,2.2235801E-2,8.601695E-1,8.3682644E-1,4.7993293E-1,9.5185345E-1,5.041705E-1,2.2691322E-2,5.781558E-1,-5.404813E-3,2.7237331E-2,-1.8367968E-1,-1.14693776E-1,4.626117E-2,1.1537893E-1,-5.7829317E-2,1.7130958E-1,6.941708E-2,-7.4673877E-3,6.248347E-2,2.1873303E-1,6.8542205E-2,1.5783754E-1],"split_indices":[1,0,4,0,0,2,6,1,3,4,2,0,0,0,6,0,0,0,0,0,0,0,0,0,0,0,0,0,0],"split_type":[0,0,0,0,0,0,0,0,0,0,0,0,0,0,0,0,0,0,0,0,0,0,0,0,0,0,0,0,0],"sum_hessian":[3.189E3,1.993E3,1.196E3,1.44E3,5.53E2,4.03E2,7.93E2,1.419E3,2.1E1,4.99E2,5.4E1,3.99E2,4E0,4.28E2,3.65E2,1.149E3,2.7E2,7E0,1.4E1,3.67E2,1.32E2,5.1E1,3E0,2.79E2,1.2E2,7.7E1,3.51E2,2.31E2,1.34E2],"tree_param":{"num_deleted":"0","num_feature":"8","num_nodes":"29","size_leaf_vector":"0"}},{"base_weights":[1.0777686E0,3.5237014E-1,2.2702656E0,-3.240242E-2,9.6270657E-1,1.6447251E0,3.7951229E0,3.274159E-1,-1.0644072E-1,6.918349E-1,2.021242E0,1.5887513E0,5.49962E-1,3.3762121E0,6.2829537E0,1.0829143E-2,2.4252103E-1,-3.2727818E-3,-5.320642E-2,5.0671477E-2,-7.0077404E-3,5.4041427E-2,1.2634756E-1,1.9081147E-2,9.986942E-2,1.7834476E-1,-5.9792984E-2,1.5739498E-1,4.9131846E-1],"categories":[],"categories_nodes":[],"categories_segments":[],"categories_sizes":[],"default_left":[0,0,0,0,0,0,0,0,0,0,0,0,0,0,0,0,0,0,0,0,0,0,0,0,0,0,0,0,0],"id":30,"left_children":[1,3,5,7,9,11,13,15,17,19,21,23,-1,25,27,-1,-1,-1,-1,-1,-1,-1,-1,-1,-1,-1,-1,-1,-1],"loss_changes":[2.7967244E3,4.7253073E2,1.1603286E3,3.293567E1,2.2167542E2,4.375398E2,3.4876123E2,1.0472343E2,4.016253E1,1.6629889E2,7.240973E1,4.2592285E2,0E0,2.7104102E2,5.2450745E2,0E0,0E0,0E0,0E0,0E0,0E0,0E0,0E0,0E0,0E0,0E0,0E0,0E0,0E0],"parents":[2147483647,0,0,1,1,2,2,3,3,4,4,5,5,6,6,7,7,8,8,9,9,10,10,11,11,13,13,14,14],"right_children":[2,4,6,8,10,12,14,16,18,20,22,24,-1,26,28,-1,-1,-1,-1,-1,-1,-1,-1,-1,-1,-1,-1,-1,-1],"split_conditions":[4.07854E-1,3.6080992E-1,9.0305966E-1,9.8333335E-1,6.9634414E-1,7.867073E-1,9.8973507E-1,9.75E-1,2.619495E-1,2.5503412E-1,5.842425E-1,4.053344E-1,5.49962E-1,9.3958503E-1,9.338235E-1,1.0829143E-2,2.4252103E-1,-3.2727818E-3,-5.320642E-2,5.0671477E-2,-7.0077404E-3,5.4041427E-2,1.2634756E-1,1.9081147E-2,9.986942E-2,1.7834476E-1,-5.9792984E-2,1.5739498E-1,4.9131846E-1],"split_indices":[1,4,4,3,6,2,1,3,1,6,4,4,0,1,3,0,0,0,0,0,0,0,0,0,0,0,0,0,0],"split_type":[0,0,0,0,0,0,0,0,0,0,0,0,0,0,0,0,0,0,0,0,0,0,0,0,0,0,0,0,0],"sum_hessian":[3.233E3,2.011E3,1.222E3,1.234E3,7.77E2,8.68E2,3.54E2,2.1E2,1.024E3,6.2E2,1.57E2,8.64E2,4E0,3.05E2,4.9E1,2.06E2,4E0,9.83E2,4.1E1,4.47E2,1.73E2,5.6E1,1.01E2,2.19E2,6.45E2,2.93E2,1.2E1,2.7E1,2.2E1],"tree_param":{"num_deleted":"0","num_feature":"8","num_nodes":"29","size_leaf_vector":"0"}},{"base_weights":[1.0239773E0,3.012197E-1,2.2095973E0,1.082105E0,1.0442705E-3,2.910802E0,1.3503977E0,2.8800467E-1,1.5545546E0,5.7121683E-2,-1.2768024E0,3.3026576E0,3.726603E-1,2.0215473E0,8.182302E-1,2.0619478E-2,-1.4443572E-1,1.3967405E-1,6.083731E-2,-2.0081252E-3,5.124588E-2,-4.381138E-2,-9.735419E-2,4.9265105E-2,1.9967979E-1,-9.84558E-3,2.5029418E-1,-1.0548043E-1,1.1132572E-1,-1.387045E-2,6.91761E-2],"categories":[],"categories_nodes":[],"categories_segments":[],"categories_sizes":[],"default_left":[0,0,0,0,0,0,0,0,0,0,0,0,0,0,0,0,0,0,0,0,0,0,0,0,0,0,0,0,0,0,0],"id":31,"left_children":[1,3,5,7,9,11,13,15,17,19,21,23,25,27,29,-1,-1,-1,-1,-1,-1,-1,-1,-1,-1,-1,-1,-1,-1,-1,-1],"loss_changes":[2.7646025E3,4.7021048E2,7.3229297E2,2.0852332E2,1.0397752E2,6.6713086E2,1.9514325E2,8.377467E1,1.4266443E2,1.3091139E2,1.4672279E1,9.279341E2,2.4113051E2,2.1045746E2,1.9176477E2,0E0,0E0,0E0,0E0,0E0,0E0,0E0,0E0,0E0,0E0,0E0,0E0,0E0,0E0,0E0,0E0],"parents":[2147483647,0,0,1,1,2,2,3,3,4,4,5,5,6,6,7,7,8,8,9,9,10,10,11,11,12,12,13,13,14,14],"right_children":[2,4,6,8,10,12,14,16,18,20,22,24,26,28,30,-1,-1,-1,-1,-1,-1,-1,-1,-1,-1,-1,-1,-1,-1,-1,-1],"split_conditions":[4.0457723E-1,8.425926E-1,2.440919E-1,3.2066833E-2,9.226128E-1,9.6940446E-1,8.977728E-1,1.2547598E-2,8.7071556E-1,8.3821946E-1,8.319574E-3,2.2691322E-2,3.645884E-1,6.1874976E-3,4.9319616E-1,2.0619478E-2,-1.4443572E-1,1.3967405E-1,6.083731E-2,-2.0081252E-3,5.124588E-2,-4.381138E-2,-9.735419E-2,4.9265105E-2,1.9967979E-1,-9.84558E-3,2.5029418E-1,-1.0548043E-1,1.1132572E-1,-1.387045E-2,6.91761E-2],"split_indices":[1,3,7,0,0,0,0,0,0,0,6,0,5,0,6,0,0,0,0,0,0,0,0,0,0,0,0,0,0,0,0],"split_type":[0,0,0,0,0,0,0,0,0,0,0,0,0,0,0,0,0,0,0,0,0,0,0,0,0,0,0,0,0,0,0],"sum_hessian":[3.226E3,2.005E3,1.221E3,5.56E2,1.449E3,6.71E2,5.5E2,2.08E2,3.48E2,1.389E3,6E1,5.81E2,9E1,2.42E2,3.08E2,2.01E2,7E0,7.3E1,2.75E2,1.263E3,1.26E2,3.9E1,2.1E1,1.34E2,4.47E2,8.1E1,9E0,1.1E1,2.31E2,1.05E2,2.03E2],"tree_param":{"num_deleted":"0","num_feature":"8","num_nodes":"31","size_leaf_vector":"0"}},{"base_weights":[9.1848654E-1,2.8716946E-1,1.9491416E0,-7.439852E-2,8.65113E-1,1.297359E0,2.8506372E0,-3.9888922E-2,-8.8250566E-1,5.8146805E-1,1.891306E0,1.2350048E0,4.9024484E-1,1.0458444E0,3.19982E0,-5.366699E-3,4.069166E-2,-6.0656466E-2,2.3508202E-1,4.708487E-2,-1.3214934E-2,6.3839257E-1,8.397605E-2,4.4052023E-2,1.0862386E-1,1.3422906E-2,1.8455972E-1,2.0451756E-1,9.680505E-2],"categories":[],"categories_nodes":[],"categories_segments":[],"categories_sizes":[],"default_left":[0,0,0,0,0,0,0,0,0,0,0,0,0,0,0,0,0,0,0,0,0,0,0,0,0,0,0,0,0],"id":32,"left_children":[1,3,5,7,9,11,13,15,17,19,21,23,-1,25,27,-1,-1,-1,-1,-1,-1,-1,-1,-1,-1,-1,-1,-1,-1],"loss_changes":[2.0809346E3,4.148616E2,7.1021045E2,3.4043262E1,2.2128119E2,3.6294104E2,3.1742676E2,6.76279E1,9.801622E1,1.8305087E2,3.5863165E2,2.3136365E2,0E0,1.717516E2,4.7149316E2,0E0,0E0,0E0,0E0,0E0,0E0,0E0,0E0,0E0,0E0,0E0,0E0,0E0,0E0],"parents":[2147483647,0,0,1,1,2,2,3,3,4,4,5,5,6,6,7,7,8,8,9,9,10,10,11,11,13,13,14,14],"right_children":[2,4,6,8,10,12,14,16,18,20,22,24,-1,26,28,-1,-1,-1,-1,-1,-1,-1,-1,-1,-1,-1,-1,-1,-1],"split_conditions":[4.07854E-1,3.6456037E-1,8.46323E-1,9.2500985E-1,6.9634414E-1,8.7778425E-1,2.21151E-2,2.089226E-1,3.9717272E-1,2.4613546E-1,7.019249E-1,2.0516598E-1,4.9024484E-1,9.978058E-1,9.031219E-1,-5.366699E-3,4.069166E-2,-6.0656466E-2,2.3508202E-1,4.708487E-2,-1.3214934E-2,6.3839257E-1,8.397605E-2,4.4052023E-2,1.0862386E-1,1.3422906E-2,1.8455972E-1,2.0451756E-1,9.680505E-2],"split_indices":[1,4,4,0,6,5,0,1,1,6,6,5,0,4,0,0,0,0,0,0,0,0,0,0,0,0,0,0,0],"split_type":[0,0,0,0,0,0,0,0,0,0,0,0,0,0,0,0,0,0,0,0,0,0,0,0,0,0,0,0,0],"sum_hessian":[3.198E3,1.984E3,1.214E3,1.221E3,7.63E2,7.06E2,5.08E2,1.172E3,4.9E1,5.99E2,1.64E2,7.02E2,4E0,8.3E1,4.25E2,1.087E3,8.5E1,4.7E1,2E0,4.2E2,1.79E2,2E0,1.62E2,5.11E2,1.91E2,6.5E1,1.8E1,2.48E2,1.77E2],"tree_param":{"num_deleted":"0","num_feature":"8","num_nodes":"29","size_leaf_vector":"0"}},{"base_weights":[8.507976E-1,1.7870265E-1,1.7324927E0,1.353006E-1,4.540325E0,1.5401592E0,4.3169594E0,7.903472E-2,2.3441682E0,7.582175E0,1.3486279E0,5.900458E-1,1.917933E0,2.929319E0,1.0593095E1,-2.721258E-3,5.094805E-2,7.047946E-1,7.348825E-2,4.5822597E-1,6.813235E-2,-6.225867E-2,1.07636236E-1,1.8332975E-1,1.9748842E-2,9.81954E-2,-1.4999655E-1,2.1409218E-1,-1.0875443E-2,6.1657536E-1,9.3018904E-2],"categories":[],"categories_nodes":[],"categories_segments":[],"categories_sizes":[],"default_left":[0,0,0,0,0,0,0,0,0,0,0,0,0,0,0,0,0,0,0,0,0,0,0,0,0,0,0,0,0,0,0],"id":33,"left_children":[1,3,5,7,9,11,13,15,17,19,21,23,25,27,29,-1,-1,-1,-1,-1,-1,-1,-1,-1,-1,-1,-1,-1,-1,-1,-1],"loss_changes":[1.909585E3,3.4581076E2,6.862803E2,2.2514139E2,1.6453043E2,4.6511572E2,8.050353E2,2.2196313E2,4.4169092E2,7.608496E1,2.3537195E1,2.2120345E2,2.1593677E2,3.414242E2,2.3513684E2,0E0,0E0,0E0,0E0,0E0,0E0,0E0,0E0,0E0,0E0,0E0,0E0,0E0,0E0,0E0,0E0],"parents":[2147483647,0,0,1,1,2,2,3,3,4,4,5,5,6,6,7,7,8,8,9,9,10,10,11,11,12,12,13,13,14,14],"right_children":[2,4,6,8,10,12,14,16,18,20,22,24,26,28,30,-1,-1,-1,-1,-1,-1,-1,-1,-1,-1,-1,-1,-1,-1,-1,-1],"split_conditions":[6.224246E-1,6.598346E-1,9.804575E-1,9.2022014E-1,5.083333E-1,2.7940908E-1,9.75E-1,1.8607493E-1,9.304613E-1,8.304367E-1,3.374406E-2,5.833333E-1,9.708701E-1,9.438888E-1,3.047168E-1,-2.721258E-3,5.094805E-2,7.047946E-1,7.348825E-2,4.5822597E-1,6.813235E-2,-6.225867E-2,1.07636236E-1,1.8332975E-1,1.9748842E-2,9.81954E-2,-1.4999655E-1,2.1409218E-1,-1.0875443E-2,6.1657536E-1,9.3018904E-2],"split_indices":[4,5,1,1,3,1,3,5,1,6,0,3,1,0,0,0,0,0,0,0,0,0,0,0,0,0,0,0,0,0,0],"split_type":[0,0,0,0,0,0,0,0,0,0,0,0,0,0,0,0,0,0,0,0,0,0,0,0,0,0,0,0,0,0,0],"sum_hessian":[3.222E3,1.829E3,1.393E3,1.812E3,1.7E1,1.298E3,9.5E1,1.768E3,4.4E1,8E0,9E0,3.7E2,9.28E2,7.9E1,1.6E1,1.549E3,2.19E2,2E0,4.2E1,6E0,2E0,2E0,7E0,2.1E1,3.49E2,9.2E2,8E0,5.5E1,2.4E1,1.3E1,3E0],"tree_param":{"num_deleted":"0","num_feature":"8","num_nodes":"31","size_leaf_vector":"0"}},{"base_weights":[8.346556E-1,4.7010504E-2,1.6212835E0,-3.2890085E-2,8.706165E-1,3.082755E0,1.1278723E0,-1.9445531E-2,-2.8092937E0,4.9083586E0,4.912048E-1,6.570267E-1,4.0289497E0,4.6558467E-1,1.5408309E0,-3.726457E-3,2.7954338E-2,2.2794604E-3,-1.6463529E-1,3.5491022E-1,7.677394E-2,-2.1916511E-3,6.6042416E-2,1.2547018E-1,-7.9991706E-2,1.2282021E-1,2.4303547E-1,4.6414834E-2,-2.5806723E-2,3.1028984E-2,9.383234E-2],"categories":[],"categories_nodes":[],"categories_segments":[],"categories_sizes":[],"default_left":[0,0,0,0,0,0,0,0,0,0,0,0,0,0,0,0,0,0,0,0,0,0,0,0,0,0,0,0,0,0,0],"id":34,"left_children":[1,3,5,7,9,11,13,15,17,19,21,23,25,27,29,-1,-1,-1,-1,-1,-1,-1,-1,-1,-1,-1,-1,-1,-1,-1,-1],"loss_changes":[1.9751567E3,1.0492436E2,1.1466875E3,5.421957E1,2.1359625E2,9.2002783E2,3.2583838E2,4.6186024E1,9.810703E0,7.773389E1,5.776369E1,4.8059808E2,3.660664E2,2.0943558E2,2.2597595E2,0E0,0E0,0E0,0E0,0E0,0E0,0E0,0E0,0E0,0E0,0E0,0E0,0E0,0E0,0E0,0E0],"parents":[2147483647,0,0,1,1,2,2,3,3,4,4,5,5,6,6,7,7,8,8,9,9,10,10,11,11,12,12,13,13,14,14],"right_children":[2,4,6,8,10,12,14,16,18,20,22,24,26,28,30,-1,-1,-1,-1,-1,-1,-1,-1,-1,-1,-1,-1,-1,-1,-1,-1],"split_conditions":[1.7848436E-2,9.223156E-1,8.3821946E-1,8.034841E-1,9.321559E-1,6.225826E-1,6.235575E-1,6.929823E-3,1.0014541E-2,5.613242E-5,2.5277722E-1,8.425926E-1,3.2819778E-2,9.5185345E-1,3.272057E-1,-3.726457E-3,2.7954338E-2,2.2794604E-3,-1.6463529E-1,3.5491022E-1,7.677394E-2,-2.1916511E-3,6.6042416E-2,1.2547018E-1,-7.9991706E-2,1.2282021E-1,2.4303547E-1,4.6414834E-2,-2.5806723E-2,3.1028984E-2,9.383234E-2],"split_indices":[0,4,0,1,4,1,4,0,0,0,1,3,0,0,1,0,0,0,0,0,0,0,0,0,0,0,0,0,0,0,0],"split_type":[0,0,0,0,0,0,0,0,0,0,0,0,0,0,0,0,0,0,0,0,0,0,0,0,0,0,0,0,0,0,0],"sum_hessian":[3.187E3,1.593E3,1.594E3,1.453E3,1.4E2,4.01E2,1.193E3,1.447E3,6E0,1.1E1,1.29E2,1.13E2,2.88E2,4.59E2,7.34E2,1.322E3,1.25E2,1E0,5E0,6E0,5E0,7.9E1,5E1,6.2E1,5.1E1,1.01E2,1.87E2,3.12E2,1.47E2,1.97E2,5.37E2],"tree_param":{"num_deleted":"0","num_feature":"8","num_nodes":"31","size_leaf_vector":"0"}},{"base_weights":[8.1466436E-1,1.6266285E-1,1.6406015E0,-5.769745E-2,7.857441E-1,1.3566657E0,3.3916175E0,1.6202279E0,-9.732978E-2,1.3136139E0,2.1043882E-1,8.260114E-1,2.056653E0,4.8347135E0,6.026735E-1,-9.584603E-3,2.071893E-1,-2.7830529E-3,-6.479674E-2,8.653096E-2,-2.7307017E-2,-3.0805206E-2,6.372874E-2,3.7641678E-2,3.9972165E-1,1.06422745E-1,-2.9613003E-1,1.6261882E-1,4.5409566E-1,1.2655226E-2,2.5132677E-1],"categories":[],"categories_nodes":[],"categories_segments":[],"categories_sizes":[],"default_left":[0,0,0,0,0,0,0,0,0,0,0,0,0,0,0,0,0,0,0,0,0,0,0,0,0,0,0,0,0,0,0],"id":35,"left_children":[1,3,5,7,9,11,13,15,17,19,21,23,25,27,29,-1,-1,-1,-1,-1,-1,-1,-1,-1,-1,-1,-1,-1,-1,-1,-1],"loss_changes":[1.7466667E3,2.491118E2,7.068579E2,8.933434E1,1.4367087E2,4.5630054E2,7.9800415E2,1.4254135E2,6.540491E1,1.9250043E2,2.0132361E2,3.6275403E2,3.168296E2,8.508479E2,1.0543245E2,0E0,0E0,0E0,0E0,0E0,0E0,0E0,0E0,0E0,0E0,0E0,0E0,0E0,0E0,0E0,0E0],"parents":[2147483647,0,0,1,1,2,2,3,3,4,4,5,5,6,6,7,7,8,8,9,9,10,10,11,11,12,12,13,13,14,14],"right_children":[2,4,6,8,10,12,14,16,18,20,22,24,26,28,30,-1,-1,-1,-1,-1,-1,-1,-1,-1,-1,-1,-1,-1,-1,-1,-1],"split_conditions":[3.272057E-1,1.0609242E-1,8.9505863E-1,6.0294116E-1,2.5503412E-1,8.14767E-1,9.40272E-1,5.9045625E-1,8.628801E-1,9.2546207E-1,7.642478E-1,7.867073E-1,8.832827E-1,9.338235E-1,5.021697E-1,-9.584603E-3,2.071893E-1,-2.7830529E-3,-6.479674E-2,8.653096E-2,-2.7307017E-2,-3.0805206E-2,6.372874E-2,3.7641678E-2,3.9972165E-1,1.06422745E-1,-2.9613003E-1,1.6261882E-1,4.5409566E-1,1.2655226E-2,2.5132677E-1],"split_indices":[1,1,1,3,6,4,0,4,0,0,6,2,1,3,2,0,0,0,0,0,0,0,0,0,0,0,0,0,0,0,0],"split_type":[0,0,0,0,0,0,0,0,0,0,0,0,0,0,0,0,0,0,0,0,0,0,0,0,0,0,0,0,0,0,0],"sum_hessian":[3.243E3,1.813E3,1.43E3,1.34E3,4.73E2,1.232E3,1.98E2,3E1,1.31E3,2.46E2,2.27E2,7.02E2,5.3E2,1.3E2,6.8E1,1.8E1,1.2E1,1.267E3,4.3E1,2.01E2,4.5E1,1.28E2,9.9E1,6.96E2,6E0,5.26E2,4E0,9.6E1,3.4E1,6.4E1,4E0],"tree_param":{"num_deleted":"0","num_feature":"8","num_nodes":"31","size_leaf_vector":"0"}},{"base_weights":[7.9034615E-1,1.1365439E-2,1.498335E0,-3.672299E-2,1.129432E0,2.2109218E0,5.954983E-1,-9.123196E-3,-1.7667136E0,7.7664065E0,6.681431E-1,1.38928E0,3.2935147E0,2.8176484E-1,1.6180204E0,-1.823728E-3,6.4017095E-2,-1.2112732E-1,-4.1551422E-2,7.358922E-1,2.7165655E-2,-3.3321656E-2,1.2816036E-1,-6.1474717E-3,8.664676E-2,2.0693897E-1,9.095719E-2,-3.992401E-3,4.3655183E-2,1.2213337E-1,8.124589E-3],"categories":[],"categories_nodes":[],"categories_segments":[],"categories_sizes":[],"default_left":[0,0,0,0,0,0,0,0,0,0,0,0,0,0,0,0,0,0,0,0,0,0,0,0,0,0,0,0,0,0,0],"id":36,"left_children":[1,3,5,7,9,11,13,15,17,19,21,23,25,27,29,-1,-1,-1,-1,-1,-1,-1,-1,-1,-1,-1,-1,-1,-1,-1,-1],"loss_changes":[1.7675717E3,8.214225E1,1.0788677E3,6.99338E1,1.8768933E2,8.297788E2,2.3757724E2,5.093933E1,1.2100815E1,1.9284709E2,1.5345464E2,2.7824463E2,4.9594922E2,1.2174225E2,2.0845477E2,0E0,0E0,0E0,0E0,0E0,0E0,0E0,0E0,0E0,0E0,0E0,0E0,0E0,0E0,0E0,0E0],"parents":[2147483647,0,0,1,1,2,2,3,3,4,4,5,5,6,6,7,7,8,8,9,9,10,10,11,11,12,12,13,13,14,14],"right_children":[2,4,6,8,10,12,14,16,18,20,22,24,26,28,30,-1,-1,-1,-1,-1,-1,-1,-1,-1,-1,-1,-1,-1,-1,-1,-1],"split_conditions":[1.2547598E-2,9.8226196E-1,9.1082585E-1,6.3931185E-1,9.859836E-1,6.019421E-1,8.806268E-1,3.1798297E-1,7.560657E-3,5.613242E-5,2.2559133E-1,4.1336562E-2,1.767643E-1,5.8901E-1,9.678553E-1,-1.823728E-3,6.4017095E-2,-1.2112732E-1,-4.1551422E-2,7.358922E-1,2.7165655E-2,-3.3321656E-2,1.2816036E-1,-6.1474717E-3,8.664676E-2,2.0693897E-1,9.095719E-2,-3.992401E-3,4.3655183E-2,1.2213337E-1,8.124589E-3],"split_indices":[0,4,0,1,4,1,4,5,0,0,1,0,6,6,0,0,0,0,0,0,0,0,0,0,0,0,0,0,0,0,0],"split_type":[0,0,0,0,0,0,0,0,0,0,0,0,0,0,0,0,0,0,0,0,0,0,0,0,0,0,0,0,0,0,0],"sum_hessian":[3.204E3,1.526E3,1.678E3,1.464E3,6.2E1,9.37E2,7.41E2,1.442E3,2.2E1,3E0,5.9E1,5.34E2,4.03E2,5.68E2,1.73E2,1.413E3,2.9E1,1.2E1,1E1,1E0,2E0,3.5E1,2.4E1,9.9E1,4.35E2,2.55E2,1.48E2,3.53E2,2.15E2,1.1E2,6.3E1],"tree_param":{"num_deleted":"0","num_feature":"8","num_nodes":"31","size_leaf_vector":"0"}},{"base_weights":[7.3246527E-1,1.548301E-1,1.538623E0,5.247721E-1,-1.4155737E-1,1.2749081E0,3.2404916E0,3.6571026E-1,1.3361056E0,-8.066396E-2,-7.7503306E-1,-5.3272694E-1,1.4876744E0,4.990573E0,4.4407144E-1,3.5572488E-2,-1.4571059E-2,5.518029E-2,2.2471564E-1,-7.846433E-3,6.32635E-2,-2.8903512E-2,-9.0851896E-2,2.6407584E-3,-9.7462706E-2,7.174741E-2,4.051704E-1,1.5116791E-1,4.7445616E-1,3.5376996E-2,-2.0400219E-1],"categories":[],"categories_nodes":[],"categories_segments":[],"categories_sizes":[],"default_left":[0,0,0,0,0,0,0,0,0,0,0,0,0,0,0,0,0,0,0,0,0,0,0,0,0,0,0,0,0,0,0],"id":37,"left_children":[1,3,5,7,9,11,13,15,17,19,21,23,25,27,29,-1,-1,-1,-1,-1,-1,-1,-1,-1,-1,-1,-1,-1,-1,-1,-1],"loss_changes":[1.4936155E3,2.0511264E2,5.96823E2,1.0688283E2,4.0016384E1,4.4731763E2,8.738031E2,1.5856316E2,9.4902435E1,9.761078E1,1.7626118E1,1.0212363E2,3.5079932E2,9.4476855E2,8.632412E1,0E0,0E0,0E0,0E0,0E0,0E0,0E0,0E0,0E0,0E0,0E0,0E0,0E0,0E0,0E0,0E0],"parents":[2147483647,0,0,1,1,2,2,3,3,4,4,5,5,6,6,7,7,8,8,9,9,10,10,11,11,12,12,13,13,14,14],"right_children":[2,4,6,8,10,12,14,16,18,20,22,24,26,28,30,-1,-1,-1,-1,-1,-1,-1,-1,-1,-1,-1,-1,-1,-1,-1,-1],"split_conditions":[3.5310054E-1,9.805195E-1,9.012006E-1,7.8675187E-1,4.664772E-3,1.7881678E-1,9.3325216E-1,2.5503412E-1,8.562493E-1,2.6242564E-2,3.042809E-1,6.3058114E-1,6.895024E-1,9.338235E-1,9.990789E-1,3.5572488E-2,-1.4571059E-2,5.518029E-2,2.2471564E-1,-7.846433E-3,6.32635E-2,-2.8903512E-2,-9.0851896E-2,2.6407584E-3,-9.7462706E-2,7.174741E-2,4.051704E-1,1.5116791E-1,4.7445616E-1,3.5376996E-2,-2.0400219E-1],"split_indices":[1,3,1,6,0,4,0,6,7,1,1,1,2,3,4,0,0,0,0,0,0,0,0,0,0,0,0,0,0,0,0],"split_type":[0,0,0,0,0,0,0,0,0,0,0,0,0,0,0,0,0,0,0,0,0,0,0,0,0,0,0,0,0,0,0],"sum_hessian":[3.207E3,1.869E3,1.338E3,8.31E2,1.038E3,1.16E3,1.78E2,6.96E2,1.35E2,9.48E2,9E1,1.22E2,1.038E3,1.09E2,6.9E1,4.56E2,2.4E2,1.27E2,8E0,8.98E2,5E1,7.7E1,1.3E1,8.7E1,3.5E1,1.031E3,7E0,7.7E1,3.2E1,6.6E1,3E0],"tree_param":{"num_deleted":"0","num_feature":"8","num_nodes":"31","size_leaf_vector":"0"}},{"base_weights":[7.1503973E-1,1.6345844E-1,1.6422058E0,-4.5379113E-2,7.4373525E-1,1.0139248E0,2.8033803E0,-7.739891E-5,-2.9131713E0,1.9964747E0,5.5272985E-1,1.4826232E0,-3.0983418E-1,2.4398808E0,5.069116E0,-4.6425792E-3,2.6099429E-2,-9.067775E-2,-1.745264E-1,1.1697357E-1,-7.123521E-2,5.34765E-4,5.259935E-2,6.227414E-2,1.8058391E-1,-3.464536E-2,7.189491E-2,1.5119487E-1,6.449248E-2,1.7319576E-1,5.117825E-1],"categories":[],"categories_nodes":[],"categories_segments":[],"categories_sizes":[],"default_left":[0,0,0,0,0,0,0,0,0,0,0,0,0,0,0,0,0,0,0,0,0,0,0,0,0,0,0,0,0,0,0],"id":38,"left_children":[1,3,5,7,9,11,13,15,17,19,21,23,25,27,29,-1,-1,-1,-1,-1,-1,-1,-1,-1,-1,-1,-1,-1,-1,-1,-1],"loss_changes":[1.6382812E3,2.4361276E2,8.689624E2,1.921454E2,1.2619345E2,4.825442E2,3.3271802E2,7.061716E1,8.271759E0,8.547473E1,1.25283325E2,2.8530566E2,1.3757617E2,2.3990405E2,4.3726404E2,0E0,0E0,0E0,0E0,0E0,0E0,0E0,0E0,0E0,0E0,0E0,0E0,0E0,0E0,0E0,0E0],"parents":[2147483647,0,0,1,1,2,2,3,3,4,4,5,5,6,6,7,7,8,8,9,9,10,10,11,11,12,12,13,13,14,14],"right_children":[2,4,6,8,10,12,14,16,18,20,22,24,26,28,30,-1,-1,-1,-1,-1,-1,-1,-1,-1,-1,-1,-1,-1,-1,-1,-1],"split_conditions":[4.07854E-1,5.627437E-2,8.806268E-1,1.564419E-2,8.609937E-1,9.528536E-1,9.8973507E-1,7.3218256E-1,8.0465956E-4,9.1747E-1,2.5535044E-1,8.9505863E-1,3.645884E-1,9.338235E-1,9.9340117E-1,-4.6425792E-3,2.6099429E-2,-9.067775E-2,-1.745264E-1,1.1697357E-1,-7.123521E-2,5.34765E-4,5.259935E-2,6.227414E-2,1.8058391E-1,-3.464536E-2,7.189491E-2,1.5119487E-1,6.449248E-2,1.7319576E-1,5.117825E-1],"split_indices":[1,0,4,0,0,0,1,4,4,4,1,1,5,3,4,0,0,0,0,0,0,0,0,0,0,0,0,0,0,0,0],"split_type":[0,0,0,0,0,0,0,0,0,0,0,0,0,0,0,0,0,0,0,0,0,0,0,0,0,0,0,0,0,0,0],"sum_hessian":[3.203E3,2.009E3,1.194E3,1.478E3,5.31E2,7.76E2,4.18E2,1.456E3,2.2E1,6.9E1,4.62E2,5.73E2,2.03E2,3.62E2,5.6E1,1.237E3,2.19E2,9E0,1.3E1,6.3E1,6E0,2.22E2,2.4E2,5.17E2,5.6E1,1.67E2,3.6E1,2.39E2,1.23E2,4.4E1,1.2E1],"tree_param":{"num_deleted":"0","num_feature":"8","num_nodes":"31","size_leaf_vector":"0"}},{"base_weights":[6.5801316E-1,9.936886E-2,1.339313E0,7.600539E-2,6.7258205E0,5.443749E-1,1.8145674E0,7.6643587E-3,1.2478999E0,8.489668E-2,3.6959058E-1,4.3591452E-1,3.2666264E0,2.1969686E0,8.467174E-1,2.614839E-3,-6.1710514E-2,-6.266406E-2,8.885152E-2,-1.22046415E-2,3.248549E-2,2.3311506E-1,-3.834992E-2,9.3244724E-2,2.5992024E-1,1.997299E-2,1.0070846E-1],"categories":[],"categories_nodes":[],"categories_segments":[],"categories_sizes":[],"default_left":[0,0,0,0,0,0,0,0,0,0,0,0,0,0,0,0,0,0,0,0,0,0,0,0,0,0,0],"id":39,"left_children":[1,3,5,7,9,11,13,15,17,-1,-1,19,21,23,25,-1,-1,-1,-1,-1,-1,-1,-1,-1,-1,-1,-1],"loss_changes":[1.1843075E3,2.643805E2,5.286846E2,1.3662138E2,7.5403748E0,1.5388086E2,3.2272363E2,8.94697E1,1.26631546E2,0E0,0E0,7.3867455E1,1.1616853E2,6.1623267E2,1.2973335E2,0E0,0E0,0E0,0E0,0E0,0E0,0E0,0E0,0E0,0E0,0E0,0E0],"parents":[2147483647,0,0,1,1,2,2,3,3,4,4,5,5,6,6,7,7,8,8,11,11,12,12,13,13,14,14],"right_children":[2,4,6,8,10,12,14,16,18,-1,-1,20,22,24,26,-1,-1,-1,-1,-1,-1,-1,-1,-1,-1,-1,-1],"split_conditions":[5.966446E-1,7.867073E-1,3.7399864E-1,4.2971417E-1,2.6614273E-1,3.5686892E-1,9.3325216E-1,9.8735476E-1,2.8731188E-1,8.489668E-2,3.6959058E-1,7.4279207E-1,8.032787E-1,9.804575E-1,5.530692E-1,2.614839E-3,-6.1710514E-2,-6.266406E-2,8.885152E-2,-1.22046415E-2,3.248549E-2,2.3311506E-1,-3.834992E-2,9.3244724E-2,2.5992024E-1,1.997299E-2,1.0070846E-1],"split_indices":[4,2,1,5,1,2,0,0,4,0,0,4,3,1,6,0,0,0,0,0,0,0,0,0,0,0,0],"split_type":[0,0,0,0,0,0,0,0,0,0,0,0,0,0,0,0,0,0,0,0,0,0,0,0,0,0,0],"sum_hessian":[3.111E3,1.71E3,1.401E3,1.705E3,5E0,5.25E2,8.76E2,1.612E3,9.3E1,1E0,4E0,5.06E2,1.9E1,6.27E2,2.49E2,1.557E3,5.5E1,1.6E1,7.7E1,1.21E2,3.85E2,1.4E1,5E0,5.66E2,6.1E1,1.81E2,6.8E1],"tree_param":{"num_deleted":"0","num_feature":"8","num_nodes":"27","size_leaf_vector":"0"}},{"base_weights":[6.0801953E-1,9.544717E-2,1.2826433E0,-2.2631783E-2,7.994492E-1,1.1017611E0,3.9031942E0,-5.826299E-2,1.8420292E0,1.6496294E0,1.804486E-1,3.197853E-1,1.4102893E0,2.4790163E0,1.1253919E1,-4.656531E-4,-9.1011666E-2,-1.5014815E-2,2.9712388E-1,6.537534E-4,1.1956798E-1,-6.411487E-2,3.332239E-2,4.3487307E-3,9.073252E-2,8.051844E-2,-1.316003E-2,8.310308E-2,4.5566264E-1,-2.5721E-1,7.207811E-1],"categories":[],"categories_nodes":[],"categories_segments":[],"categories_sizes":[],"default_left":[0,0,0,0,0,0,0,0,0,0,0,0,0,0,0,0,0,0,0,0,0,0,0,0,0,0,0,0,0,0,0],"id":40,"left_children":[1,3,5,7,9,11,13,15,17,19,21,23,25,27,29,-1,-1,-1,-1,-1,-1,-1,-1,-1,-1,-1,-1,-1,-1,-1,-1],"loss_changes":[1.0963888E3,1.4989755E2,6.446211E2,1.0275732E2,1.3600418E2,3.088463E2,8.9335034E2,1.3082173E2,2.5653485E2,1.3228186E2,1.0819947E2,1.2652167E2,3.0813342E2,3.9134338E2,8.0000073E2,0E0,0E0,0E0,0E0,0E0,0E0,0E0,0E0,0E0,0E0,0E0,0E0,0E0,0E0,0E0,0E0],"parents":[2147483647,0,0,1,1,2,2,3,3,4,4,5,5,6,6,7,7,8,8,9,9,10,10,11,11,12,12,13,13,14,14],"right_children":[2,4,6,8,10,12,14,16,18,20,22,24,26,28,30,-1,-1,-1,-1,-1,-1,-1,-1,-1,-1,-1,-1,-1,-1,-1,-1],"split_conditions":[6.2704486E-1,1.8607493E-1,9.8973507E-1,9.0720844E-1,4.8150435E-1,2.7940908E-1,9.8381954E-1,7.556334E-1,9.338235E-1,1.7213928E-2,6.0137427E-1,7.467688E-1,9.6637416E-1,1.0715953E-1,5.209849E-2,-4.656531E-4,-9.1011666E-2,-1.5014815E-2,2.9712388E-1,6.537534E-4,1.1956798E-1,-6.411487E-2,3.332239E-2,4.3487307E-3,9.073252E-2,8.051844E-2,-1.316003E-2,8.310308E-2,4.5566264E-1,-2.5721E-1,7.207811E-1],"split_indices":[4,5,1,1,6,1,4,1,3,0,6,6,0,5,0,0,0,0,0,0,0,0,0,0,0,0,0,0,0,0,0],"split_type":[0,0,0,0,0,0,0,0,0,0,0,0,0,0,0,0,0,0,0,0,0,0,0,0,0,0,0,0,0,0,0],"sum_hessian":[3.17E3,1.802E3,1.368E3,1.544E3,2.58E2,1.281E3,8.7E1,1.516E3,2.8E1,1.08E2,1.5E2,3.63E2,9.18E2,7.4E1,1.3E1,1.476E3,4E1,1.9E1,9E0,3.4E1,7.4E1,3.7E1,1.13E2,3.15E2,4.8E1,8.2E2,9.8E1,6.7E1,7E0,2E0,1.1E1],"tree_param":{"num_deleted":"0","num_feature":"8","num_nodes":"31","size_leaf_vector":"0"}},{"base_weights":[6.691969E-1,2.3854057E-1,1.5392226E0,-3.191505E-2,6.706526E-1,1.0820358E0,2.5517502E0,-4.8431113E-2,1.5110774E0,8.54218E-1,-3.5447785E-1,1.6964601E0,4.1755038E-1,2.3841755E0,8.977665E0,-6.545153E-4,-4.8719108E-2,-2.1065513E-2,1.7518263E-1,1.4712716E-2,5.766012E-2,-5.26539E-3,-1.0956579E-1,2.060221E-2,1.0468256E-1,9.406799E-3,9.020195E-2,1.2262346E-2,1.374423E-1,1.3242388E-2,5.092259E-1],"categories":[],"categories_nodes":[],"categories_segments":[],"categories_sizes":[],"default_left":[0,0,0,0,0,0,0,0,0,0,0,0,0,0,0,0,0,0,0,0,0,0,0,0,0,0,0,0,0,0,0],"id":41,"left_children":[1,3,5,7,9,11,13,15,17,19,21,23,25,27,29,-1,-1,-1,-1,-1,-1,-1,-1,-1,-1,-1,-1,-1,-1,-1,-1],"loss_changes":[1.1993649E3,2.504677E2,4.8792822E2,3.3686794E1,1.5554999E2,2.9814972E2,3.3286963E2,4.27246E1,5.5382107E1,1.1685504E2,5.743754E1,1.9299744E2,1.11943E2,2.5048718E2,8.142334E1,0E0,0E0,0E0,0E0,0E0,0E0,0E0,0E0,0E0,0E0,0E0,0E0,0E0,0E0,0E0,0E0],"parents":[2147483647,0,0,1,1,2,2,3,3,4,4,5,5,6,6,7,7,8,8,9,9,10,10,11,11,12,12,13,13,14,14],"right_children":[2,4,6,8,10,12,14,16,18,20,22,24,26,28,30,-1,-1,-1,-1,-1,-1,-1,-1,-1,-1,-1,-1,-1,-1,-1,-1],"split_conditions":[4.5976838E-1,1.1299819E-1,9.0305966E-1,4.269477E-1,9.40272E-1,9.087163E-1,1.0736767E-2,8.628801E-1,9.773792E-4,5.627437E-2,7.307475E-1,1.8322768E-2,3.676789E-1,2.0425515E-2,4.5315716E-2,-6.545153E-4,-4.8719108E-2,-2.1065513E-2,1.7518263E-1,1.4712716E-2,5.766012E-2,-5.26539E-3,-1.0956579E-1,2.060221E-2,1.0468256E-1,9.406799E-3,9.020195E-2,1.2262346E-2,1.374423E-1,1.3242388E-2,5.092259E-1],"split_indices":[1,1,4,5,0,0,2,0,0,0,7,0,5,0,0,0,0,0,0,0,0,0,0,0,0,0,0,0,0,0,0],"split_type":[0,0,0,0,0,0,0,0,0,0,0,0,0,0,0,0,0,0,0,0,0,0,0,0,0,0,0,0,0,0,0],"sum_hessian":[3.201E3,2.142E3,1.059E3,1.318E3,8.24E2,7.31E2,3.28E2,1.305E3,1.3E1,6.99E2,1.25E2,3.79E2,3.52E2,3.21E2,7E0,1.258E3,4.7E1,7E0,6E0,2.44E2,4.55E2,1.11E2,1.4E1,9E1,2.89E2,3.03E2,4.9E1,4.7E1,2.74E2,1E0,6E0],"tree_param":{"num_deleted":"0","num_feature":"8","num_nodes":"31","size_leaf_vector":"0"}},{"base_weights":[5.9234244E-1,1.0778458E-1,1.2948684E0,-5.233188E-3,1.4547445E0,3.4509826E-1,1.6457896E0,-5.7348374E-2,5.360496E-1,1.2603748E0,4.0198874E-1,2.8532622E0,2.0138504E-1,2.3315554E0,6.1281E-1,1.2413487E-3,-6.0363114E-2,-4.2732097E-3,6.4695686E-2,-2.579248E-2,7.520591E-2,7.370013E-2,3.8284922E-1,-3.4505613E-3,6.607356E-2,1.3532822E-1,-1.4992383E-2,4.557291E-2,-2.5925696E-2],"categories":[],"categories_nodes":[],"categories_segments":[],"categories_sizes":[],"default_left":[0,0,0,0,0,0,0,0,0,0,0,0,0,0,0,0,0,0,0,0,0,0,0,0,0,0,0,0,0],"id":42,"left_children":[1,3,5,7,9,11,13,15,17,19,-1,21,23,25,27,-1,-1,-1,-1,-1,-1,-1,-1,-1,-1,-1,-1,-1,-1],"loss_changes":[1.0840806E3,2.8711414E2,4.3271484E2,4.9142704E1,1.7673666E2,1.26306E2,6.708257E2,1.5018184E2,7.217709E1,6.2686737E1,0E0,1.14599594E2,1.0124881E2,5.6328735E2,1.2886238E2,0E0,0E0,0E0,0E0,0E0,0E0,0E0,0E0,0E0,0E0,0E0,0E0,0E0,0E0],"parents":[2147483647,0,0,1,1,2,2,3,3,4,4,5,5,6,6,7,7,8,8,9,9,11,11,12,12,13,13,14,14],"right_children":[2,4,6,8,10,12,14,16,18,20,-1,22,24,26,28,-1,-1,-1,-1,-1,-1,-1,-1,-1,-1,-1,-1,-1,-1],"split_conditions":[6.4876884E-1,3.7751582E-1,2.21151E-2,7.0992815E-1,8.035259E-1,6.785714E-1,3.8498238E-1,9.4986075E-1,9.1446847E-1,2.8731188E-1,4.0198874E-1,6.614916E-1,9.8381954E-1,9.6637416E-1,8.333333E-1,1.2413487E-3,-6.0363114E-2,-4.2732097E-3,6.4695686E-2,-2.579248E-2,7.520591E-2,7.370013E-2,3.8284922E-1,-3.4505613E-3,6.607356E-2,1.3532822E-1,-1.4992383E-2,4.557291E-2,-2.5925696E-2],"split_indices":[4,5,0,6,2,3,7,0,0,4,0,7,4,0,3,0,0,0,0,0,0,0,0,0,0,0,0,0,0],"split_type":[0,0,0,0,0,0,0,0,0,0,0,0,0,0,0,0,0,0,0,0,0,0,0,0,0,0,0,0,0],"sum_hessian":[3.184E3,1.885E3,1.299E3,1.74E3,1.45E2,3.51E2,9.48E2,1.588E3,1.52E2,1.42E2,3E0,1.8E1,3.33E2,5.69E2,3.79E2,1.483E3,1.05E2,8.4E1,6.8E1,1.7E1,1.25E2,1.5E1,3E0,2.69E2,6.4E1,4.98E2,7.1E1,3E2,7.9E1],"tree_param":{"num_deleted":"0","num_feature":"8","num_nodes":"29","size_leaf_vector":"0"}},{"base_weights":[5.5321854E-1,1.3587786E-1,1.4093562E0,3.029054E-2,9.9302816E-1,1.7396282E0,-7.473555E-2,1.0605157E-2,3.4259498E0,5.936188E-1,8.486888E-1,2.5766923E0,8.8862306E-1,7.511068E-1,-1.0917653E0,5.1406017E-3,-2.3118054E-2,2.2092474E-1,-3.4683455E-2,1.3442904E-2,6.8701796E-2,5.495186E-3,1.6332392E-1,2.4439147E-2,9.2216454E-2,2.904853E-2,4.6538535E-1,-1.1677226E-1,-2.4151988E-2],"categories":[],"categories_nodes":[],"categories_segments":[],"categories_sizes":[],"default_left":[0,0,0,0,0,0,0,0,0,0,0,0,0,0,0,0,0,0,0,0,0,0,0,0,0,0,0,0,0],"id":43,"left_children":[1,3,5,7,9,11,13,15,17,-1,19,21,23,25,27,-1,-1,-1,-1,-1,-1,-1,-1,-1,-1,-1,-1,-1,-1],"loss_changes":[1.1381697E3,1.9392044E2,5.1185083E2,1.2757048E2,3.5894873E2,6.0605347E2,1.6124211E2,8.286433E1,4.8042953E1,0E0,7.0605286E1,7.313103E2,1.6150363E2,1.48906E2,6.3979027E1,0E0,0E0,0E0,0E0,0E0,0E0,0E0,0E0,0E0,0E0,0E0,0E0,0E0,0E0],"parents":[2147483647,0,0,1,1,2,2,3,3,4,4,5,5,6,6,7,7,8,8,10,10,11,11,12,12,13,13,14,14],"right_children":[2,4,6,8,10,12,14,16,18,-1,20,22,24,26,28,-1,-1,-1,-1,-1,-1,-1,-1,-1,-1,-1,-1,-1,-1],"split_conditions":[4.5976838E-1,6.9634414E-1,9.6940446E-1,5.5911857E-1,7.019249E-1,3.6650114E-2,8.333333E-1,2.892681E-1,9.201687E-1,5.936188E-1,5.842425E-1,2.2691322E-2,6.639517E-1,8.255814E-1,6.4272285E-1,5.1406017E-3,-2.3118054E-2,2.2092474E-1,-3.4683455E-2,1.3442904E-2,6.8701796E-2,5.495186E-3,1.6332392E-1,2.4439147E-2,9.2216454E-2,2.904853E-2,4.6538535E-1,-1.1677226E-1,-2.4151988E-2],"split_indices":[1,6,0,2,6,6,3,6,0,0,4,0,6,3,1,0,0,0,0,0,0,0,0,0,0,0,0,0,0],"split_type":[0,0,0,0,0,0,0,0,0,0,0,0,0,0,0,0,0,0,0,0,0,0,0,0,0,0,0,0,0],"sum_hessian":[3.185E3,2.142E3,1.043E3,1.908E3,2.34E2,8.53E2,1.9E2,1.898E3,1E1,2E0,2.32E2,4.29E2,4.24E2,1.05E2,8.5E1,1.589E3,3.09E2,8E0,2E0,1.11E2,1.21E2,9.4E1,3.35E2,3E2,1.24E2,1.04E2,1E0,2.7E1,5.8E1],"tree_param":{"num_deleted":"0","num_feature":"8","num_nodes":"29","size_leaf_vector":"0"}},{"base_weights":[5.103242E-1,8.7608926E-2,1.0664966E0,5.7744343E-2,4.4927998E0,9.3266773E-1,2.9596956E0,2.064409E-2,1.5151465E0,3.9804432E-1,8.7832576E-1,4.821193E-1,1.2355707E0,1.6849284E0,8.670513E0,-1.757993E-3,4.0974747E-2,4.924634E-1,3.3255335E-2,2.2518435E-1,-7.362781E-2,5.104608E-2,-1.2336692E-2,6.640634E-2,-7.088799E-2,6.249097E-2,5.78295E-1,-1.0689934E-1,5.664622E-1],"categories":[],"categories_nodes":[],"categories_segments":[],"categories_sizes":[],"default_left":[0,0,0,0,0,0,0,0,0,0,0,0,0,0,0,0,0,0,0,0,0,0,0,0,0,0,0,0,0],"id":44,"left_children":[1,3,5,7,9,11,13,15,17,-1,19,21,23,25,27,-1,-1,-1,-1,-1,-1,-1,-1,-1,-1,-1,-1,-1,-1],"loss_changes":[7.376583E2,2.3444215E2,3.4054907E2,9.583481E1,1.4343149E2,1.7231482E2,6.3330756E2,7.7150536E1,3.0515994E2,0E0,6.6291504E1,2.009255E2,1.8778845E2,3.0369287E2,4.8401196E2,0E0,0E0,0E0,0E0,0E0,0E0,0E0,0E0,0E0,0E0,0E0,0E0,0E0,0E0],"parents":[2147483647,0,0,1,1,2,2,3,3,4,4,5,5,6,6,7,7,8,8,10,10,11,11,12,12,13,13,14,14],"right_children":[2,4,6,8,10,12,14,16,18,-1,20,22,24,26,28,-1,-1,-1,-1,-1,-1,-1,-1,-1,-1,-1,-1,-1,-1],"split_conditions":[6.224246E-1,6.7315626E-1,9.8973507E-1,9.0720844E-1,5.083333E-1,3.7399864E-1,9.75E-1,3.7751582E-1,9.304613E-1,3.9804432E-1,1.9837597E-1,8.425926E-1,9.5370424E-1,4.8671553E-1,5.209849E-2,-1.757993E-3,4.0974747E-2,4.924634E-1,3.3255335E-2,2.2518435E-1,-7.362781E-2,5.104608E-2,-1.2336692E-2,6.640634E-2,-7.088799E-2,6.249097E-2,5.78295E-1,-1.0689934E-1,5.664622E-1],"split_indices":[4,5,1,1,3,1,3,5,1,0,4,3,1,5,0,0,0,0,0,0,0,0,0,0,0,0,0,0,0],"split_type":[0,0,0,0,0,0,0,0,0,0,0,0,0,0,0,0,0,0,0,0,0,0,0,0,0,0,0,0,0],"sum_hessian":[3.137E3,1.783E3,1.354E3,1.772E3,1.1E1,1.266E3,8.8E1,1.729E3,4.3E1,5E0,6E0,5.1E2,7.56E2,7.3E1,1.5E1,1.617E3,1.12E2,3E0,4E1,2E0,4E0,2.93E2,2.17E2,7.31E2,2.5E1,7.1E1,2E0,3E0,1.2E1],"tree_param":{"num_deleted":"0","num_feature":"8","num_nodes":"29","size_leaf_vector":"0"}},{"base_weights":[5.1994056E-1,-1.0536435E-1,9.5174694E-1,-1.2864046E-1,1.3150616E0,8.211113E-1,2.9278526E0,-8.930631E-2,-1.2035373E0,5.845748E-1,2.1166506E-1,1.0672529E0,1.480802E-1,5.00843E0,1.7793205E-1,-5.3271493E-3,7.0956305E-2,-7.951841E-3,-9.160093E-2,-3.110292E-2,1.1303481E-1,1.7717635E-2,6.615214E-2,-5.694526E-2,1.5833141E-2,-1.34093985E-2,3.2828173E-1,-2.821054E-1,2.6531486E-2],"categories":[],"categories_nodes":[],"categories_segments":[],"categories_sizes":[],"default_left":[0,0,0,0,0,0,0,0,0,0,0,0,0,0,0,0,0,0,0,0,0,0,0,0,0,0,0,0,0],"id":45,"left_children":[1,3,5,7,9,11,13,15,17,-1,19,21,23,25,27,-1,-1,-1,-1,-1,-1,-1,-1,-1,-1,-1,-1,-1,-1],"loss_changes":[8.568441E2,4.305056E1,4.821432E2,5.3884277E1,2.3796107E2,2.9173657E2,6.6279376E2,3.220964E1,2.9248848E1,0E0,3.5572792E1,2.3476599E2,1.02984314E2,5.440681E2,1.07682304E2,0E0,0E0,0E0,0E0,0E0,0E0,0E0,0E0,0E0,0E0,0E0,0E0,0E0,0E0],"parents":[2147483647,0,0,1,1,2,2,3,3,4,4,5,5,6,6,7,7,8,8,10,10,11,11,12,12,13,13,14,14],"right_children":[2,4,6,8,10,12,14,16,18,-1,20,22,24,26,28,-1,-1,-1,-1,-1,-1,-1,-1,-1,-1,-1,-1,-1,-1],"split_conditions":[1.09028555E-1,3.632315E-1,9.8973507E-1,8.628801E-1,3.676789E-1,9.3252265E-1,8.809769E-1,4.029651E-2,3.0255187E-1,5.845748E-1,2.4264024E-3,5.114555E-1,1.6902503E-1,5.209849E-2,9.1082585E-1,-5.3271493E-3,7.0956305E-2,-7.951841E-3,-9.160093E-2,-3.110292E-2,1.1303481E-1,1.7717635E-2,6.615214E-2,-5.694526E-2,1.5833141E-2,-1.34093985E-2,3.2828173E-1,-2.821054E-1,2.6531486E-2],"split_indices":[1,5,1,0,5,0,0,0,4,0,0,4,4,0,0,0,0,0,0,0,0,0,0,0,0,0,0,0,0],"split_type":[0,0,0,0,0,0,0,0,0,0,0,0,0,0,0,0,0,0,0,0,0,0,0,0,0,0,0,0,0],"sum_hessian":[3.172E3,1.296E3,1.876E3,1.276E3,2E1,1.761E3,1.15E2,1.232E3,4.4E1,1E0,1.9E1,1.289E3,4.72E2,6.5E1,5E1,1.219E3,1.3E1,1.7E1,2.7E1,1.4E1,5E0,3.41E2,9.48E2,5.4E1,4.18E2,1.5E1,5E1,2E0,4.8E1],"tree_param":{"num_deleted":"0","num_feature":"8","num_nodes":"29","size_leaf_vector":"0"}},{"base_weights":[5.106818E-1,-1.8085336E-2,1.0866536E0,9.07054E-3,-3.2367046E0,1.7826347E0,5.2515686E-1,-6.177981E-2,6.9740313E-1,-8.2521826E-1,-2.4710837E-1,2.518393E0,8.685141E-1,-1.0922699E-1,8.4816647E-1,-1.4129741E-3,-1.06524125E-1,1.962894E-1,2.11764E-2,-8.1578985E-2,1.0032375E-1,6.407215E-2,1.6270563E-1,1.50111485E-2,8.581E-2,-1.5169854E-2,3.9952096E-2,2.5702178E-2,8.3705656E-2],"categories":[],"categories_nodes":[],"categories_segments":[],"categories_sizes":[],"default_left":[0,0,0,0,0,0,0,0,0,0,0,0,0,0,0,0,0,0,0,0,0,0,0,0,0,0,0,0,0],"id":46,"left_children":[1,3,5,7,9,11,13,15,17,19,-1,21,23,25,27,-1,-1,-1,-1,-1,-1,-1,-1,-1,-1,-1,-1,-1,-1],"loss_changes":[9.7672754E2,1.4625697E2,5.989282E2,8.099898E1,5.349942E1,4.585244E2,1.7447284E2,1.0437124E2,1.3538437E2,1.9257301E1,0E0,3.4073853E2,1.4737659E2,5.103372E1,1.5478513E2,0E0,0E0,0E0,0E0,0E0,0E0,0E0,0E0,0E0,0E0,0E0,0E0,0E0,0E0],"parents":[2147483647,0,0,1,1,2,2,3,3,4,4,5,5,6,6,7,7,8,8,9,9,11,11,12,12,13,13,14,14],"right_children":[2,4,6,8,10,12,14,16,18,20,-1,22,24,26,28,-1,-1,-1,-1,-1,-1,-1,-1,-1,-1,-1,-1,-1,-1],"split_conditions":[2.21151E-2,8.2987356E-1,8.977728E-1,4.5976838E-1,8.032787E-1,1.8005717E-1,5.511453E-1,1.5294544E-2,4.853907E-1,7.8125E-1,-2.4710837E-1,5.39876E-1,6.9634414E-1,3.749755E-1,6.0137427E-1,-1.4129741E-3,-1.06524125E-1,1.962894E-1,2.11764E-2,-8.1578985E-2,1.0032375E-1,6.407215E-2,1.6270563E-1,1.50111485E-2,8.581E-2,-1.5169854E-2,3.9952096E-2,2.5702178E-2,8.3705656E-2],"split_indices":[0,1,0,1,3,6,4,0,1,3,0,1,6,5,6,0,0,0,0,0,0,0,0,0,0,0,0,0,0],"split_type":[0,0,0,0,0,0,0,0,0,0,0,0,0,0,0,0,0,0,0,0,0,0,0,0,0,0,0,0,0],"sum_hessian":[3.206E3,1.672E3,1.534E3,1.659E3,1.3E1,6.84E2,8.5E2,1.505E3,1.54E2,6E0,7E0,3.78E2,3.06E2,2.87E2,5.63E2,1.482E3,2.3E1,1.1E1,1.43E2,5E0,1E0,1.42E2,2.36E2,1.84E2,1.22E2,2.37E2,5E1,4.02E2,1.61E2],"tree_param":{"num_deleted":"0","num_feature":"8","num_nodes":"29","size_leaf_vector":"0"}},{"base_weights":[5.1111543E-1,5.915227E-2,1.0205837E0,1.868317E-2,2.6655777E0,8.431844E-1,2.4893262E0,-1.2696154E-2,1.3361357E0,4.157769E0,-1.2115738E0,1.6966765E-1,1.0310707E0,3.4252107E0,-2.0089382E-2,1.2075936E-3,-6.740742E-2,-6.1732978E-2,2.2019947E-1,-1.0546272E-1,2.5095698E-1,3.402744E-2,-1.6369168E-1,1.748684E-2,-1.3104133E-1,6.591446E-2,1.830328E-2,1.1685276E-1,3.201839E-1,1.6452187E-1,-3.0688569E-2],"categories":[],"categories_nodes":[],"categories_segments":[],"categories_sizes":[],"default_left":[0,0,0,0,0,0,0,0,0,0,0,0,0,0,0,0,0,0,0,0,0,0,0,0,0,0,0,0,0,0,0],"id":47,"left_children":[1,3,5,7,9,11,13,15,17,19,21,23,25,27,29,-1,-1,-1,-1,-1,-1,-1,-1,-1,-1,-1,-1,-1,-1,-1,-1],"loss_changes":[7.386166E2,1.7937117E2,3.9081628E2,6.930409E1,1.5545918E2,1.7028058E2,3.8052954E2,8.063654E1,3.1302353E2,1.13153015E2,3.3444393E1,1.4914877E2,2.0064221E2,3.6747644E2,9.046259E1,0E0,0E0,0E0,0E0,0E0,0E0,0E0,0E0,0E0,0E0,0E0,0E0,0E0,0E0,0E0,0E0],"parents":[2147483647,0,0,1,1,2,2,3,3,4,4,5,5,6,6,7,7,8,8,9,9,10,10,11,11,12,12,13,13,14,14],"right_children":[2,4,6,8,10,12,14,16,18,20,22,24,26,28,30,-1,-1,-1,-1,-1,-1,-1,-1,-1,-1,-1,-1,-1,-1,-1,-1],"split_conditions":[5.56447E-1,6.372352E-1,8.9505863E-1,9.2022014E-1,8.344014E-1,1.0014541E-2,9.438888E-1,7.7173114E-1,8.839286E-1,1.7881678E-1,9.1860086E-1,5.6071806E-1,9.3016106E-1,7.702573E-2,9.304613E-1,1.2075936E-3,-6.740742E-2,-6.1732978E-2,2.2019947E-1,-1.0546272E-1,2.5095698E-1,3.402744E-2,-1.6369168E-1,1.748684E-2,-1.3104133E-1,6.591446E-2,1.830328E-2,1.1685276E-1,3.201839E-1,1.6452187E-1,-3.0688569E-2],"split_indices":[4,2,1,1,6,0,0,1,3,4,0,1,0,0,1,0,0,0,0,0,0,0,0,0,0,0,0,0,0,0,0],"split_type":[0,0,0,0,0,0,0,0,0,0,0,0,0,0,0,0,0,0,0,0,0,0,0,0,0,0,0,0,0,0,0],"sum_hessian":[3.207E3,1.7E3,1.507E3,1.675E3,2.5E1,1.346E3,1.61E2,1.637E3,3.8E1,1.8E1,7E0,2.94E2,1.052E3,1.17E2,4.4E1,1.594E3,4.3E1,2.1E1,1.7E1,2E0,1.6E1,4E0,3E0,2.77E2,1.7E1,7.34E2,3.18E2,8.7E1,3E1,6E0,3.8E1],"tree_param":{"num_deleted":"0","num_feature":"8","num_nodes":"31","size_leaf_vector":"0"}},{"base_weights":[4.3746746E-1,1.0772548E-1,9.794838E-1,2.6989931E-2,7.959542E-1,1.2316812E0,-2.4173309E-1,1.02213845E-2,3.362795E0,5.663137E-1,6.4099294E-1,1.6501374E0,3.9853078E-1,-7.8411514E-1,4.624538E-1,3.6477298E-3,-4.1348618E-2,2.2586611E-1,-2.2601618E-2,4.574677E-2,-3.9795753E-2,1.3991068E-2,1.0415838E-1,2.4322556E-1,1.5867671E-2,2.9837224E-1,-4.4595163E-2,6.3322835E-2,-7.600073E-2],"categories":[],"categories_nodes":[],"categories_segments":[],"categories_sizes":[],"default_left":[0,0,0,0,0,0,0,0,0,0,0,0,0,0,0,0,0,0,0,0,0,0,0,0,0,0,0,0,0],"id":48,"left_children":[1,3,5,7,9,11,13,15,17,-1,19,21,23,25,27,-1,-1,-1,-1,-1,-1,-1,-1,-1,-1,-1,-1,-1,-1],"loss_changes":[5.773566E2,1.1166322E2,3.7665894E2,1.0065153E2,3.3704803E2,3.525116E2,8.056967E1,9.4175896E1,4.168087E1,0E0,8.299691E1,3.993606E2,1.2171863E2,9.1923225E1,1.4856479E2,0E0,0E0,0E0,0E0,0E0,0E0,0E0,0E0,0E0,0E0,0E0,0E0,0E0,0E0],"parents":[2147483647,0,0,1,1,2,2,3,3,4,4,5,5,6,6,7,7,8,8,10,10,11,11,12,12,13,13,14,14],"right_children":[2,4,6,8,10,12,14,16,18,-1,20,22,24,26,28,-1,-1,-1,-1,-1,-1,-1,-1,-1,-1,-1,-1,-1,-1],"split_conditions":[4.07854E-1,6.9634414E-1,9.6637416E-1,5.241648E-1,7.019249E-1,4.9775967E-1,4.9331188E-1,5.2662563E-1,9.201687E-1,5.663137E-1,8.561644E-1,2.21151E-2,4.0990797E-1,4.116109E-1,7.634204E-1,3.6477298E-3,-4.1348618E-2,2.2586611E-1,-2.2601618E-2,4.574677E-2,-3.9795753E-2,1.3991068E-2,1.0415838E-1,2.4322556E-1,1.5867671E-2,2.9837224E-1,-4.4595163E-2,6.3322835E-2,-7.600073E-2],"split_indices":[1,6,0,2,6,7,7,6,0,0,3,0,1,1,7,0,0,0,0,0,0,0,0,0,0,0,0,0,0],"split_type":[0,0,0,0,0,0,0,0,0,0,0,0,0,0,0,0,0,0,0,0,0,0,0,0,0,0,0,0,0],