tree
version=v4
num_class=1
num_tree_per_iteration=1
label_index=0
max_feature_idx=7
objective=regression
feature_names=Column_0 Column_1 Column_2 Column_3 Column_4 Column_5 Column_6 Column_7
feature_infos=[0:1] [0:1] [0:1] [0:1] [0:1] [0:1] [0:1] [0:1]
tree_sizes=2632 2738 2727 2729 2737 2727 2732 2735 2738 2737 2737 2733 2747 2735 2727 2745 2737 2747 2736 2758 2746 2734 2755 2754 2756 2778 2753 2760 2765 2772 2765 2777 2753 2760 2772 2757 2773 2767 2763 2768 2776 2775 2766 2759 2774 2776 2772 2775 2775 2786 2794 2755 2772 2752 2779 2788 2789 2775 2768 2767 2769 2775 2764 2792 2804 2796 2783 2755 2799 2770 2796 2781 2788 2811 2793 2788 2815 2813 2778 2798 2803 2808 2799 2767 2789 2778 2808 2789 2820 2812 2792 2790 2784 2772 2785 2775 2803

Tree=0
num_leaves=31
num_cat=0
split_feature=1 4 1 0 1 7 0 0 2 4 0 1 1 4 4 0 1 1 1 6 6 4 0 3 3 4 0 0 3 0
split_gain=50069.8 11168.6 7934.95 3711.76 2654.87 1304.91 1167.15 1243.47 950.452 671.254 624.04 751.211 591.737 457.817 402.453 395.762 383.969 376.164 314.601 306.301 302.729 277.545 277.34 276.657 221.351 221.149 186.527 193.113 176.604 175.937
threshold=0.10907350868564726 0.64744311565649648 0.89335264726564712 0.92221507342442066 0.40878275071474462 0.43231644445184175 0.015413321882976902 0.90825912643301365 0.56547784496723508 0.94759571931196118 0.95006545636422168 0.40613615185352997 0.0052153296847397513 0.066225421273548316 0.81559389666814719 0.022567870860400054 0.25143020322199633 0.84702372727587416 0.54048572054149591 0.57067295695814446 0.74409136085913918 0.50174002432070008 0.98138222842446277 0.7528089887640449 0.86842948717948709 0.92523071812570967 0.0074449774138959013 0.88526609663681477 0.85925141242937852 0.83015332578545908
decision_type=2 2 2 2 2 2 2 2 2 2 2 2 2 2 2 2 2 2 2 2 2 2 2 2 2 2 2 2 2 2
left_child=12 8 4 9 16 6 -6 15 10 -4 11 13 -1 -2 -7 -8 20 21 -17 -16 28 -13 25 -14 -12 -9 -15 -28 -3 -18
right_child=1 2 3 -5 5 14 7 22 -10 -11 24 17 23 26 19 18 29 -19 -20 -21 -22 -23 -24 -25 -26 -27 27 -29 -30 -31
leaf_value=5.1192918359903539 5.2399927390116572 5.4262701870785675 6.0510958040929177 5.5949971116673094 5.4902625678632671 5.4856054765657785 5.6501496898901449 5.5820721378825482 5.630105898410938 6.3822144083820316 5.3274890971366142 5.3937052550037645 5.3492378957415916 5.27603172302838 5.5424048209620791 5.695319997884182 5.4413513150052149 5.6172084961047846 5.8810453050357943 5.7235894825322742 5.5528654581978705 5.5072256265899204 5.4769992880664793 5.1892507092987703 5.1995753826991908 5.7327724230645005 5.4798179985168964 5.3615047470828578 5.3016644204060341 5.5473436717104994
leaf_weight=1133 85 71 64 42 58 121 37 60 36 30 88 162 34 34 58 36 55 30 138 43 30 80 30 137 55 50 53 95 46 153
leaf_count=1133 85 71 64 42 58 121 37 60 36 30 88 162 34 34 58 36 55 30 138 43 30 80 30 137 55 50 53 95 46 153
internal_value=5.36939 5.53733 5.6358 5.99277 5.58599 5.6475 5.70061 5.73494 5.3833 6.16629 5.36991 5.39458 5.13247 5.33506 5.5486 5.81204 5.47619 5.45292 5.84468 5.62223 5.41394 5.43163 5.61645 5.22074 5.27743 5.6532 5.37995 5.40431 5.37709 5.51978
internal_weight=3144 1840 1122 136 986 631 409 351 718 94 682 539 1304 267 222 211 355 272 174 101 147 242 140 171 143 110 182 148 117 208
internal_count=3144 1840 1122 136 986 631 409 351 718 94 682 539 1304 267 222 211 355 272 174 101 147 242 140 171 143 110 182 148 117 208
is_linear=0
shrinkage=1


Tree=1
num_leaves=31
num_cat=0
split_feature=1 4 1 0 0 0 4 1 1 0 5 0 1 4 0 0 0 1 0 4 1 1 4 7 0 7 4 4 4 7
split_gain=44746.8 9428.33 5160.05 3868.67 1295.05 1167.59 1076.29 876.403 850.669 735.703 593.359 647.179 562.141 554.187 443.768 413.311 467.48 357.123 332.093 317.36 305.757 267.942 238.853 214.398 290.602 205.601 200.399 168.123 160.197 153.171
threshold=0.24439603519732869 0.7835918065157651 0.82380918331072372 0.10596067449295951 0.9429423505851936 0.010559598684537251 0.066225421273548316 0.61943538960614941 0.99969076792781786 0.89975879093205602 0.44684150871645006 0.94882782823249145 0.062287790723150056 0.51249630357753639 0.92221507342442066 0.015413321882976902 0.85457661015076336 0.46448129037002794 0.96679311887388353 0.88036968405664939 0.32796929370973971 0.7108381142556689 0.59818006356439446 0.47854765952605588 0.85457661015076336 0.51193105031053543 0.39712028222995033 0.45736385151319964 0.83511867096392967 0.73468810372612414
decision_type=2 2 2 2 2 2 2 2 2 2 2 2 2 2 2 2 2 2 2 2 2 2 2 2 2 2 2 2 2 2
left_child=3 6 5 12 8 -3 14 18 -4 22 11 13 26 25 17 -15 21 -2 20 -9 -7 -17 -5 24 -22 -8 -1 -11 -25 -13
right_child=1 2 4 9 -6 7 10 19 -10 27 -12 29 -14 15 -16 16 -18 -19 -20 -21 23 -23 -24 28 -26 -27 -28 -29 -30 -31
leaf_value=-0.24605968289931776 -0.098794748783111577 0.042519778109141697 0.51667694256799979 -0.025830200930229492 0.25300525330728102 0.12825136038123583 0.093753947053964337 0.22756772478637488 0.80149801492691042 -0.15606972287808146 0.20032825720452127 0.0054426937482573772 -0.12706993391116461 0.0059172821852068111 -0.18988648202756178 0.16920599717469442 0.117092531977396 0.099319135616331003 0.062692662892919596 0.38923263342900055 0.19201790131628516 0.35801251630594089 0.12983195336512576 0.09203430524829663 0.32907375627986463 -0.021477130523999223 -0.18760838112769984 -0.040469071214397752 0.24090312429082894 -0.11892928325105459
leaf_weight=993 44 66 81 35 30 60 64 45 49 55 104 109 134 47 45 41 159 45 32 147 63 40 80 32 130 95 194 74 47 31
leaf_count=993 44 66 81 35 30 60 64 45 49 55 104 109 134 47 45 41 159 45 32 147 63 40 80 32 130 95 194 74 47 31
internal_value=-0.00168941 0.183666 0.307918 -0.191897 0.56078 0.242077 0.0655173 0.265646 0.629331 -0.008933 0.0906854 0.0709185 -0.225659 0.100305 -0.0637916 0.141681 0.168133 0.00136574 0.218878 0.352718 0.233699 0.265673 0.0826422 0.256404 0.285556 0.0252013 -0.236673 -0.0905776 0.182506 -0.022745
internal_weight=3171 1606 782 1565 160 622 824 556 130 244 690 586 1321 446 134 287 240 89 364 192 332 81 115 272 193 159 1187 129 79 140
internal_count=3171 1606 782 1565 160 622 824 556 130 244 690 586 1321 446 134 287 240 89 364 192 332 81 115 272 193 159 1187 129 79 140
is_linear=0
shrinkage=0.05


Tree=2
num_leaves=31
num_cat=0
split_feature=1 4 1 1 1 4 5 4 3 1 1 4 6 5 6 4 3 6 1 4 4 2 3 4 7 3 1 1 1 1
split_gain=41691.3 8156.84 4943.43 3689.66 1027.87 1020.32 685.586 645.33 644.633 521.953 447.447 396.717 392.86 376.595 412.782 329.148 238.514 214.936 199.858 199.546 190.514 144.067 132.299 127.311 121.053 195.57 119.481 116.615 116.092 105.072
threshold=0.24439603519732869 0.80284848638977391 0.89870500772544692 0.062287790723150056 0.44382264064374816 0.50174002432070008 0.44684150871645006 0.94759571931196118 0.81522655426765023 0.43030365696214107 0.86509722074654849 0.39712028222995033 0.021460154367618303 0.20479794004789179 0.031746847250549805 0.57966600092016674 0.64436274509803926 0.54929628882370019 0.61943538960614941 0.62318815555752827 0.82402931434748494 0.025999292478508153 0.9501655629139073 0.87499199221375734 0.47854765952605588 0.79315476190476208 0.71984870319679428 0.15175665953757028 0.2996951820464353 0.47713271355280135
decision_type=2 2 2 2 2 2 2 2 2 2 2 2 2 2 2 2 2 2 2 2 2 2 2 2 2 2 2 2 2 2
left_child=3 5 4 11 17 6 10 -4 15 -7 22 -1 26 19 -15 -5 -8 -3 -14 -11 -10 -17 28 -20 25 -21 -6 -22 -2 -24
right_child=1 2 7 8 12 9 16 -9 20 13 -12 -13 18 14 -16 21 -18 -19 23 24 27 -23 29 -25 -26 -27 -28 -29 -30 -31
leaf_value=-0.2324350017518898 0.090241033211350449 0.12371814196080376 0.51118876053392881 -0.051995718618065623 0.31171789401473265 0.055784802899899469 0.27333883815445009 0.78704819681122906 -0.12842699908925331 0.056113894970246381 0.16256910922962267 -0.15554378212215336 0.17391136911038946 0.39012180613547875 0.16382001757551479 0.05489658023597617 0.075354603515006613 0.25242681937630879 0.20667404846141213 0.13166846089924758 -0.096657834057846392 0.18729008899160451 -0.11420493727380579 0.34168968237936498 0.12465697285352331 0.30451404249126263 0.40405035458053606 0.034157048254028752 -0.013337201291429146 -0.016979596465183745
leaf_weight=1008 31 146 74 58 180 150 31 39 135 61 36 212 81 35 52 65 31 43 37 38 30 30 54 51 98 32 65 37 174 57
leaf_count=1008 31 146 74 58 180 150 31 39 135 61 36 212 81 35 52 65 31 43 37 38 30 30 54 51 98 32 65 37 174 57
internal_value=0.0044891 0.184534 0.309742 -0.177957 0.252092 0.0824238 0.0252069 0.612466 -0.0359637 0.133093 -0.00197543 -0.219212 0.296314 0.169498 0.25826 0.0413079 0.177114 0.154176 0.234601 0.134801 -0.0944064 0.0982205 -0.0211747 0.287882 0.16287 0.21386 0.337757 -0.0249768 0.00268788 -0.0648758
internal_weight=3171 1596 716 1575 603 880 414 113 355 466 352 1220 414 316 87 153 62 189 169 229 202 95 316 88 168 70 245 67 205 111
internal_count=3171 1596 716 1575 603 880 414 113 355 466 352 1220 414 316 87 153 62 189 169 229 202 95 316 88 168 70 245 67 205 111
is_linear=0
shrinkage=0.05


Tree=3
num_leaves=31
num_cat=0
split_feature=1 4 1 0 0 4 1 0 0 1 0 0 0 1 0 1 5 6 0 4 7 1 0 0 0 0 7 4 1 4
split_gain=38532.6 7941.5 4903.2 3275.11 1979.16 1202.31 992.909 595.025 510.25 509.116 496.501 494.175 994.046 453.566 462.228 403.94 403.033 398.886 391.908 350.452 323.959 294.708 251.431 244.115 219.709 203.353 199.067 174.069 166.822 166.764
threshold=0.24439603519732869 0.78770052039111194 0.89335264726564712 0.10596067449295951 0.85347410308222904 0.53470850177361684 0.41596253378960324 0.8883487468237764 0.91296150461005576 0.024260344536967852 0.052089358914433261 0.021961490479915854 0.90825912643301365 0.39253183535047248 0.9493611228179587 0.81073557704256782 0.37621578021984364 0.71045237048121179 0.021961490479915854 0.88036968405664939 0.50946763219190094 0.69552242685542065 0.84030478993679047 0.020860127041789456 0.96943933582753006 0.85059692131770481 0.54398970907229405 0.98061163473078194 0.54386550689252611 0.12192851237679857
decision_type=2 2 2 2 2 2 2 2 2 2 2 2 2 2 2 2 2 2 2 2 2 2 2 2 2 2 2 2 2 2
left_child=3 5 6 9 10 8 22 -5 18 -1 -4 -8 20 -7 15 23 29 -9 -2 -14 27 25 -3 -15 -21 -20 -25 28 -13 -10
right_child=1 2 4 7 -6 13 11 17 16 -11 -12 12 19 14 -16 -17 -18 -19 21 24 -22 -23 -24 26 -26 -27 -28 -29 -30 -31
leaf_value=-0.21601356444430764 -0.017718837063501379 0.052358883306045427 0.5636277779288914 0.09908098455706843 0.247264316244317 0.039892677128171697 0.16640286717350439 -0.11613030467113411 -0.15511618245731701 -0.12372641862851433 0.84301996114237387 0.30770209521958325 0.11802260619348517 0.065156993071508157 0.050689489658301085 0.36183833267652626 0.093258257731795316 0.057443691130417085 -0.043402650749141521 0.31032621385641845 0.21226773242796623 0.20927329418435692 0.17706116262291161 0.26031631949978568 0.15901100248098377 0.10912347057072276 0.1381106679327786 0.27717933238018305 0.46186684823603691 -0.046909202520300654
leaf_weight=1159 100 65 45 88 34 103 95 107 54 177 42 32 67 45 71 32 39 47 32 82 30 49 111 71 39 65 71 31 106 105
leaf_count=1159 100 65 45 88 34 103 95 107 54 177 42 32 67 45 71 32 39 47 32 82 30 49 111 71 39 65 71 31 106 105
internal_value=0.00243731 0.173997 0.288794 -0.173252 0.580582 0.0669375 0.234337 -0.00397765 0.0104955 -0.203889 0.706554 0.271515 0.296822 0.130516 0.162455 0.198294 -0.0491127 -0.0631276 0.0584774 0.212397 0.37512 0.110432 0.131562 0.168532 0.263258 0.0588761 0.200607 0.40261 0.428589 -0.0843985
internal_weight=3194 1616 779 1578 121 837 658 242 444 1336 87 482 387 393 290 219 198 154 246 188 199 146 176 187 121 97 142 169 138 159
internal_count=3194 1616 779 1578 121 837 658 242 444 1336 87 482 387 393 290 219 198 154 246 188 199 146 176 187 121 97 142 169 138 159
is_linear=0
shrinkage=0.05


Tree=4
num_leaves=31
num_cat=0
split_feature=0 4 1 1 0 4 1 5 0 1 0 1 3 5 4 3 1 0 4 0 1 2 4 0 6 3 0 0 3 4
split_gain=34970.9 7687.73 3505.27 1591.98 1550.49 1484.91 1437.12 995.789 871.291 1020.38 663.919 652.957 392.199 381.426 363.861 334.078 323.758 381.537 309.399 248.507 224.564 287.566 210.306 179.067 176.047 174.221 165.931 191.129 179.657 157.977
threshold=0.0071052246477559004 0.81559389666814719 0.61943538960614941 0.10907350868564726 0.90215184744908761 0.50174002432070008 0.89870500772544692 0.37621578021984364 0.88151552754182738 0.84255293862044145 0.021961490479915854 0.32796929370973971 0.92678571428571432 0.2000409957425002 0.90133228623065198 0.90036764705882366 0.41363329423188416 0.9493611228179587 0.00082627907515685011 0.90215184744908761 0.5778304857693678 0.00023741475008330002 0.71461635979370408 0.96802993492415446 0.68716009130734179 0.7528089887640449 0.95622820342650605 0.76346147206262505 0.78929924242424254 0.45736385151319964
decision_type=2 2 2 2 2 2 2 2 2 2 2 2 2 2 2 2 2 2 2 2 2 2 2 2 2 2 2 2 2 2
left_child=3 5 11 29 6 7 10 16 9 20 -4 15 -8 24 -6 19 -2 18 -18 -3 21 -7 -5 -16 -10 -22 27 -13 -29 -1
right_child=1 2 4 22 14 8 12 -9 13 -11 -12 26 -14 -15 23 -17 17 -19 -20 -21 25 -23 -24 -25 -26 -27 -28 28 -30 -31
leaf_value=-0.20984913688258267 -0.084237962709488093 0.19883823142501347 0.16012712207739244 -0.091865970258430782 0.12299147088556213 0.035991444338613482 0.52752717481719125 0.15363596456923656 -0.0088967621771257315 0.4616280355280446 0.42626201337793979 0.1604073592179798 0.80326323721467741 0.1401977764840826 0.38701757686464372 -0.035354111428091001 0.16714866453160843 -0.087393010484233299 0.0060693134249259649 0.030077246516137513 0.13580053750839499 0.19306726199135466 0.017792019155998547 0.20772007790304003 0.082206384441815328 0.29971779509732083 0.10466915533849688 0.17047598427756039 0.2939082034344434 -0.15853300188116881
leaf_weight=1061 184 56 31 92 46 66 44 83 133 30 122 75 30 113 36 42 41 72 103 36 35 52 82 30 87 35 32 46 121 195
leaf_count=1061 184 56 31 92 46 66 44 83 133 30 122 75 30 113 36 42 41 72 103 36 35 52 82 30 87 35 32 46 121 195
internal_value=0.00168934 0.149509 0.271623 -0.182389 0.390393 0.0611119 0.465764 -0.00290669 0.117133 0.194672 0.373729 0.172226 0.648532 0.0659417 0.234863 0.0809364 -0.0356914 0.00586066 0.0527686 0.133835 0.149855 0.106252 -0.0403817 0.309835 0.0273393 0.220826 0.216415 0.2307 0.261126 -0.202015
internal_weight=3211 1781 747 1430 339 1034 227 483 551 218 153 408 74 333 112 134 400 216 144 92 188 118 174 66 220 70 274 242 167 1256
internal_count=3211 1781 747 1430 339 1034 227 483 551 218 153 408 74 333 112 134 400 216 144 92 188 118 174 66 220 70 274 242 167 1256
is_linear=0
shrinkage=0.05


Tree=5
num_leaves=31
num_cat=0
split_feature=0 4 1 0 1 0 1 1 0 3 4 1 5 1 4 1 0 0 0 0 0 7 4 5 4 7 1 4 4 4
split_gain=31384.8 6887.32 3578.77 1370.91 1850.55 1266.51 1609.06 1252.86 866.989 802.052 724.539 531.32 356.114 277.902 308.385 276.269 250.306 340.962 212.676 209.419 284.737 194.801 184.923 162.644 162.374 160.015 197.48 151.303 145.112 141.217
threshold=0.0071052246477559004 0.81559389666814719 0.61943538960614941 0.90580939282654283 0.83325856577112778 0.93339219138710294 0.97500092195106858 0.10595053138804891 0.021961490479915854 0.95437196391394885 0.2918733732124712 0.27880858000137759 0.37621578021984364 0.5778304857693678 0.48495562605315329 0.47713271355280135 0.95622820342650605 0.80526582232555755 0.90215184744908761 0.045030638871531657 0.034062811540129807 0.47854765952605588 0.86531240442697721 0.39150324699368266 0.85226937694312666 0.71224073635879248 0.21366424436624779 0.98466540858299123 0.90972551599302276 0.45736385151319964
decision_type=2 2 2 2 2 2 2 2 2 2 2 2 2 2 2 2 2 2 2 2 2 2 2 2 2 2 2 2 2 2
left_child=7 3 11 4 9 6 8 29 -4 13 -5 18 25 23 -15 -11 17 -13 -3 20 -10 -16 -9 -2 -19 26 -12 28 -26 -1
right_child=1 2 5 10 -6 -7 -8 22 19 15 12 16 -14 14 21 -17 -18 24 -20 -21 -22 -23 -24 -25 27 -27 -28 -29 -30 -31
leaf_value=-0.19906140739649114 0.066143775785514933 0.11089641932855572 0.12717766744249009 -0.097890466043506486 0.39050958428870547 0.20067319539972606 0.67669265025428371 -0.082948058328474877 0.37454383431040511 -0.14882887641271189 -0.088865385529014379 0.1077243144856766 0.13090177441982528 0.05437120608985424 0.31775497714253631 0.040930283963680272 0.054781224262533769 0.13106837477002825 -0.044714279120994939 0.34097328957562389 0.58169037126577816 0.15103643376380205 0.02768444226951235 0.16432286045461331 0.22208804273977878 -0.059977024133437341 0.045900967068155302 0.1490273985429667 0.33267466288266911 -0.14955837517020537
leaf_weight=1064 225 56 33 135 54 77 55 127 48 42 30 71 78 35 37 34 32 34 35 75 38 39 53 52 71 61 223 31 71 186
leaf_count=1064 225 56 33 135 54 77 55 127 48 42 30 71 78 35 37 34 32 34 35 75 38 39 53 52 71 61 223 31 71 186
internal_value=0.000120756 0.140709 0.258789 0.0583926 0.116073 0.381724 0.436685 -0.174067 0.365521 0.0833635 0.00158438 0.158146 0.0360042 0.112419 0.179228 -0.0645076 0.18927 0.204499 0.0512107 0.413287 0.471708 0.235275 -0.0504 0.0850993 0.237015 0.0120902 0.0296338 0.256964 0.279321 -0.191821
internal_weight=3202 1772 727 1045 518 326 249 1430 194 464 527 401 392 388 111 76 310 278 91 161 86 76 180 277 207 314 253 173 142 1250
internal_count=3202 1772 727 1045 518 326 249 1430 194 464 527 401 392 388 111 76 310 278 91 161 86 76 180 277 207 314 253 173 142 1250
is_linear=0
shrinkage=0.05


Tree=6
num_leaves=31
num_cat=0
split_feature=1 4 1 0 0 4 1 1 0 1 4 2 0 0 0 1 3 0 0 1 7 1 0 4 1 0 0 6 0 0
split_gain=28904.1 5924.95 3427.82 2089.85 1346.63 1127.76 1123 776.73 741.73 605.955 595.793 581.955 353.921 316.756 302.264 354.73 283.165 266.599 240.729 233.634 402.136 190.955 180.291 176.867 158.71 157.322 154.095 135.152 130.322 125.28
threshold=0.18866678352400015 0.81559389666814719 0.70194716070774421 0.84194722654855325 0.10596067449295951 0.60242014741276351 0.97500092195106858 0.91146595359677096 0.011101952358362302 0.33492489078333665 0.90515961998951766 0.59725904257865225 0.8883487468237764 0.034062811540129807 0.94018601294461523 0.81073557704256782 0.7696153846153847 0.042644016697650257 0.96679311887388353 0.54386550689252611 0.47854765952605588 1.0000000180025095e-35 0.013876252840309052 0.40496976667556633 0.09088830523426801 0.016703575998648454 0.021476262904326353 0.19036829980629008 0.9077033211872213 0.90825912643301365
decision_type=2 2 2 2 2 2 2 2 2 2 2 2 2 2 2 2 2 2 2 2 2 2 2 2 2 2 2 2 2 2
left_child=4 5 8 6 21 11 13 19 -3 -10 -5 14 24 -4 15 22 -16 -15 25 26 28 -1 -2 -24 -6 -11 -7 -25 -21 -27
right_child=1 2 3 10 12 7 -8 -9 9 18 -12 -13 -14 17 16 -17 -18 -19 -20 20 -22 -23 23 27 -26 29 -28 -29 -30 -31
leaf_value=-0.18922707990571752 -0.049907569536253027 0.015313159433049214 0.2817406466378915 0.043452556029354272 -0.026661541192762313 -0.02414531521499157 0.68535432737124591 0.34249350534131134 0.081071094387784759 0.13485552111847535 0.30245251748710872 0.20990211871053491 -0.09087178623303771 0.57982797541401598 0.024953950382769111 0.17815826890223169 -0.10914148582090247 0.34428108543638264 0.10693889237230732 0.28119924941912611 0.067361879097409996 -0.1330144285347569 -0.0077948871082153875 0.16177248345179993 0.12556058311691651 0.28731521015035943 0.084481576030886685 0.041748651192891735 0.13913965924012084 0.20916926468948949
leaf_weight=1107 94 70 43 37 30 39 56 35 98 35 56 34 91 32 64 33 100 30 41 46 82 188 137 32 38 142 188 85 30 108
leaf_count=1107 94 70 43 37 30 39 56 35 98 35 56 34 91 32 64 33 100 30 41 46 82 188 137 32 38 142 188 85 30 108
internal_value=0.000305433 0.13734 0.243665 0.392784 -0.164325 0.0575663 0.501659 0.119838 0.166354 0.191195 0.200968 0.0122666 -0.0268116 0.398147 -0.000424798 0.0240035 -0.0569775 0.473128 0.22395 0.0987615 0.145413 -0.181175 0.0089168 0.0307968 0.0589907 0.240351 0.0657948 0.0756684 0.227658 0.254524
internal_weight=3201 1747 748 254 1454 999 161 420 494 424 93 579 159 105 545 381 164 62 326 385 158 1295 348 254 68 285 227 117 76 250
internal_count=3201 1747 748 254 1454 999 161 420 494 424 93 579 159 105 545 381 164 62 326 385 158 1295 348 254 68 285 227 117 76 250
is_linear=0
shrinkage=0.05


Tree=7
num_leaves=31
num_cat=0
split_feature=1 4 1 1 0 0 0 1 0 1 3 3 1 4 0 6 5 6 4 0 4 0 0 0 4 0 0 6 4 1
split_gain=25431.3 4639.2 2484.22 1834.11 1107.32 984.354 1028.86 872.267 593.285 447.024 426.306 416.49 388.79 376.254 311.833 298.348 224.738 206.952 205.221 164.977 229.35 147.724 140.985 193.008 137.702 174.94 135.088 128.812 123.095 115.366
threshold=0.27449897492227926 0.81559389666814719 0.067439612694859763 0.82380918331072372 0.85347410308222904 0.91092220381251698 0.018021277172456853 0.83325856577112778 0.012551640948888252 0.89870500772544692 0.91106321839080462 0.71715686274509816 0.50424085392838347 0.18497085551646322 0.97092074105472748 0.40922872708484731 0.46399712929510489 0.76801967322421594 0.57966600092016674 0.0066312726790976511 0.53470850177361684 0.96679311887388353 0.92985514996194485 0.84835012816998701 0.87499199221375734 0.020388746065812601 0.87376184325839945 0.49648398292306734 0.39712028222995033 0.45271008800744406
decision_type=2 2 2 2 2 2 2 2 2 2 2 2 2 2 2 2 2 2 2 2 2 2 2 2 2 2 2 2 2 2
left_child=2 5 28 8 9 6 19 13 -3 -5 16 18 27 -8 24 29 21 22 -4 -2 -21 -7 23 -13 -14 -26 -27 -10 -1 -15
right_child=1 3 11 4 -6 10 7 -9 12 -11 -12 17 14 15 -16 -17 -18 -19 -20 20 -22 -23 -24 -25 25 26 -28 -29 -30 -31
leaf_value=-0.18088507973209977 -0.082577821446789643 0.04702326861805603 -0.026058179675004425 0.33135796113130755 0.19094669449329377 0.039091831860383355 -0.011963203142989766 0.34106798015667927 0.12428370695064975 0.56472620709854016 -0.12053153972540583 -0.095249117921582235 0.19144116102383946 0.12832925387404182 0.11170284179480452 0.10054236105932245 0.12867768572953839 0.055192009732127192 0.12445327829230915 -0.0378704371063837 0.1236573831178248 -0.03524836039188195 -0.1598928440362215 -0.0030340365516429903 0.17052043957078389 0.35870811625447296 0.2578797325477879 0.21605955401976265 -0.13731215332829677 0.25000460311822909
leaf_weight=1031 44 60 38 38 49 180 43 55 121 67 55 138 52 32 37 144 47 35 54 48 39 105 39 96 30 87 82 61 214 70
leaf_count=1031 44 60 38 38 49 180 43 55 121 67 55 138 52 32 37 144 47 35 54 48 39 105 39 96 30 87 82 61 214 70
internal_value=-0.00190654 0.143648 -0.138706 0.240797 0.39272 0.0663708 0.114521 0.159818 0.195997 0.484192 0.00712902 -0.0302096 0.214874 0.124267 0.251376 0.148032 0.028576 -0.0580671 0.0626738 -0.00473756 0.035121 0.0116759 -0.0727359 -0.0575912 0.27144 0.291282 0.31159 0.156056 -0.173512 0.213448
internal_weight=3191 1546 1645 684 154 862 475 344 530 105 387 400 470 289 288 246 332 308 92 131 87 285 273 234 251 199 169 182 1245 102
internal_count=3191 1546 1645 684 154 862 475 344 530 105 387 400 470 289 288 246 332 308 92 131 87 285 273 234 251 199 169 182 1245 102
is_linear=0
shrinkage=0.05


Tree=8
num_leaves=31
num_cat=0
split_feature=1 4 1 1 0 0 0 1 3 0 0 1 7 4 3 0 4 0 0 4 7 4 4 2 4 0 0 4 7 0
split_gain=23226.6 4699.53 2498.45 2003.9 1417.1 839.481 867.825 751.678 576.053 570.857 821.963 541.69 494.106 463.75 408.085 276.386 220.418 211.625 372.38 170.007 169.844 166.028 191.756 158.037 156.991 167.615 130.837 153.849 108.585 116.166
threshold=0.25143020322199633 0.80284848638977391 0.89335264726564712 0.062287790723150056 0.85347410308222904 0.90869425093746015 0.018021277172456853 0.69552242685542065 0.92678571428571432 0.021961490479915854 0.90825912643301365 0.54386550689252611 0.49451834611200879 0.32398504326384309 0.91106321839080462 0.10596067449295951 0.39712028222995033 0.10596067449295951 0.8883487468237764 0.5508290111945906 0.38037542945745967 0.96848477735341876 0.9203330985704915 0.40192742370744478 0.98969024092407276 0.0071052246477559004 0.0066312726790976511 0.53470850177361684 0.53754121571244051 0.87839820543000624
decision_type=2 2 2 2 2 2 2 2 2 2 2 2 2 2 2 2 2 2 2 2 2 2 2 2 2 2 2 2 2 2
left_child=3 5 9 16 8 6 26 15 -4 24 11 -11 -9 -5 19 -8 -1 -15 -19 -7 21 22 -13 28 25 -3 -2 -28 29 -17
right_child=1 2 4 13 -6 14 7 12 -10 10 -12 20 -14 17 -16 23 -18 18 -20 -21 -22 -23 -24 -25 -26 -27 27 -29 -30 -31
leaf_value=-0.17411699495023641 -0.070545432180166248 -0.025341027166162218 0.42914966672150928 -0.11241106483302697 0.16338257235097323 -0.015344309171962535 -0.0048347550525999908 0.36215794754197017 0.72171742748469114 0.17930258593365256 0.14329982000312824 0.30014841864920327 0.14074772147918649 -0.068560931431268582 -0.11936516080827764 0.21177475176977389 -0.11719120617231563 0.12396941154729575 -0.021620449453460436 0.05541432966322949 0.22506070379167797 0.26057522438074415 0.47758992311168225 0.21714208115720088 0.19370110426098108 0.1067920364631057 -0.023894361895932394 0.10707993264261045 0.055283574769763567 0.077422493220203448
leaf_weight=1023 49 34 54 118 36 160 56 52 31 100 244 35 52 66 59 32 215 71 112 179 36 37 46 35 31 78 54 37 75 35
leaf_count=1023 49 34 54 118 36 160 56 52 31 100 244 35 52 66 59 32 215 71 112 179 36 37 46 35 31 78 54 37 75 35
internal_value=0.00118297 0.133659 0.224365 -0.133933 0.432322 0.0545008 0.0991641 0.142523 0.543002 0.184497 0.209818 0.272905 0.253848 -0.0312169 0.000857734 0.0919609 -0.164333 0.00755642 0.035232 0.022071 0.332137 0.362638 0.405513 0.122441 0.0954727 0.0668109 -0.00547818 0.029944 0.0977436 0.143761
internal_weight=3242 1637 762 1605 121 875 477 337 85 641 498 254 104 367 398 233 1238 249 183 339 154 118 81 177 143 112 140 91 142 67
internal_count=3242 1637 762 1605 121 875 477 337 85 641 498 254 104 367 398 233 1238 249 183 339 154 118 81 177 143 112 140 91 142 67
is_linear=0
shrinkage=0.05


Tree=9
num_leaves=31
num_cat=0
split_feature=1 4 1 1 1 4 4 6 2 4 7 1 4 1 3 3 6 1 3 4 4 7 6 1 4 6 6 7 4 1
split_gain=21466.5 4529.36 2309.92 1935.8 709.411 689.653 459.335 443.892 434.591 317.298 282.633 299.003 279.77 266.479 233.331 216.078 218.469 195.47 164.795 125.083 121.172 109.265 173.709 87.5662 85.9322 83.4547 75.2009 73.0284 71.1945 64.1393
threshold=0.24439603519732869 0.81559389666814719 0.89335264726564712 0.062287790723150056 0.41596253378960324 0.50174002432070008 0.94759571931196118 0.76358048720781768 0.56547784496723508 0.9402985890759229 0.47854765952605588 0.35217778561004326 0.6102388955339868 0.86509722074654849 0.89529220779220775 0.74039855072463767 0.24367966781477404 0.5778304857693678 0.78929924242424254 0.047148518359508208 0.75178229226343685 0.46152150482782434 0.599785534351987 0.50424085392838347 0.89116574623876665 0.63843221952816231 0.91231190744302626 0.73111211887979588 0.66924340114869951 0.74495181517439213
decision_type=2 2 2 2 2 2 2 2 2 2 2 2 2 2 2 2 2 2 2 2 2 2 2 2 2 2 2 2 2 2
left_child=3 5 4 20 -3 8 -4 15 13 21 11 -7 -13 19 -11 16 -5 -14 -19 -2 -1 23 -23 -6 -17 -12 -27 -21 -9 -16
right_child=1 2 6 7 9 10 -8 28 -10 14 25 12 17 -15 29 24 -18 18 -20 27 -22 22 -24 -25 -26 26 -28 -29 -30 -31
leaf_value=-0.1630329019392566 -0.059656619704049875 0.089644379204966956 0.35014847437185903 0.11332302407051127 0.13497228588731516 -0.0029106681700795892 0.57768003437213788 0.043152436160016808 0.18838270745472985 0.375771100954576 0.036717905883565015 0.047889044499468236 0.12851308079149862 0.11584208572416432 0.25542045770833893 -0.092910167660303189 -0.067902933181293548 0.17326969740435827 0.32439573466777805 0.016916576195315221 -0.10921004128657164 0.071972178674947762 0.21890808468418463 0.22488854110555845 -0.02079695709499306 0.12042622981571603 0.043209174113734712 -0.053818447987238574 0.15228025134532686 0.16172879608348012
leaf_weight=1108 116 143 69 35 41 31 40 31 31 43 140 41 64 41 104 156 30 42 39 192 125 51 34 138 57 86 52 44 30 31
leaf_count=1108 116 143 69 35 41 31 40 31 31 43 140 41 64 41 104 156 30 42 39 192 125 51 34 138 57 86 52 44 30 31
internal_value=0.00285107 0.130957 0.227288 -0.128596 0.187321 0.0580426 0.438139 -0.0226968 0.0111926 0.218648 0.0980693 0.140816 0.164658 -0.00322687 0.271108 -0.0495286 0.0299188 0.197122 0.249103 -0.0173846 -0.157669 0.182387 0.132609 0.205157 -0.0737996 0.0643168 0.0918501 0.00355725 0.0984124 0.235253
internal_weight=3185 1613 694 1572 585 919 109 339 424 442 495 217 186 393 178 278 65 145 81 352 1233 264 85 179 213 278 138 236 61 135
internal_count=3185 1613 694 1572 585 919 109 339 424 442 495 217 186 393 178 278 65 145 81 352 1233 264 85 179 213 278 138 236 61 135
is_linear=0
shrinkage=0.05


Tree=10
num_leaves=31
num_cat=0
split_feature=1 4 1 1 4 5 4 1 1 6 3 7 6 7 1 4 2 1 6 4 2 6 3 1 1 1 7 3 5 7
split_gain=18993.4 3725.32 2854.6 1402.48 666.337 605.307 572.59 554.227 232.218 212.374 210.934 163.863 159.041 134.229 150.387 155.82 129.255 119.037 132.388 118.376 116.206 101.146 94.3437 86.2501 152.646 81.5935 77.2063 74.509 63.1823 114.928
threshold=0.10907350868564726 0.6102388955339868 0.99969076792781786 0.40613615185352997 0.88036968405664939 0.37796661151995109 0.91437891044240105 0.61943538960614941 0.45271008800744406 0.69879304627493311 0.67678571428571432 0.47854765952605588 0.62292080555697138 0.71110248692255007 0.85848036282371043 0.17469799123118748 0.56547784496723508 0.27880858000137759 0.2776541148414407 0.42429768866747836 0.21544016697105814 0.77068222419206678 0.85925141242937852 0.81748676678199172 0.76385325967176765 0.010163456905359003 0.43587599101350893 0.85822072072072064 0.16575600061905418 0.45103185434304333
decision_type=2 2 2 2 2 2 2 2 2 2 2 2 2 2 2 2 2 2 2 2 2 2 2 2 2 2 2 2 2 2
left_child=10 5 3 9 11 8 -4 26 -2 17 -1 20 -13 14 15 -10 19 18 22 -7 27 -14 -3 24 -9 -12 -6 -5 29 -17
right_child=1 2 6 4 7 16 -8 23 13 -11 25 12 21 -15 -16 28 -18 -19 -20 -21 -22 -23 -24 -25 -26 -27 -28 -29 -30 -31
leaf_value=-0.037209071218967438 -0.048568314274864827 0.066269918824317028 0.28565197110817792 0.10964456596366555 0.16460705066936604 -0.0018180147511884571 0.56170252656394781 0.2732189705779961 -0.041053261005678604 0.11911121412150322 -0.15538328284282021 0.048591513352878736 0.2105768187027989 -0.05177197647199297 0.12942512328071254 -0.038555532012666982 0.19737022249929367 0.062022591172120514 -0.087576625967288727 0.12112925263859753 0.23545171358646494 0.092450978772831149 -0.0292999543580744 0.3231807525455952 0.14153576728069422 -0.11314922113206004 0.073652462207246569 0.1945807836376704 0.11314924494363368 0.084972891138821116
leaf_weight=43 283 60 40 102 137 31 43 110 71 92 1142 108 32 56 34 34 30 155 33 52 38 47 44 69 32 142 31 38 31 40
leaf_count=43 283 60 40 102 137 31 43 110 71 92 1142 108 32 56 34 34 30 155 33 52 38 47 44 69 32 142 31 38 31 40
internal_value=-0.00249567 0.100017 0.152118 0.131037 0.171062 0.00462294 0.43365 0.217614 -0.0171184 0.0532448 -0.147154 0.122262 0.0887402 0.016398 0.0347359 0.0158157 0.109475 0.0321566 -0.00183796 0.0757342 0.156786 0.142334 0.0259425 0.271795 0.244741 -0.150804 0.148359 0.133915 0.0542945 0.0284593
internal_weight=3200 1873 1211 1128 744 662 83 379 549 384 1327 365 187 266 210 176 113 292 137 83 178 79 104 211 142 1284 168 140 105 74
internal_count=3200 1873 1211 1128 744 662 83 379 549 384 1327 365 187 266 210 176 113 292 137 83 178 79 104 211 142 1284 168 140 105 74
is_linear=0
shrinkage=0.05


Tree=11
num_leaves=31
num_cat=0
split_feature=1 4 1 1 5 6 7 1 1 6 4 1 6 6 3 3 1 1 6 2 4 1 1 6 3 1 7 4 4 4
split_gain=17713.1 4002.39 1954.4 813.775 709.384 648.086 522.236 493.43 473.135 389.575 365.925 349.666 158.273 157.914 177.539 156.256 155.987 155.766 135.408 127.299 121.747 104.95 122.356 81.2434 80.5184 79.7575 139.619 161.865 120.243 74.5476
threshold=0.19165927612390957 0.81208563672350387 0.69182822540579769 0.024260344536967852 0.2000409957425002 0.18865598527769264 0.27142941502221402 0.99055195831557497 0.33492489078333665 0.72150934585237159 0.71792135646823574 0.55161515693952612 0.54469980329003442 0.26266518774601061 0.81522655426765023 0.74039855072463767 0.43030365696214107 0.67007141797982328 0.68204287707257938 0.098177777351937168 0.6137831609895007 0.3045879132420905 0.24439603519732869 0.61614369322430751 0.90036764705882366 0.40878275071474462 0.47854765952605588 0.87499199221375734 0.95738102766467625 0.75705511190944785
decision_type=2 2 2 2 2 2 2 2 2 2 2 2 2 2 2 2 2 2 2 2 2 2 2 2 2 2 2 2 2 2
left_child=3 4 8 20 10 7 11 -4 24 13 16 -6 -7 14 -5 -10 21 29 -8 -18 -1 22 -2 -23 -3 -17 27 -27 -29 -12
right_child=1 2 5 9 6 12 18 -9 15 -11 17 -13 -14 -15 -16 25 19 -19 -20 -21 -22 23 -24 -25 -26 26 -28 28 -30 -31
leaf_value=-0.1488594989875289 -0.061062040058679358 0.079360597496852286 0.29648364944915689 0.035154870444017911 0.11134406309574843 0.1104158066544268 0.02078530708923168 0.47623063027858736 0.075629331541004707 0.084313919702949741 0.10152575279275576 0.31125744327225469 0.2627331227064133 -0.14290448496088623 -0.078099123818370017 0.12223553413284882 0.028540100619642877 0.16435457362338557 0.107181148569303 -0.075263169340111999 -0.098212115057847577 -0.10006104758695554 0.05293927308745109 -0.010228055825409218 -0.0066600976777928221 0.10718283914029599 0.10303431163693584 0.26145412214100361 0.17122801246457839 0.018223446113583838
leaf_weight=1047 42 79 139 45 47 44 96 59 45 45 44 43 30 62 142 61 283 42 86 32 143 75 51 38 41 37 42 107 71 68
leaf_count=1047 42 79 139 45 47 44 96 59 45 45 44 43 30 62 142 61 283 42 86 32 143 75 51 38 41 37 42 107 71 68
internal_value=0.00175309 0.111809 0.197607 -0.12446 0.0432695 0.304744 0.111285 0.352169 0.136768 -0.0497478 0.0157377 0.209229 0.174846 -0.0742161 -0.0508035 0.165183 -0.00431926 0.0831827 0.0619723 0.0177902 -0.142861 -0.03805 0.00135292 -0.0702064 0.050158 0.177578 0.190189 0.206659 0.226623 0.0515582
internal_weight=3186 1702 755 1484 947 272 272 198 483 294 675 90 74 249 187 363 521 154 182 315 1190 206 93 113 120 318 257 215 178 112
internal_count=3186 1702 755 1484 947 272 272 198 483 294 675 90 74 249 187 363 521 154 182 315 1190 206 93 113 120 318 257 215 178 112
is_linear=0
shrinkage=0.05


Tree=12
num_leaves=31
num_cat=0
split_feature=0 4 1 4 0 0 1 1 1 1 5 5 1 0 3 0 0 3 6 1 1 0 0 0 0 0 6 0 4 4
split_gain=15184.1 3629.53 1438.67 939.82 906.481 669.262 681.449 594.374 496.884 462.773 408.109 379.999 286.55 286.211 239.812 190.666 186.924 206.848 182.394 207.143 169.493 169.175 161.931 145.247 525.548 143.36 180.56 133.445 99.7751 96.9266
threshold=0.0071052246477559004 0.81208563672350387 0.69182822540579769 0.50174002432070008 0.95006545636422168 0.88151552754182738 0.82749041132023915 0.97500092195106858 0.11335223633971281 0.33492489078333665 0.17644378212458753 0.35957173182185648 0.85848036282371043 0.96679311887388353 0.90036764705882366 0.92548262130760783 0.022567870860400054 0.78929924242424254 0.68716009130734179 0.35217778561004326 0.12002802373469741 0.9493611228179587 0.87257897261450845 0.034062811540129807 0.045030638871531657 0.97749130148395891 0.051259851328414159 0.89024860435467534 0.0047160879040457513 0.69537853680822626
decision_type=2 2 2 2 2 2 2 2 2 2 2 2 2 2 2 2 2 2 2 2 2 2 2 2 2 2 2 2 2 2
left_child=8 3 9 11 7 6 10 23 -1 14 29 12 15 16 27 20 -11 -18 19 -7 -2 -20 -19 -4 -25 26 -21 -3 -22 -5
right_child=1 2 4 5 -6 18 -8 -9 -10 13 -12 -13 -14 -15 -16 -17 17 22 21 25 28 -23 -24 24 -26 -27 -28 -29 -30 -31
leaf_value=-0.13398361735925077 -0.12464134462177755 0.15374623086789382 0.19277846006533275 0.0012177834287285805 0.0796799262263337 -0.068361737188552651 0.36891947816456522 0.46712719915942719 -0.04459268410172728 0.10715652836056858 0.22684209604609618 0.077248167074965624 0.10616211835294963 0.030447855114172667 -0.058278811889121665 -0.1002517726467622 0.11862719703524832 0.31006605811417104 0.1229998778352439 0.14542024352369792 -0.057810964913017328 -0.0057245013429909142 0.19476335464999819 0.46185235207279524 0.21745178852339878 -0.03260438862316152 0.012794835043364559 0.036931395541707226 0.018638586000043113 0.094495802229932077
leaf_weight=1249 34 45 51 44 48 61 30 54 179 77 53 88 31 38 36 123 62 47 86 46 61 36 120 35 67 46 57 54 136 75
leaf_count=1249 34 45 51 44 48 61 30 54 179 77 53 88 31 38 36 123 62 47 86 46 61 36 120 35 67 46 57 54 136 75
internal_value=-0.00201595 0.0970813 0.181565 0.0353824 0.277477 0.0807807 0.152327 0.32274 -0.122817 0.130033 0.112636 -0.0159329 -0.0373764 0.160779 0.0510826 -0.0502097 0.176812 0.199665 0.0369225 0.00855933 -0.0232467 0.0852779 0.228866 0.269077 0.304985 0.0402963 0.0728543 0.0910355 -0.00520603 0.060304
internal_weight=3169 1741 734 1007 255 534 202 207 1428 479 172 473 385 344 135 354 306 229 332 210 231 122 167 153 102 149 103 99 197 119
internal_count=3169 1741 734 1007 255 534 202 207 1428 479 172 473 385 344 135 354 306 229 332 210 231 122 167 153 102 149 103 99 197 119
is_linear=0
shrinkage=0.05


Tree=13
num_leaves=31
num_cat=0
split_feature=0 4 1 0 0 1 7 3 1 4 1 0 3 0 1 5 3 3 0 0 0 6 7 1 4 0 5 4 4 1
split_gain=13629.8 3327.38 1667.54 869.17 866.614 1222.3 725.148 656.749 572.655 440.944 429.322 415.295 408.863 407.304 241.565 231.739 200.573 194.226 191.934 194.94 188.596 178.828 181.749 136.834 134.211 124.611 136.733 108.496 305.967 108.459
threshold=0.0071052246477559004 0.85226937694312666 0.81748676678199172 0.90457622575408569 0.90580939282654283 0.82749041132023915 0.39097695343737088 0.97775974025974011 0.11335223633971281 0.18497085551646322 0.32796929370973971 0.96943933582753006 0.91106321839080462 0.021961490479915854 0.4496088830021327 0.19377926616593452 0.78929924242424254 0.90036764705882366 0.10596067449295951 0.86261949716536168 0.93475416261208732 0.55416142946989144 0.6538389648820927 0.19165927612390957 0.70948031025607905 0.92891070995092229 0.28430654987399356 0.95738102766467625 0.9402985890759229 0.36606471937537449
decision_type=2 2 2 2 2 2 2 2 2 2 2 2 2 2 2 2 2 2 2 2 2 2 2 2 2 2 2 2 2 2
left_child=8 4 10 7 5 9 -7 -4 -1 29 17 13 21 -12 18 24 -15 -3 -11 -20 -14 25 -23 -21 -16 -6 -27 28 -18 -2
right_child=1 2 3 -5 12 6 -8 -9 -10 14 11 -13 20 16 15 -17 27 -19 19 23 -22 22 -24 -25 -26 26 -28 -29 -30 -31
leaf_value=-0.12589196882096351 -0.10856320444080565 0.10025495621375741 0.32163626584105004 0.10917020387509291 0.043088463749498061 0.44553063567461715 0.10592953146946045 0.60693263767227057 -0.028771195802623512 -0.063160549657685416 0.077195533543780503 0.016806738009286483 -0.001281072896334433 0.12119525945130386 0.04350930737492479 0.20828739965467583 0.21267743930030539 -0.043991780993402813 0.1424840631229537 -0.051420529392497562 -0.15717291365970265 0.080332788184738935 -0.0094314644816848973 0.063517226715540068 0.14423325282746349 -0.059103857879962432 0.040518756825274421 0.18215511925040911 0.38717462702801358 0.0038302670815028254
leaf_weight=1278 35 63 77 33 71 34 30 30 173 34 72 42 30 52 80 55 97 36 55 36 54 152 89 86 57 138 45 77 37 53
leaf_count=1278 35 63 77 33 71 34 30 30 173 34 72 42 30 52 80 55 97 36 55 36 54 152 89 86 57 138 45 77 37 53
internal_value=-0.00107565 0.0928485 0.1863 0.33769 0.0419651 0.0865499 0.290421 0.406505 -0.11434 0.0594398 0.141159 0.165461 -0.000847143 0.183993 0.081549 0.122041 0.212828 0.0478862 0.0443015 0.0651828 -0.102167 0.0165179 0.0472813 0.0294589 0.0861578 -0.012742 -0.0345194 0.234732 0.263371 -0.0415892
internal_weight=3201 1750 616 140 1134 555 64 107 1451 491 476 377 579 335 403 192 263 99 211 177 84 495 241 122 137 254 183 211 134 88
internal_count=3201 1750 616 140 1134 555 64 107 1451 491 476 377 579 335 403 192 263 99 211 177 84 495 241 122 137 254 183 211 134 88
is_linear=0
shrinkage=0.05


Tree=14
num_leaves=31
num_cat=0
split_feature=0 4 1 0 0 0 1 3 1 4 1 1 4 5 4 1 3 5 3 6 0 0 0 6 1 6 3 0 7 3
split_gain=13185.3 3289.26 1461.52 975.096 855.875 833.039 783.962 710.64 535.606 481.015 360.731 342.132 289.152 226.221 224.6 207.856 238.744 187.472 160.916 147.992 174.605 216.874 141.985 133.697 129.65 114.952 101.222 99.1694 94.8575 93.6507
threshold=0.0071052246477559004 0.81559389666814719 0.61943538960614941 0.90215184744908761 0.020388746065812601 0.90713140163485062 0.91146595359677096 0.93357843137254903 0.99969076792781786 0.90515961998951766 0.5335012948315544 0.10907350868564726 0.5508290111945906 0.2000409957425002 0.62779109060985927 0.33492489078333665 0.90036764705882366 0.28060142013351691 0.90036764705882366 0.65874950302395796 0.93952735537899268 0.82359377292800962 0.96802993492415446 0.44132721050739565 0.5190315579553183 0.18039648784743836 0.79315476190476208 0.10596067449295951 0.47125775522186614 0.6671401515151516
decision_type=2 2 2 2 2 2 2 2 2 2 2 2 2 2 2 2 2 2 2 2 2 2 2 2 2 2 2 2 2 2
left_child=11 5 15 4 -4 6 7 10 18 -5 17 -1 29 14 -12 16 -3 27 -6 20 21 24 -11 -19 -17 -23 -14 -2 -16 -7
right_child=1 2 3 9 8 12 -8 -9 -10 22 13 -13 26 -15 28 19 -18 23 -20 -21 -22 25 -24 -25 -26 -27 -28 -29 -30 -31
leaf_value=-0.12194961541061683 -0.035560698533114402 0.097470393266883643 0.054193315931385572 -0.002336663906664952 0.33038571114093068 0.022380128148488884 0.3134113701229746 -0.082981250256504102 0.48506291107489513 0.27195026775201164 0.02478300031895439 -0.044614181340467643 0.048079247845008097 0.24456840811127967 0.23355529131668229 0.0083523496612906457 -0.052542382344985622 0.18767074619020735 0.21187072703439111 0.23070381037665136 0.039717151038348678 0.21647920858680825 0.12024362519864114 0.059446229820825015 0.1421628769268008 0.097777309123193851 -0.027580123511143029 0.045489892711515441 0.10258986204862595 -0.059990351057434776
leaf_weight=1262 52 83 30 45 99 40 32 72 51 38 47 163 169 43 30 39 38 34 52 32 59 78 30 52 33 31 59 131 30 231
leaf_count=1262 52 83 30 45 99 40 32 72 51 38 47 163 169 43 30 39 38 34 52 32 59 78 30 52 33 31 59 131 30 231
internal_value=-0.000124106 0.0913934 0.171759 0.246812 0.305455 0.0332489 0.0772807 0.0612856 0.34232 0.124791 0.0862147 -0.113141 -0.012963 0.148153 0.107501 0.105414 0.0503144 0.0512558 0.291235 0.129651 0.115275 0.139551 0.207734 0.111714 0.0707895 0.183916 0.0284658 0.022391 0.170828 -0.0477948
internal_weight=3185 1760 738 345 232 1022 523 491 202 113 419 1425 499 150 107 393 121 269 151 272 240 181 68 86 72 109 228 183 60 271
internal_count=3185 1760 738 345 232 1022 523 491 202 113 419 1425 499 150 107 393 121 269 151 272 240 181 68 86 72 109 228 183 60 271
is_linear=0
shrinkage=0.05


Tree=15
num_leaves=31
num_cat=0
split_feature=1 4 1 1 6 5 0 3 1 0 6 3 0 4 1 6 5 4 0 0 1 4 0 1 0 4 3 6 3 0
split_gain=11665.7 1967.63 1438.26 899.915 891.62 526.64 452.416 375.691 354.375 332.496 307.327 296.877 282.326 202.966 185.557 178.226 174.357 161.283 158.539 230.97 196.235 167.513 137.35 123.632 125.76 118.132 200.129 114.638 102.662 92.9998
threshold=0.24439603519732869 0.71792135646823574 0.89870500772544692 0.067439612694859763 0.18039648784743836 0.47418044050925862 0.95458023349857968 0.93357843137254903 0.69182822540579769 0.9077033211872213 0.76358048720781768 0.90036764705882366 0.88954602293560214 0.88851235205962031 0.89870500772544692 0.74727935210922869 0.26576885484561252 0.75178229226343685 0.022567870860400054 0.9323347608582655 0.51083494551780129 0.99208364224089707 0.0071052246477559004 0.55161515693952612 0.0071052246477559004 0.75178229226343685 0.85925141242937852 0.051259851328414159 0.84640027958993491 0.90353910924313097
decision_type=2 2 2 2 2 2 2 2 2 2 2 2 2 2 2 2 2 2 2 2 2 2 2 2 2 2 2 2 2 2
left_child=3 5 8 17 7 6 14 -4 18 11 16 28 -7 -11 22 -8 25 -1 21 20 -20 23 -2 24 -3 -5 -27 -22 -10 -24
right_child=1 2 4 10 -6 12 15 -9 9 13 -12 -13 -14 -15 -16 -17 -18 -19 19 -21 27 -23 29 -25 -26 26 -28 -29 -30 -31
leaf_value=-0.11921561476894338 -0.050318170948462054 -0.011826487207277254 0.30066320427038051 -0.086149338386952878 0.073331612685034353 0.26470052757949541 -0.088416062046534724 0.53152849306211325 0.23190466339523297 -0.0049604198986344279 0.081336288500363785 0.10682677481519549 0.079317174940291113 0.17057060748338701 0.15866264887154102 0.039808188254634544 0.058245878102811614 -0.057043350037156042 0.11231272942903969 0.066554382718591529 0.24526068193217118 0.16032052941380009 0.062120716135222014 -0.044123349806819208 0.1157983747466157 0.05243331784239183 -0.090770146930995207 0.13342405314678732 0.36050120959839516 0.01295633004512638
leaf_weight=1126 43 32 53 149 30 32 112 32 57 31 59 37 58 34 31 35 36 118 197 153 59 30 245 38 47 51 45 45 30 159
leaf_count=1126 43 32 53 149 30 32 112 32 57 31 59 37 58 34 31 35 36 118 197 153 59 30 245 38 47 51 45 45 30 159
internal_value=0.00277643 0.0970874 0.146031 -0.0936783 0.310772 0.0350207 0.0186262 0.392747 0.121687 0.181561 -0.0215133 0.229483 0.147416 0.0880491 0.0422086 -0.0578238 -0.0433198 -0.113369 0.102587 0.117232 0.142686 0.0568728 0.0337962 0.0292139 0.0646006 -0.0584199 -0.0149371 0.198601 0.279841 0.0428511
internal_weight=3204 1620 905 1584 115 715 625 85 790 189 340 124 90 65 478 147 281 1244 601 454 301 147 447 117 79 245 96 104 87 404
internal_count=3204 1620 905 1584 115 715 625 85 790 189 340 124 90 65 478 147 281 1244 601 454 301 147 447 117 79 245 96 104 87 404
is_linear=0
shrinkage=0.05


Tree=16
num_leaves=31
num_cat=0
split_feature=1 4 1 0 1 0 0 1 0 0 7 0 6 4 0 4 4 1 0 0 4 1 7 0 1 0 0 1 5 6
split_gain=10170.5 2368.64 1031.64 929.775 852.27 468.603 459.286 450.721 358.948 269.295 302.107 267.459 234.346 231.007 230.452 207.648 193.328 182.912 168.969 193.885 163.896 160.528 167.324 155.52 150.311 149.81 147.02 172.708 138.606 133.913
threshold=0.24439603519732869 0.81208563672350387 0.89335264726564712 0.85347410308222904 0.024260344536967852 0.90930502001783098 0.022567870860400054 0.59794785755682123 0.042644016697650257 0.017644519387781655 0.49451834611200879 0.84194722654855325 0.75584364276879401 0.093155659617002326 0.96679311887388353 0.60242014741276351 0.98969024092407276 0.72495808112763227 0.92548262130760783 0.76346147206262505 0.50910142409519288 0.41596253378960324 0.43587599101350893 0.90215184744908761 0.63458105280098842 0.011739659846905701 0.87113195097145324 0.18529449296956083 0.37621578021984364 0.51241468236564158
decision_type=2 2 2 2 2 2 2 2 2 2 2 2 2 2 2 2 2 2 2 2 2 2 2 2 2 2 2 2 2 2
left_child=4 5 6 -4 -1 7 16 11 -8 -9 20 -2 18 -7 17 -14 25 21 19 -6 -11 -10 23 -23 -16 -3 -21 -28 -15 -12
right_child=1 2 3 -5 12 13 8 9 14 10 29 -13 15 28 24 -17 -18 -19 -20 26 -22 22 -24 -25 -26 -27 27 -29 -30 -31
leaf_value=-0.11058107241104216 -0.01459737753806015 -0.036458685212502527 0.39170816645312767 0.06183011255437329 -0.064003534600557216 -0.10285142617156873 0.25601433147857716 0.011791939288377762 0.11323010271555314 0.1381390645461423 0.16059067737190957 0.079364136827403106 -0.039906690624212066 -0.0067344104572523225 -0.025801878696417108 0.13401097416495666 0.16007304273997291 0.059524259399226377 -0.13253022108388984 0.10539579766137259 0.29110043365094396 0.28992701759725287 0.10720880868082697 0.17540908580944864 0.12688271685713723 0.078268084196566515 -0.072016487291289705 0.069406770511219892 0.068388080780830571 0.021503137733514716
leaf_weight=1179 158 55 77 30 167 51 76 39 92 34 30 144 30 275 33 38 32 46 45 34 44 56 43 80 30 57 53 35 78 40
leaf_count=1179 158 55 77 30 167 51 76 39 92 34 30 144 30 275 33 38 32 46 45 34 44 56 43 80 30 57 53 35 78 40
internal_value=0.00075438 0.0895985 0.157908 0.300648 -0.0891572 0.035401 0.131994 0.0682711 0.156561 0.129074 0.159693 0.0303195 -0.0262061 -0.00445509 0.136051 0.0578162 0.0536571 0.153394 -0.043434 -0.0291517 0.227018 0.16905 0.196951 0.224336 0.0477516 0.022105 0.0186879 -0.0156207 0.0100112 0.0825344
internal_weight=3181 1600 707 107 1581 893 600 489 456 187 148 302 402 404 380 68 144 317 334 289 78 271 179 136 63 112 122 88 353 70
internal_count=3181 1600 707 107 1581 893 600 489 456 187 148 302 402 404 380 68 144 317 334 289 78 271 179 136 63 112 122 88 353 70
is_linear=0
shrinkage=0.05


Tree=17
num_leaves=31
num_cat=0
split_feature=1 1 6 4 1 4 1 5 4 6 7 3 3 6 6 4 1 4 3 5 4 3 7 6 7 6 2 2 1 3
split_gain=9992.95 1544.27 973.106 825.494 748.534 447.844 395.828 319.43 264.809 234.015 216.634 185.878 126.099 117.439 100.805 97.7499 133.353 115.498 221.368 88.6728 99.6637 90.0049 86.4513 85.3698 96.5859 77.4844 91.3268 77.2877 140.824 77.2757
threshold=0.24439603519732869 0.82380918331072372 0.20462919705034602 0.66924340114869951 0.067439612694859763 0.97646220680392848 0.40878275071474462 0.2000409957425002 0.84640321263441842 0.823320183452109 0.53754121571244051 0.6671401515151516 0.72766853932584274 0.68525948480684284 0.85052255599409599 0.82402931434748494 0.61943538960614941 0.94153588800644672 0.83387445887445888 0.14501868042847588 0.69681089432392718 0.85925141242937852 0.61813687428532671 0.51381573105625777 0.59711731377476363 0.68716009130734179 0.074353692873092611 0.5102409717790638 0.45271008800744406 0.89529220779220775
decision_type=2 2 2 2 2 2 2 2 2 2 2 2 2 2 2 2 2 2 2 2 2 2 2 2 2 2 2 2 2 2
left_child=4 3 5 7 11 29 13 25 22 19 12 -1 -8 -5 27 -14 -17 18 -18 20 -6 -22 -4 -12 -25 26 -2 28 -9 -3
right_child=1 2 8 6 9 -7 10 14 -10 -11 23 -13 15 -15 -16 16 17 -19 -20 -21 21 -23 -24 24 -26 -27 -28 -29 -30 -31
leaf_value=0.0013503769548927867 -0.010855882286730595 0.25379967948779314 0.065182808923224617 0.023798399826425697 -0.079520822501228772 0.44065612583391128 0.056829780177213254 0.0058782800161482204 0.18036371640861038 0.082110839545687986 0.011470008984208108 -0.10812616100605454 0.20097410729894902 0.11417523589813049 -0.0043188662804437413 0.10010629507066433 0.1911191925406456 0.21239393315964233 0.022145472510772594 0.024180504476309431 0.026285450001720525 -0.065820265040197903 -0.042425485770218076 0.020129954466415991 0.13108469804401621 0.033922451880893538 -0.10175105496760338 0.16447283603972007 0.12388595066450794 0.17026211352397999
leaf_weight=40 258 98 44 183 128 30 45 45 39 47 49 1238 72 44 32 156 47 75 33 48 60 46 31 30 58 83 30 30 57 53
leaf_count=40 258 98 44 183 128 30 45 45 39 47 49 1238 72 44 32 156 47 75 33 48 60 46 31 30 58 83 30 30 57 53
internal_value=0.00094429 0.088469 0.191793 0.0653722 -0.0873975 0.26363 0.097754 0.0173423 0.0764362 -0.0200672 0.120145 -0.104701 0.137694 0.0417403 0.0752238 0.147022 0.133927 0.167106 0.122551 -0.0373268 -0.0499929 -0.0139265 0.0207317 0.0647212 0.0939104 -0.00837761 -0.0206434 0.0943943 0.0723863 0.225792
internal_weight=3229 1622 295 1327 1607 181 792 535 114 329 565 1278 428 227 164 383 311 155 80 282 234 106 75 137 88 371 288 132 102 151
internal_count=3229 1622 295 1327 1607 181 792 535 114 329 565 1278 428 227 164 383 311 155 80 282 234 106 75 137 88 371 288 132 102 151
is_linear=0
shrinkage=0.05


Tree=18
num_leaves=31
num_cat=0
split_feature=1 1 0 7 1 0 0 0 7 0 0 0 0 0 3 3 3 1 1 1 0 0 3 1 3 3 0 0 3 0
split_gain=8789.18 1847.08 1236.66 699.523 618.691 533.197 477.942 462.867 463.398 333.582 290.241 277.558 263.635 226.84 155.513 144.844 138.78 132.806 190.957 128.535 114.47 113.749 98.0138 97.3292 95.1911 91.48 89.2568 88.3964 84.4158 158.252
threshold=0.10595053138804891 0.82380918331072372 0.88070990288457474 0.39563085721803959 0.40878275071474462 0.052089358914433261 0.96943933582753006 0.015952930961883955 0.47854765952605588 0.95622820342650605 0.76346147206262505 0.91211582890477905 0.034062811540129807 0.0089201410427204517 0.99166666666666681 0.83012820512820518 0.67678571428571432 0.2379552520972795 0.33492489078333665 0.62303169769976996 0.92548262130760783 0.89517435833081338 0.95437196391394885 0.5190315579553183 0.93357843137254903 0.89529220779220775 0.94189380652227095 0.96943933582753006 0.81522655426765023 0.87642834435604933
decision_type=2 2 2 2 2 2 2 2 2 2 2 2 2 2 2 2 2 2 2 2 2 2 2 2 2 2 2 2 2 2
left_child=16 4 3 5 9 -3 7 24 11 10 13 12 19 17 -12 -8 -1 -2 -19 -9 -13 23 28 -10 -6 -7 -22 -4 -14 -30
right_child=1 2 27 -5 6 25 15 8 21 -11 14 20 22 -15 -16 -17 -18 18 -20 -21 26 -23 -24 -25 -26 -27 -28 -29 29 -31
leaf_value=-0.0017599414837987798 -0.037374760868188778 0.22831411962325757 0.11598006656041016 0.11040379465466328 -0.022047743709978238 0.35295816400358754 0.036183002735177681 0.032204818954834569 0.031176429348332542 -0.10011493683118244 0.057734562137709826 -0.0024791676190591629 0.17744692820039665 -0.11560149029189466 -0.046057612476870423 -0.068059150502085691 -0.10003922450521763 0.12859439622610808 -0.035811226975056343 0.15423090922144744 0.18006361159871542 0.030447633388422192 0.13326303635380771 0.12629038153822164 0.073713621497154241 0.51783933533776194 0.074776080906140949 0.019817704957510743 0.32971644918231863 0.17389451865897035
leaf_weight=37 80 64 36 50 92 30 74 38 41 57 392 30 54 50 39 59 1273 39 31 51 30 154 37 82 35 30 66 69 45 32
leaf_count=37 80 64 36 50 92 30 74 38 41 57 392 30 54 50 39 59 1273 39 31 51 30 154 37 82 35 30 66 69 45 32
internal_value=0.00219117 0.0712522 0.189801 0.271233 0.050578 0.334681 0.0773773 0.0921755 0.108973 0.0146814 0.0251933 0.144584 0.174438 -0.0245036 0.0482578 -0.0102226 -0.0972669 0.00642689 0.0563073 0.103067 0.0827962 0.0593917 0.211415 0.0950928 0.00471289 0.442536 0.109196 0.0535708 0.232311 0.268019
internal_weight=3197 1887 279 174 1608 124 920 787 660 688 631 383 257 200 431 133 1310 150 70 89 126 277 168 123 127 60 96 105 131 77
internal_count=3197 1887 279 174 1608 124 920 787 660 688 631 383 257 200 431 133 1310 150 70 89 126 277 168 123 127 60 96 105 131 77
is_linear=0
shrinkage=0.05


Tree=19
num_leaves=31
num_cat=0
split_feature=0 4 1 0 1 0 0 1 4 4 3 1 1 4 6 4 2 7 3 3 0 0 4 6 4 3 1 6 0 4
split_gain=7719.55 1603.51 838.944 767.104 754.129 402.844 659.616 283.163 263.254 226.036 223.013 205.993 202.655 191.696 170.505 168.673 156.632 216.131 152.452 453.821 140.522 166.87 132.125 123.852 120.464 134.872 118.684 125.127 128.968 110.354
threshold=0.0066312726790976511 0.83511867096392967 0.61943538960614941 0.90869425093746015 0.91146595359677096 0.020388746065812601 0.85347410308222904 0.44198892278579072 0.0074819902290845014 0.90515961998951766 0.6671401515151516 0.33492489078333665 0.010163456905359003 0.77334963563512182 0.44132721050739565 0.23769668294247134 0.0062263071244195002 0.47500228414021756 0.97775974025974011 0.90036764705882366 0.031204424190878252 0.95529390428840155 0.39712028222995033 0.71045237048121179 0.62318815555752827 0.79315476190476208 0.39113187384216169 0.65587139096702018 0.95378955793981413 0.0047160879040457513
decision_type=2 2 2 2 2 2 2 2 2 2 2 2 2 2 2 2 2 2 2 2 2 2 2 2 2 2 2 2 2 2
left_child=12 3 11 4 7 -4 18 8 -2 -8 -5 -3 22 26 -10 29 24 -18 19 -7 -13 -22 -1 -16 -17 -26 -12 28 -28 -9
right_child=1 2 5 10 -6 6 9 15 14 -11 13 20 -14 -15 23 16 17 -19 -20 -21 21 -23 -24 -25 25 -27 27 -29 -30 -31
leaf_value=-0.10308639296313371 -0.089554498992536383 0.025705960149488113 0.014469535047969512 0.045668114513158803 0.28068072136491534 0.29585061079170555 0.013417827386997247 0.08315588338582236 0.095344475385629471 0.16212872898960043 -0.08480726917982101 0.041445685347372835 -0.04659644697470447 0.048250054864911365 -0.046878414066722163 0.0009721933362575679 0.2682623487780802 0.10196201742152895 0.37005515878166384 0.076549363903927081 0.1508186112352026 0.020444299136438679 -0.055940696463318167 0.046276698740155893 0.059118736910944186 0.18466140802417486 0.013650121715935796 0.038899383352974715 -0.083466882370007434 -0.050323092060223708
leaf_weight=977 45 126 30 124 39 99 37 30 89 83 124 65 259 63 60 38 31 56 35 32 143 30 180 85 59 34 54 58 91 30
leaf_count=977 45 126 30 124 39 99 37 30 89 83 124 65 259 63 60 38 31 56 35 32 143 30 180 85 59 34 54 58 91 30
internal_value=0.000354525 0.0693444 0.129754 0.0322535 0.070806 0.189307 0.207533 0.0556343 0.0199347 0.116766 -0.0125 0.077676 -0.0868446 -0.031064 0.0412818 0.0912625 0.111618 0.163594 0.272055 0.243267 0.104967 0.128458 -0.0958064 0.00767269 0.0761226 0.106492 -0.0464452 -0.0227114 -0.0474534 0.0166855
internal_weight=3206 1790 680 1110 596 316 286 557 279 120 514 364 1416 390 234 278 218 87 166 131 238 173 1157 145 131 93 327 203 145 60
internal_count=3206 1790 680 1110 596 316 286 557 279 120 514 364 1416 390 234 278 218 87 166 131 238 173 1157 145 131 93 327 203 145 60
is_linear=0
shrinkage=0.05


Tree=20
num_leaves=31
num_cat=0
split_feature=0 4 1 1 0 0 1 2 1 0 0 5 1 7 4 4 6 0 0 1 6 1 0 4 6 1 1 0 4 6
split_gain=7678.78 1968.44 1076.92 567.649 534.547 511.128 478.837 297.457 276.77 295.603 288.237 217.712 203.733 193.188 250.27 182.513 322.895 179.035 178.028 167.705 163.865 144.491 143.726 135.375 110.165 73.9512 68.0524 75.2058 66.8229 62.5481
threshold=0.0071052246477559004 0.76964318695292422 0.99055195831557497 0.51083494551780129 0.89975879093205602 0.087579400074704911 0.89870500772544692 0.0062263071244195002 0.92608938944037311 0.020388746065812601 0.91790585149411852 0.44849803255209847 0.024260344536967852 0.43783741144254124 0.96848477735341876 0.92710626629886816 0.49393956643296866 0.95458023349857968 0.94882782823249145 0.24439603519732869 0.74727935210922869 0.26849680420788274 0.89975879093205602 0.47839476245301987 0.4895705351569708 0.70673435900186921 0.40613615185352997 0.92502409792874507 0.80845828055356761 0.81029813888399527
decision_type=2 2 2 2 2 2 2 2 2 2 2 2 2 2 2 2 2 2 2 2 2 2 2 2 2 2 2 2 2 2
left_child=12 4 3 17 6 -4 7 19 9 -5 13 18 -1 14 25 16 -12 21 26 -2 -20 22 -3 -9 -25 -11 29 -28 -23 -6
right_child=1 2 5 8 11 -7 -8 23 -10 10 15 -13 -14 -15 -16 -17 -18 -19 20 -21 -22 28 -24 24 -26 -27 27 -29 -30 -31
leaf_value=-0.09338081822521857 -0.064552599557421417 0.066649645321544201 0.40882360867640755 0.053798429928719999 -0.045638704127990287 0.1380331480455014 0.23922806713197914 0.044206434276495732 0.0052321394284566246 0.23044709004461766 -0.0026782561567696658 0.066844787532594846 -0.043595614737471727 0.12254559147357941 0.1390744408282141 0.1953539117719629 0.19771000261825977 -0.048949998354210572 -0.089384060122203471 0.034214388597567529 0.018480512319489363 0.025948429061099888 -0.058666018644968669 0.20278667077058699 0.086630398609695292 0.32703090392445266 -0.016901716000090043 0.066665486606859392 0.10621115665105894 0.030868973975118837
leaf_weight=1159 54 62 46 59 90 30 34 61 32 55 54 70 253 49 47 47 31 33 145 196 46 31 35 40 46 56 47 61 186 37
leaf_count=1159 54 62 46 59 90 30 34 61 32 55 54 70 253 49 47 47 31 33 145 196 46 31 35 40 46 56 47 61 186 37
internal_value=0.0025414 0.0715945 0.126363 0.108509 0.0211162 0.305113 0.0617813 0.0460214 0.146881 0.158228 0.176191 -0.0142729 -0.0844975 0.213215 0.240386 0.116965 0.0718537 0.0606738 -0.0277274 0.0127085 -0.0634453 0.0723136 0.0212954 0.102207 0.142366 0.281659 0.00144863 0.0304769 0.0949167 -0.023282
internal_weight=3192 1780 853 777 927 76 431 397 430 398 339 496 1412 207 158 132 85 347 426 250 191 314 97 147 86 111 235 108 217 127
internal_count=3192 1780 853 777 927 76 431 397 430 398 339 496 1412 207 158 132 85 347 426 250 191 314 97 147 86 111 235 108 217 127
is_linear=0
shrinkage=0.05


Tree=21
num_leaves=31
num_cat=0
split_feature=1 4 1 1 6 3 3 4 3 4 1 1 1 6 3 6 3 2 4 5 4 4 1 3 3 1 1 1 6 6
split_gain=5901.13 1533.09 471.291 360.566 353.944 351.78 331.885 266.057 181.224 311.865 180.26 126.974 118.523 116.879 178.427 128.485 115.987 95.8664 93.7924 84.9431 62.3943 119.655 108.275 68.1329 60.2784 58.4589 55.0103 138.365 53.303 62.0927
threshold=0.11335223633971281 0.80284848638977391 0.44382264064374816 0.84255293862044145 0.46618905604743982 0.97775974025974011 0.6014705882352942 0.50174002432070008 0.90036764705882366 0.9427315836372433 0.63240948297711952 0.39253183535047248 0.86509722074654849 0.55416142946989144 0.79315476190476208 0.24672983432021869 0.93357843137254903 0.24430617250892298 0.99696951784576815 0.35957173182185648 0.66924340114869951 0.74028985511402989 0.61671759307479579 0.78929924242424254 0.90036764705882366 0.72495808112763227 0.5891551359656817 0.74495181517439213 0.5320525074204846 0.73169616951449956
decision_type=2 2 2 2 2 2 2 2 2 2 2 2 2 2 2 2 2 2 2 2 2 2 2 2 2 2 2 2 2 2
left_child=6 3 13 7 -5 8 -1 19 9 12 -7 17 25 15 -15 24 -10 28 -12 26 -13 22 -22 -23 -3 -4 -2 -28 -9 -30
right_child=1 2 5 4 -6 10 -8 11 16 -11 18 20 -14 14 -16 -17 -18 -19 -20 -21 21 23 -24 -25 -26 -27 27 -29 29 -31
leaf_value=0.076670467108488086 -0.039083196187589479 0.080195610082529956 0.11159856306255195 0.17981310817930435 -0.0037058801106784655 0.12640068775841171 -0.084494224735161175 0.016833426766097545 -0.0033950007480123773 0.25758704981663166 0.34260209068175285 0.028697820872726289 0.17664060286645378 0.028928393037880168 0.19317072077709085 -0.057920567787462664 0.10616782137121146 0.06802975217380175 0.20126275247143163 0.028396929796928396 0.17983842613414314 0.075485537946224215 0.05636038364221653 -0.016207761435132279 0.021743911986109303 0.051268496484096565 0.045344169800536654 -0.082720464594181517 -0.096840060959734464 -0.0075511631337886161
leaf_weight=32 303 93 180 62 45 34 1317 59 45 44 30 128 62 33 33 30 51 40 30 77 38 43 35 37 85 55 65 30 33 46
leaf_count=32 303 93 180 62 45 34 1317 59 45 44 30 128 62 33 33 30 51 40 30 77 38 43 35 37 85 55 65 30 33 46
internal_value=-0.00116045 0.0569163 0.108688 0.0168155 0.103313 0.136163 -0.0806172 0.00680638 0.116792 0.133889 0.22404 0.0339172 0.114761 0.0551425 0.112707 0.036425 0.0553047 0.000847814 0.27639 -0.0194075 0.0547878 0.0762866 0.122198 0.0334008 0.0525607 0.0977558 -0.028704 0.0044623 -0.0189745 -0.0455933
internal_weight=3195 1846 805 1041 107 531 1349 934 437 341 94 459 297 274 66 208 96 178 60 475 281 153 73 80 178 235 398 95 138 79
internal_count=3195 1846 805 1041 107 531 1349 934 437 341 94 459 297 274 66 208 96 178 60 475 281 153 73 80 178 235 398 95 138 79
is_linear=0
shrinkage=0.05


Tree=22
num_leaves=31
num_cat=0
split_feature=0 4 0 0 4 0 4 3 5 4 6 6 0 0 0 3 4 3 6 0 3 7 4 3 3 3 6 0 6 0
split_gain=5472.25 1613.72 516.784 872.804 419.599 379.493 287.601 271.939 231.466 163.606 152.107 285.343 170.337 224.956 143.656 177.878 177.137 149.58 133.031 122.695 149.96 101.571 94.9033 82.6911 79.4287 75.3183 74.4146 71.5297 70.6496 69.1505
threshold=0.0071052246477559004 0.81559389666814719 0.84194722654855325 0.034062811540129807 0.95738102766467625 0.94018601294461523 0.50174002432070008 0.83012820512820518 0.42226677263576257 0.45736385151319964 0.43164843661279378 0.68716009130734179 0.016703575998648454 0.88070990288457474 0.96477196303285295 0.78929924242424254 0.96348594504704799 0.99166666666666681 0.55416142946989144 0.016703575998648454 0.89022471910112355 0.55319466148351404 0.9402985890759229 0.71715686274509816 0.70102739726027408 0.90036764705882366 0.92289047933639734 0.93952735537899268 0.56913559048973772 0.059340996713711507
decision_type=2 2 2 2 2 2 2 2 2 2 2 2 2 2 2 2 2 2 2 2 2 2 2 2 2 2 2 2 2 2
left_child=9 5 3 19 7 6 29 -5 18 -1 12 23 -8 -14 15 -4 22 -18 -7 -3 -21 -13 27 -12 -11 -16 -20 28 -17 -2
right_child=1 2 14 4 -6 8 10 -9 -10 24 11 21 13 -15 25 16 17 -19 26 20 -22 -23 -24 -25 -26 -27 -28 -29 -30 -31
leaf_value=-0.084174480098152191 -0.025996133065580025 0.033057264666217313 0.038802696144141793 0.30345152858141305 0.39054295001994999 -0.080907851704681413 -0.014126319546372661 0.12692099934230086 0.076491499310802846 0.027809549950891074 0.025766061927591052 0.14056945360721426 0.16799032718843812 0.050524687071711843 0.061959779775804948 0.071515750120344918 -0.016220468782433651 0.12016232360620052 0.021643538017653757 0.17277279971675441 0.035303990554177399 0.046965100846172857 0.20828572022305294 -0.072831229655580088 -0.051663582746902206 -0.033725583690561743 -0.071021621530094461 0.18884089680448657 0.16351224938707967 0.019566733116461409
leaf_weight=1104 137 70 111 36 41 146 30 60 41 35 34 46 90 76 44 75 40 39 71 54 32 80 43 54 266 37 30 30 30 209
leaf_count=1104 137 70 111 36 41 146 30 60 41 35 34 46 90 76 44 75 40 39 71 54 32 80 43 54 266 37 30 30 30 209
internal_value=-0.00145921 0.0566021 0.112926 0.164583 0.256324 0.0165015 0.0350967 0.195566 -0.0322635 -0.0752531 0.0633738 0.0339862 0.0951249 0.114835 0.078926 0.0921682 0.114977 0.0517682 -0.0505516 0.0828956 0.122615 0.0819759 0.142585 -0.0348753 -0.042361 0.0183734 -0.00630721 0.12028 0.0990951 0.00150302
internal_weight=3191 1786 742 293 137 1044 756 96 288 1405 410 214 196 166 449 368 257 79 247 156 86 126 178 88 301 81 101 135 105 346
internal_count=3191 1786 742 293 137 1044 756 96 288 1405 410 214 196 166 449 368 257 79 247 156 86 126 178 88 301 81 101 135 105 346
is_linear=0
shrinkage=0.05


Tree=23
num_leaves=31
num_cat=0
split_feature=1 4 1 4 2 6 0 0 1 6 6 1 0 4 0 3 4 1 3 3 1 1 1 6 0 1 1 1 3 6
split_gain=5111.62 1148.52 709.166 434.885 351.848 345.663 290.475 321.509 353.472 241.289 224.852 333.058 218.193 210.561 189.284 186.613 291.921 161.207 130.044 127.985 111.575 93.9898 85.2913 89.2207 77.9446 74.5129 74.0912 106.08 115.282 102.728
threshold=0.24439603519732869 0.66924340114869951 0.99969076792781786 0.34175269081416854 0.58572425674708861 0.75584364276879401 0.96679311887388353 0.017644519387781655 0.50424085392838347 0.059836065372565451 0.55642005668334049 0.67407797160805749 0.95734955559228518 0.93239164507497363 0.039545275368147607 0.84212962962962967 0.98313028845454942 0.84255293862044145 0.6671401515151516 0.87434210526315781 0.75407929136319563 0.32531859559609283 0.5335012948315544 0.093414304127198103 0.89422144448336016 0.11335223633971281 0.28180650770353138 0.45271008800744406 0.83387445887445888 0.43164843661279378
decision_type=2 2 2 2 2 2 2 2 2 2 2 2 2 2 2 2 2 2 2 2 2 2 2 2 2 2 2 2 2 2
left_child=3 4 6 -1 12 18 7 19 21 15 14 -12 17 -4 -11 -10 -17 20 -5 -3 26 24 -8 -24 -9 -20 -2 -28 29 -29
right_child=1 2 13 5 -6 -7 22 8 9 10 11 -13 -14 -15 -16 16 -18 -19 25 -21 -22 -23 23 -25 -26 -27 27 28 -30 -31
leaf_value=-0.079029558567813282 0.086638732244157135 -0.013134534464004527 0.15256590409299886 0.042971241643482989 0.1755841528576228 0.087590654040612878 -0.062546828312263117 -0.043661784939467908 0.10929215262333553 0.123028342930807 0.073097275791224089 0.28446837278897874 -0.051854144624833558 0.32462440900504591 -0.013933562641513759 0.25194560597246551 0.084001113046464085 0.11668252223529495 -0.065982303160957864 0.078086060616705158 -0.072595969607701177 0.082477114824247244 -0.020952489994028035 0.095704333926551047 0.062303201408174483 -0.018662867766839487 -0.019252211597005402 0.12527004425671506 -0.0088221798628746045 0.027972921234235837
leaf_weight=1125 35 82 38 43 30 62 32 31 74 44 47 31 139 39 57 105 36 38 223 71 36 196 33 31 37 134 157 46 83 66
leaf_count=1125 35 82 38 43 30 62 32 31 74 44 47 31 139 39 57 105 36 38 223 71 36 196 33 31 37 134 157 46 83 66
internal_value=0.00143369 0.0640672 0.0977893 -0.0622657 0.011325 -0.0213619 0.0852285 0.0949524 0.11012 0.140129 0.0963321 0.159641 0.00283352 0.242757 0.0463542 0.175978 0.20996 0.0193994 -0.0384259 0.0294288 0.0104054 0.0649749 0.00294957 0.0361562 0.014063 -0.0483227 0.0182937 0.0112719 0.0358205 0.0686892
internal_weight=3201 1614 984 1587 630 462 907 811 658 394 179 78 600 77 101 215 141 461 400 153 423 264 96 64 68 357 387 352 195 112
internal_count=3201 1614 984 1587 630 462 907 811 658 394 179 78 600 77 101 215 141 461 400 153 423 264 96 64 68 357 387 352 195 112
is_linear=0
shrinkage=0.05


Tree=24
num_leaves=31
num_cat=0
split_feature=1 4 1 0 1 1 0 3 4 0 2 0 5 1 1 0 0 0 0 0 1 4 0 6 1 1 1 0 0 0
split_gain=4507.69 866.52 523.389 372.617 386.147 343.279 346.735 303.374 253.283 210.845 192.572 165.213 140.607 128.151 190.327 148.742 107.914 104.57 101.834 93.9175 116.637 92.6461 120.172 86.3793 84.2245 81.2219 77.1861 70.3238 70.0793 67.8927
threshold=0.10595053138804891 0.88036968405664939 0.51582267000748594 0.97284456182051848 0.99055195831557497 0.82380918331072372 0.10596067449295951 0.62083333333333346 0.55592809391814935 0.045030638871531657 0.200689318890614 0.019281142286931102 0.37621578021984364 0.76719041109470354 0.70194716070774421 0.045030638871531657 0.92548262130760783 0.95622820342650605 0.87257897261450845 0.020860127041789456 0.33492489078333665 0.96662403507125927 0.82359377292800962 0.051259851328414159 0.27880858000137759 0.3630030532507918 0.65484228442777015 0.88638774293921729 0.98009652229623578 0.0038798381419287505
decision_type=2 2 2 2 2 2 2 2 2 2 2 2 2 2 2 2 2 2 2 2 2 2 2 2 2 2 2 2 2 2
left_child=7 5 21 4 11 8 9 -1 12 -7 17 -4 16 14 -13 -15 29 19 -12 -10 -21 22 -3 -20 -24 -18 -22 -23 -27 -2
right_child=1 2 3 -5 -6 6 -8 -9 10 -11 18 13 -14 15 -16 -17 25 -19 23 20 26 27 24 -25 -26 28 -28 -29 -30 -31
leaf_value=0.082524656131863605 -0.065074822530150414 -0.0031568124741315848 0.036206747274845845 -0.0022197621679583262 0.29129027252126 0.081710908221346995 0.024009181292537349 -0.076302110483917412 -0.011861911404164548 0.25661824762232993 0.16638248801231384 0.13681258927764636 0.048276978230703323 0.16593831345438959 0.26606722182848236 0.030323517469819202 -0.11385994592512197 -0.034769568133598834 0.12748624273773396 -0.00072286946792155503 0.07969847809811488 0.041658896254375577 0.030168364141136408 0.024217114258896222 0.12194179791856458 0.002896876707673073 0.011823048319534533 -0.053330086792993829 -0.083437424143537497 0.0048306100105753903
leaf_weight=30 39 49 39 42 45 34 81 1293 93 37 34 97 86 39 43 42 43 66 32 99 180 39 39 54 73 59 55 37 38 263
leaf_count=30 39 49 39 42 45 34 81 1293 93 37 34 97 86 39 43 42 43 66 32 99 180 39 39 54 73 59 55 37 38 263
internal_value=-0.00198707 0.0478254 0.0983258 0.13738 0.156548 0.0249578 0.095295 -0.072641 0.0155125 0.175158 0.0373502 0.1322 -0.00986333 0.148901 0.178118 0.0968469 -0.0212591 0.0234224 0.0939039 0.0324771 0.0448216 0.0408084 0.0621765 0.0636665 0.0905348 -0.0573765 0.0639301 -0.00467776 -0.0314311 -0.00438189
internal_weight=3200 1877 584 347 305 1293 152 1323 1141 71 613 260 528 221 140 81 442 493 120 427 334 237 161 86 112 140 235 76 97 302
internal_count=3200 1877 584 347 305 1293 152 1323 1141 71 613 260 528 221 140 81 442 493 120 427 334 237 161 86 112 140 235 76 97 302
is_linear=0
shrinkage=0.05


Tree=25
num_leaves=31
num_cat=0
split_feature=1 4 1 0 1 0 1 0 4 0 1 4 0 7 0 6 5 6 4 6 0 4 7 4 4 1 0 0 4 4
split_gain=4079.35 742.778 323.589 304.305 371.205 236.294 228.908 217.689 346.125 207.581 179.178 189.087 179.465 158.171 147.193 165.449 136.241 127.222 103.243 103.137 97.3139 126.11 87.2613 86.5383 104.674 84.5486 77.7432 127.745 71.9309 66.9755
threshold=0.20938154408616602 0.89351102299655427 0.99969076792781786 0.95622820342650605 0.99969076792781786 0.020860127041789456 0.062287790723150056 0.023466243009575252 0.99986703028094692 0.90580939282654283 0.80700048830987381 0.40496976667556633 0.10596067449295951 0.50001105023973957 0.96802993492415446 0.17684446810000995 0.41751695299099673 0.71045237048121179 0.54517809931894956 0.52411108971161235 0.045030638871531657 0.96348594504704799 0.62149658302086308 0.085151553637134419 0.70948031025607905 0.63458105280098842 0.88750405962095902 0.10596067449295951 0.98969024092407276 0.6137831609895007
decision_type=2 2 2 2 2 2 2 2 2 2 2 2 2 2 2 2 2 2 2 2 2 2 2 2 2 2 2 2 2 2
left_child=6 3 7 4 5 23 29 28 14 10 11 12 -7 -13 15 20 19 26 -11 -5 -9 -22 -20 -2 -25 -21 27 -8 -3 -1
right_child=1 2 -4 16 -6 9 17 8 -10 18 -12 13 -14 -15 -16 -17 -18 -19 22 25 21 -23 -24 24 -26 -27 -28 -29 -30 -31
leaf_value=-0.074051798298710392 0.046019595704580613 0.0013122151543696722 0.22932600239291789 -0.064224091152206439 0.21494913908743088 -0.09454407436829626 -0.043389597463914575 0.23484052501264074 -0.041656494971967356 -0.011422589659117736 0.16415290712163999 0.12176660357821566 0.061280134657309172 0.044273604858499856 0.039572926322648 0.071371546479414655 0.070220111983103892 0.053472338481714912 0.067210603754811152 -0.045782068306450839 0.17483222013693989 0.075816223701462154 -0.0029879897388701256 -0.061964146968688863 0.018914526292722521 0.059252583562600908 -0.079056969966127807 0.061140616683334842 0.092055131903579168 -0.039020358554495753
leaf_weight=1050 56 74 47 120 30 32 101 41 33 129 51 133 41 133 42 66 35 50 142 35 108 49 64 88 72 40 66 40 30 161
leaf_count=1050 56 74 47 120 30 32 101 41 33 129 51 133 41 133 42 66 35 50 142 35 108 49 64 88 72 40 66 40 30 161
internal_value=0.000620563 0.0535458 0.105372 0.0323308 0.0445716 0.0389174 -0.0603393 0.0917346 0.111112 0.0525773 0.077338 0.0638329 -0.00738093 0.083331 0.127669 0.141482 -0.019316 -0.0173981 0.023607 -0.0356628 0.164376 0.144605 0.0454923 -0.00696282 -0.0256773 0.010279 -0.0346913 -0.0135139 0.0281155 -0.0694305
internal_weight=3159 1691 490 1201 971 941 1468 443 339 725 390 339 73 266 306 264 230 257 335 195 198 157 206 216 160 75 207 141 104 1211
internal_count=3159 1691 490 1201 971 941 1468 443 339 725 390 339 73 266 306 264 230 257 335 195 198 157 206 216 160 75 207 141 104 1211
is_linear=0
shrinkage=0.05


Tree=26
num_leaves=31
num_cat=0
split_feature=1 1 0 3 5 0 0 1 7 5 0 1 6 3 0 3 3 6 6 3 1 0 3 7 1 6 1 0 1 3
split_gain=4207.77 684.385 1191.06 571.414 268.925 263.198 285.166 189.585 175.33 174.456 301.186 174.131 169.32 131.852 104.993 99.7651 122.909 85.616 83.0286 79.0935 74.3554 72.3007 126.141 84.5675 63.5494 59.3796 57.8103 445.397 81.9366 87.0124
threshold=0.24439603519732869 0.89870500772544692 0.94189380652227095 0.93357843137254903 0.36610753899745768 0.96679311887388353 0.0074449774138959013 0.40613615185352997 0.53754121571244051 0.16040121364674448 0.90504650732806036 0.10595053138804891 0.14870689539019102 0.97775974025974011 0.020860127041789456 0.97083333333333321 0.89022471910112355 0.823320183452109 0.2776541148414407 0.83012820512820518 0.63693033740717875 0.89975879093205602 0.80757575757575761 0.68496138862017586 0.52882130612484846 0.19760227716800652 0.76719041109470354 0.045030638871531657 0.49069397414978561 0.87749999999999995
decision_type=2 2 2 2 2 2 2 2 2 2 2 2 2 2 2 2 2 2 2 2 2 2 2 2 2 2 2 2 2 2
left_child=4 5 3 12 11 6 13 15 9 14 -11 -1 -3 -2 20 16 -8 18 -13 -7 24 22 23 -10 -9 -4 28 -28 29 -16
right_child=1 2 25 -5 -6 19 7 8 21 10 -12 17 -14 -15 26 -17 -18 -19 -20 -21 -22 -23 -24 -25 -26 -27 27 -29 -30 -31
leaf_value=-0.065943691310457617 -0.05648968069790266 0.22355773752385921 0.032910428953266915 0.41065019170443223 0.063130651184536049 0.021073282631759598 0.02722038873152919 0.014639650237175726 0.059067747206621182 0.24210719719994814 0.059223737741510074 -0.0090165820593635249 0.07693716820110294 0.060391482029642375 0.10850424403324724 -0.042013300290065156 0.12443351442190378 0.052578090259007053 -0.074287951974819105 -0.045038540807847936 -0.021606593187420798 0.015351528171449899 -0.0032382819035814865 0.15503035008441657 0.11728073637331687 -0.059911104272573429 0.16863823989406229 -0.069107776268934593 0.11581295128715666 -0.007867534249795206
leaf_weight=1288 77 54 30 35 46 100 233 30 59 47 44 140 33 34 31 41 37 34 74 81 38 129 44 39 30 38 39 38 227 32
leaf_count=1288 77 54 30 35 46 100 233 30 59 47 44 140 33 34 31 41 37 34 74 81 38 129 44 39 30 38 39 38 227 32
internal_value=0.00300169 0.0596246 0.148579 0.241422 -0.0549823 0.0477098 0.05587 0.0633275 0.0758412 0.0919233 0.155285 -0.0585583 0.169449 -0.0204687 0.0792169 0.029915 0.0409522 -0.0200912 -0.0318276 -0.00859758 0.0327967 0.0426296 0.0671298 0.0984372 0.0670415 -0.019077 0.0914896 0.0519273 0.10178 0.0501954
internal_weight=3202 1620 190 122 1582 1430 1249 1138 827 556 91 1536 87 111 465 311 270 248 214 181 98 271 142 98 60 68 367 77 290 63
internal_count=3202 1620 190 122 1582 1430 1249 1138 827 556 91 1536 87 111 465 311 270 248 214 181 98 271 142 98 60 68 367 77 290 63
is_linear=0
shrinkage=0.05


Tree=27
num_leaves=31
num_cat=0
split_feature=1 0 1 1 7 0 3 2 0 0 0 1 1 0 0 3 0 6 3 0 0 0 7 7 3 6 1 3 7 6
split_gain=3562.61 588.14 1103.65 298.355 414.532 288.63 281.072 155.941 198.656 366.009 236.272 186.958 117.848 111.509 211.996 178.14 115.023 101.151 94.7824 94.5886 88.8034 88.7969 85.4691 201.871 88.4311 88.6113 76.8123 75.6002 75.5316 116.788
threshold=0.24439603519732869 0.96943933582753006 0.99969076792781786 0.45271008800744406 0.47854765952605588 0.022567870860400054 0.6671401515151516 0.28753442440403582 0.039545275368147607 0.76346147206262505 0.034062811540129807 0.65053624245199126 0.10595053138804891 0.84030478993679047 0.017644519387781655 0.85925141242937852 0.87113195097145324 0.62292080555697138 0.87749999999999995 0.92601050274805596 0.76346147206262505 0.76346147206262505 0.70112069240967656 0.60607570694693436 0.83012820512820518 0.17404511832629729 0.51083494551780129 0.84212962962962967 0.52990179571714147 0.41478398999228533
decision_type=2 2 2 2 2 2 2 2 2 2 2 2 2 2 2 2 2 2 2 2 2 2 2 2 2 2 2 2 2 2
left_child=6 2 3 13 5 -5 21 8 10 -10 -7 26 -8 14 15 -2 -15 28 -13 20 -14 -1 23 24 25 -3 -11 -28 -6 -30
right_child=1 22 -4 4 17 7 12 -9 9 11 -12 18 19 16 -16 -17 -18 -19 -20 -21 -22 -23 -24 -25 -26 -27 27 -29 29 -31
leaf_value=-0.020694470443786722 -0.045608571774580269 0.066871986133711689 0.26814997323090212 0.0353582664744043 -0.06656386081069228 0.11113126946740003 -0.064068416454943752 0.22364876310567597 -0.019911588046510342 0.10063446089625359 0.28259505070745944 -0.0078845276751301503 -0.04766265677642964 0.11365906363551288 -0.11658529316385587 0.075476679605815347 0.029311826318309822 0.062697702202422087 0.11177763555418044 -0.088009447526807588 0.02117930149026918 0.081649517917886702 -0.088691324125975371 0.10848427270088466 -0.065907852600018177 -0.044881735452347332 0.12375184807049877 0.22940673659346544 0.067181335843127715 -0.020664288462804898
leaf_weight=38 54 34 63 121 30 55 1260 36 58 42 33 32 83 46 35 67 300 127 33 47 105 46 39 30 83 35 33 48 68 83
leaf_count=38 54 34 63 121 30 55 1260 36 58 42 33 32 83 46 35 67 300 127 33 47 105 46 39 30 83 35 33 48 68 83
internal_value=0.000138173 0.0530771 0.0653307 0.0553109 0.0742788 0.102767 -0.0530019 0.124657 0.113352 0.0896407 0.177883 0.123365 -0.0580036 0.0250332 -0.0100199 0.0215077 0.0408209 0.0286781 0.0536402 -0.0253522 -0.00930506 0.0356523 -0.0225051 -0.00791514 -0.0314476 0.010354 0.159482 0.188396 0.00459468 0.0190771
internal_weight=3164 1585 1364 1301 799 491 1579 370 334 246 88 188 1495 502 156 121 346 308 65 235 188 84 221 182 152 69 123 81 181 151
internal_count=3164 1585 1364 1301 799 491 1579 370 334 246 88 188 1495 502 156 121 346 308 65 235 188 84 221 182 152 69 123 81 181 151
is_linear=0
shrinkage=0.05


Tree=28
num_leaves=31
num_cat=0
split_feature=1 4 1 5 4 0 0 0 0 6 6 0 0 4 1 6 1 7 1 4 0 0 5 1 0 5 6 4 1 1
split_gain=2944.37 823.026 429.439 314.783 279.81 264.255 207.684 206.732 343.441 222.444 164.475 121.488 119.762 131.292 100.42 119.439 139.791 102.374 99.5124 91.3556 86.5805 118.763 82.9726 68.7857 93.0406 68.0714 67.2196 66.9677 66.1911 71.8603
threshold=0.10595053138804891 0.71792135646823574 0.61943538960614941 0.44849803255209847 0.98181010262101109 0.94882782823249145 0.83015332578545908 0.019281142286931102 0.042644016697650257 0.55416142946989144 0.19036829980629008 0.92891070995092229 0.84835012816998701 0.91873044587839159 0.43030365696214107 0.48090722812353243 0.70436816257570711 0.66314991015359215 0.51083494551780129 0.96348594504704799 0.03731344961417616 0.10596067449295951 0.49785275770777954 0.73783137861041659 0.03316664832138546 0.24327346021698984 0.74727935210922869 0.93830486577784233 0.2996951820464353 0.24439603519732869
decision_type=2 2 2 2 2 2 2 2 2 2 2 2 2 2 2 2 2 2 2 2 2 2 2 2 2 2 2 2 2 2
left_child=25 3 11 5 7 14 -5 -4 23 10 -10 12 -3 -14 28 20 17 -17 27 -15 -16 -22 -8 -9 -25 -1 -7 -13 29 -2
right_child=1 2 4 6 -6 26 22 8 9 -11 -12 18 13 19 15 16 -18 -19 -20 -21 21 -23 -24 24 -26 -27 -28 -29 -30 -31
leaf_value=-0.061554937958495086 -0.014449801867906476 0.024791553081581142 -0.031280280725331976 0.18838396452126965 0.21740066216272466 -0.084337392944097533 0.099516499261645713 0.2385630439966917 0.071400109604529458 0.17215546323429973 -0.036011681294379136 0.00078551748475588073 0.050767173019370865 0.16970624757072361 0.016079507995935449 0.067868492774665362 -0.10339947764671618 -0.037425258218549022 0.054649640093075817 0.065399678172543649 0.1648106038104743 0.042914898556314023 0.00081031245042987438 0.082415667389120373 0.20112538379931674 0.014213643385277641 -0.0081679870207340289 -0.087341886764625093 -0.044565131052814684 0.056318833384041991
leaf_weight=1277 141 204 31 30 50 124 33 34 140 41 47 66 181 50 82 49 30 42 57 39 31 56 57 34 36 30 38 31 115 47
leaf_count=1277 141 204 31 30 50 124 33 34 140 41 47 66 181 50 82 49 30 42 57 39 31 56 57 34 36 30 38 31 115 47
internal_value=-0.00196945 0.0374946 0.0675163 0.00174093 0.107082 -0.0102452 0.0766154 0.0913305 0.102839 0.0679886 0.0443556 0.0413677 0.0538798 0.075685 0.00524465 0.0262318 -0.0116496 0.0193928 0.00275722 0.125233 0.0532629 0.0877283 0.0376985 0.177866 0.145439 -0.0598063 -0.0666302 -0.0279828 -0.0148622 0.00344673
internal_weight=3223 1916 1041 875 413 755 120 363 332 228 187 628 474 270 593 290 121 91 154 89 169 87 90 104 70 1307 162 97 303 188
internal_count=3223 1916 1041 875 413 755 120 363 332 228 187 628 474 270 593 290 121 91 154 89 169 87 90 104 70 1307 162 97 303 188
is_linear=0
shrinkage=0.05


Tree=29
num_leaves=31
num_cat=0
split_feature=0 4 0 0 7 2 0 4 0 4 6 5 4 0 4 4 6 7 7 7 5 3 0 6 6 4 3 2 0 7
split_gain=2524.47 724.354 580.701 365.183 315.689 265.349 227.508 200.226 183.163 128.93 235.788 114.139 104.318 102.676 169.333 138.293 102.544 94.5314 80.6826 115.159 127.067 201.167 119.426 86.8369 80.1821 74.4031 83.6675 72.3918 71.0171 70.3614
threshold=0.012080914400562101 0.59818006356439446 0.87113195097145324 0.063370509086160765 0.50098669359245096 0.59725904257865225 0.047732272868322406 0.61850878042634805 0.83015332578545908 0.88036968405664939 0.69879304627493311 0.20265677969992582 0.98466540858299123 0.034945697065869051 0.92267785819737147 0.93045770567552177 0.11993574525184127 0.63480939834389405 0.71110248692255007 0.56101785054079356 0.11204397104454966 0.74039855072463767 0.92601050274805596 0.48090722812353243 0.72150934585237159 0.98466540858299123 0.71336416747809162 0.21544016697105814 0.95458023349857968 0.51290872422512346
decision_type=2 2 2 2 2 2 2 2 2 2 2 2 2 2 2 2 2 2 2 2 2 2 2 2 2 2 2 2 2 2
left_child=7 5 3 6 8 18 13 -1 -5 10 16 17 29 15 -15 -3 27 -12 19 20 22 -22 -2 -21 -25 26 -9 -4 -20 -11
right_child=1 2 9 4 -6 -7 -8 25 -10 12 11 -13 -14 14 -16 -17 -18 -19 28 23 21 -23 -24 24 -26 -27 -28 -29 -30 -31
leaf_value=-0.055517734772411932 -0.010551793762835965 0.10148077794313431 0.0028795392358118726 0.28923734506964682 0.066267301797590869 0.12980539688840509 -0.049576640783837347 0.055643096470063741 0.15569380598572585 0.064545607935356838 0.002659443590234508 0.15283839627004722 0.0022829193364957284 0.064756195312913725 0.23028644544463003 0.0094784791911801999 -0.035563521387676399 0.10064337466081436 -0.023907194860647945 0.11073349633652177 -0.030408545437396739 0.12542244894163951 -0.085657247674784498 -0.04629250596410462 0.049581655154229493 0.043533673965268666 -0.032316935331371831 0.087812183583703116 -0.11390662848134525 0.13889299791306259
leaf_weight=1202 144 124 96 49 53 34 32 30 64 185 56 33 57 33 30 61 149 43 72 30 50 34 83 34 57 53 214 33 31 39
leaf_count=1202 144 124 96 49 53 34 32 30 64 185 56 33 57 33 30 61 149 43 72 30 50 34 83 34 57 53 214 33 31 39
internal_value=0.000883605 0.0424681 0.0654992 0.109928 0.168625 -0.00358786 0.0746524 -0.0464401 0.215631 0.0367058 0.0187513 0.0735068 0.0627433 0.0908167 0.145947 0.0713589 -0.00741792 0.045799 -0.0122915 -0.00276682 -0.0188662 0.0333994 -0.0382685 0.0384282 0.0136467 -0.00963888 -0.0213192 0.0251148 -0.0518292 0.0780498
internal_weight=3205 1706 1137 446 166 569 280 1499 113 691 410 132 281 248 63 185 278 99 535 432 311 84 227 121 91 297 244 129 103 224
internal_count=3205 1706 1137 446 166 569 280 1499 113 691 410 132 281 248 63 185 278 99 535 432 311 84 227 121 91 297 244 129 103 224
is_linear=0
shrinkage=0.05


Tree=30
num_leaves=31
num_cat=0
split_feature=0 4 5 6 0 0 0 4 4 0 0 4 3 4 3 6 6 4 4 4 6 4 3 3 3 6 0 3 6 3
split_gain=2816.1 956.424 260.199 324.456 230.1 259.786 169.715 146.069 144.182 94.0058 92.1846 145.117 259.311 111.038 76.3967 73.4619 139.948 134.553 71.7392 60.9349 54.8999 98.0047 61.0023 54.5475 51.246 50.2667 48.7104 70.6472 46.9024 46.7587
threshold=0.0071052246477559004 0.81559389666814719 0.2000409957425002 0.0087745468942664519 0.90215184744908761 0.021961490479915854 0.94018601294461523 0.79016704152763906 0.62779109060985927 0.90580939282654283 0.84030478993679047 0.98061163473078194 0.90036764705882366 0.93239164507497363 0.7696153846153847 0.49393956643296866 0.16597388227342189 0.90247172876026971 0.50174002432070008 0.65218629916664794 0.43164843661279378 0.36290284346265217 0.82207792207792219 0.99166666666666681 0.84640027958993491 0.24672983432021869 0.0011667886230296502 0.9501655629139073 0.14524163291746073 0.91106321839080462
decision_type=2 2 2 2 2 2 2 2 2 2 2 2 2 2 2 2 2 2 2 2 2 2 2 2 2 2 2 2 2 2
left_child=7 2 6 19 5 24 8 -1 20 -5 11 12 13 28 -8 16 -6 -17 -11 -4 22 -22 -2 -24 -3 26 27 -9 -7 -12
right_child=1 4 3 9 15 10 14 25 -10 18 29 -13 -14 -15 -16 17 -18 -19 -20 -21 21 -23 23 -25 -26 -27 -28 -29 -30 -31
leaf_value=-0.057164739545973425 -0.051565986696411582 0.083473241495500727 0.10088146255286629 0.057268499651130428 0.053658921515303007 0.095882380737903283 -0.0006626891157327173 0.019736800428766473 0.04338792463371513 -0.039800049264875938 0.11954710740104038 0.25389410071074964 0.012790171642942974 0.24365100655704738 -0.062916937019050559 0.043050604817216044 -0.061820960813953031 0.1753712694010427 0.035162646963325293 0.19881023575942364 -0.088457979656317659 2.3317998048008944e-05 0.062539096245611159 -0.0014200906988910654 0.0067320012013917258 -0.065552786557060302 0.037286115065217021 -0.066443836722861638 0.17258364716958671 0.058418524041771891
leaf_weight=1223 33 34 42 107 174 46 77 51 217 70 105 31 35 35 136 53 30 30 57 30 50 81 53 87 58 32 60 43 44 49
leaf_count=1223 33 34 42 107 174 46 77 51 217 70 105 31 35 35 136 53 30 30 57 30 50 81 53 87 58 32 60 43 44 49
internal_value=0.00179481 0.0438824 0.0131377 0.0517904 0.0879669 0.110824 -0.00302488 -0.0508905 0.0123525 0.0229729 0.1307 0.154319 0.133569 0.167017 -0.0405201 0.0528997 0.0364579 0.0923957 -0.00614352 0.14385 -0.00987064 -0.0341625 0.00861437 0.0230648 0.0356855 -0.00955082 0.00243379 -0.0199707 0.134865 0.100599
internal_weight=3173 1764 1040 306 724 437 734 1409 521 234 345 191 160 125 213 287 204 83 127 72 304 131 173 140 92 186 154 94 90 154
internal_count=3173 1764 1040 306 724 437 734 1409 521 234 345 191 160 125 213 287 204 83 127 72 304 131 173 140 92 186 154 94 90 154
is_linear=0
shrinkage=0.05


Tree=31
num_leaves=31
num_cat=0
split_feature=0 0 0 6 3 4 0 6 5 0 4 3 3 6 6 6 3 4 0 0 4 0 2 0 4 6 4 3 4 0
split_gain=2245.87 612.245 324.686 270.594 294.443 218.852 181.247 149.292 138.265 132.923 131.953 197.227 116.522 104.164 87.5625 85.733 80.9524 147.842 80.8339 78.984 78.4221 66.8507 69.6524 66.7608 180.515 93.3308 59.6035 56.3231 49.3441 46.0694
threshold=0.0071052246477559004 0.90215184744908761 0.021961490479915854 0.18865598527769264 0.99166666666666681 0.90515961998951766 0.87113195097145324 0.69879304627493311 0.14680634106332352 0.0012474483223403002 0.84640321263441842 0.82207792207792219 0.79315476190476208 0.81995873232377758 0.71045237048121179 0.50561182436146568 0.85822072072072064 0.98969024092407276 0.88954602293560214 0.05627298447540996 0.64744311565649648 0.96679311887388353 0.36864463668662556 0.0089201410427204517 0.50910142409519288 0.0087745468942664519 0.74899557793595495 0.95437196391394885 0.64239477820890711 0.0027444241694070505
decision_type=2 2 2 2 2 2 2 2 2 2 2 2 2 2 2 2 2 2 2 2 2 2 2 2 2 2 2 2 2 2
left_child=9 2 23 4 6 7 8 21 12 -1 14 -12 -4 28 15 -5 -7 27 -8 -6 -16 22 -3 -2 -25 -26 -23 -18 -9 -11
right_child=1 5 3 10 19 16 18 13 -10 29 11 -13 -14 -15 20 -17 17 -19 -20 -21 -22 26 -24 24 25 -27 -28 -29 -30 -31
leaf_value=-0.053516553462712904 0.074742660580857379 -0.018301626294195444 0.067631085459952764 0.046859875208919211 -0.033441692342360815 -0.0067987785146043107 0.025394469392873972 0.036949357521884579 0.25779740948740754 0.027618725994433903 0.15995844487439503 0.010360090892859981 0.16228179908918997 0.0055657615173711553 0.023212494466814303 -0.033704505042483408 0.082308246019211689 -0.0011242556973806263 0.12038840153677897 0.069367692982539156 0.1077236230138178 -0.068902612964288804 0.045174357806350672 -0.068996425549830168 -0.0056611489118742093 0.078436048447139695 0.0026633096836143882 0.17043558405411821 0.12502662582379398 -0.025131058196813345
leaf_weight=1194 36 283 45 58 35 36 47 33 30 60 54 37 140 143 61 74 54 40 43 38 50 105 50 61 69 62 40 30 32 128
leaf_count=1194 36 283 45 58 35 36 47 33 30 60 54 37 140 143 61 74 54 40 43 38 50 105 50 61 69 62 40 30 32 128
internal_value=0.000471741 0.0374955 0.0652457 0.081856 0.110823 0.00662123 0.132355 -0.00568359 0.157336 -0.0473676 0.0488399 0.0999065 0.139746 0.0295867 0.0293851 0.00178116 0.0590858 0.0781149 0.0716047 0.0202897 0.0619025 -0.0210611 -0.00866398 0.0132441 0.00138556 0.0344333 -0.0492773 0.115417 0.0815478 -0.00823896
internal_weight=3168 1786 940 712 378 846 305 686 215 1382 334 91 185 208 243 132 160 124 90 73 111 478 333 228 192 131 145 84 65 188
internal_count=3168 1786 940 712 378 846 305 686 215 1382 334 91 185 208 243 132 160 124 90 73 111 478 333 228 192 131 145 84 65 188
is_linear=0
shrinkage=0.05


Tree=32
num_leaves=31
num_cat=0
split_feature=1 4 1 2 3 3 3 4 1 1 1 3 3 3 6 1 7 7 3 3 1 1 1 7 4 1 6 5 6 6
split_gain=2461.6 532.517 246.356 244.94 198.069 165.438 194.085 123.63 139.383 134.85 135.215 170.722 184.345 137.443 105.003 98.2471 98.195 141.184 97.6005 97.0721 89.6927 84.1338 99.5043 104.444 92.8571 69.3287 68.8448 66.9958 65.6625 166.913
threshold=0.26849680420788274 0.62318815555752827 0.99055195831557497 0.56547784496723508 0.57916666666666672 0.91106321839080462 0.81522655426765023 0.81208563672350387 0.61943538960614941 0.58118387753844336 0.53087546356417525 0.90036764705882366 0.87434210526315781 0.82207792207792219 0.823320183452109 0.91146595359677096 0.57583692939718956 0.73029541048835467 0.83012820512820518 0.76466181506849329 0.34407455278131377 0.37956359983578652 0.61671759307479579 0.55781829624190937 0.71792135646823574 0.62303169769976996 0.66651217227376824 0.30680095211524305 0.093414304127198103 0.59427636798267813
decision_type=2 2 2 2 2 2 2 2 2 2 2 2 2 2 2 2 2 2 2 2 2 2 2 2 2 2 2 2 2 2
left_child=4 3 7 15 -1 6 -4 21 9 10 11 12 13 20 27 16 18 25 19 -2 -9 26 23 24 -23 -18 -3 -6 -10 -30
right_child=1 2 5 -5 14 -7 -8 8 28 -11 -12 -13 -14 -15 -16 -17 17 -19 -20 -21 -22 22 -24 -25 -26 -27 -28 -29 29 -31
leaf_value=0.064793142800529807 -0.028342006408060214 -0.062137499387915199 0.17937921089760495 0.14051679240599754 -0.049744496269184285 0.23596424758434298 0.0037149516399949791 0.14479363025987851 0.11734395100804731 -0.042598038001192939 0.12990946597174596 -0.010033808467275602 0.17657448462077552 -0.031552180424332624 0.021557149166862171 0.0690335418230721 0.027847572240759344 -0.036758391706530967 -0.054569100395439232 0.065230923769778987 0.04472133984763018 0.16784418094588596 0.010487380164131456 0.017278657187619863 0.061719404705441919 0.11586624162812387 0.035125655936343335 0.0073208553785527198 0.026597806691085992 0.16420796806773832
leaf_weight=41 77 37 31 30 1508 31 31 33 165 35 56 93 34 39 56 41 84 73 162 42 70 36 112 52 51 30 34 53 78 30
leaf_count=41 77 37 31 30 1508 31 31 33 165 35 56 93 34 39 56 41 84 73 162 42 70 36 112 52 51 30 34 53 78 30
internal_value=-3.44132e-05 0.0444631 0.065218 0.0040624 -0.0426275 0.142658 0.0930002 0.0575353 0.0703709 0.0497073 0.0597481 0.044715 0.073538 0.047805 -0.0453896 -0.00423985 -0.0107926 0.0172275 -0.0294344 0.00495211 0.0778673 0.032163 0.0457162 0.0738244 0.107041 0.0518165 -0.0157198 -0.0478035 0.0973386 0.0659787
internal_weight=3245 1587 1048 539 1658 93 62 955 633 360 325 269 176 142 1617 509 468 187 281 119 103 322 251 139 87 114 71 1561 273 108
internal_count=3245 1587 1048 539 1658 93 62 955 633 360 325 269 176 142 1617 509 468 187 281 119 103 322 251 139 87 114 71 1561 273 108
is_linear=0
shrinkage=0.05


Tree=33
num_leaves=31
num_cat=0
split_feature=1 4 4 1 4 4 3 7 1 1 1 1 4 4 5 7 6 4 4 3 4 7 1 7 6 1 2 6 6 1
split_gain=2003.94 372.81 350.028 298.692 157.787 169.034 152.3 148.041 156.225 144.81 116.58 103.541 96.5838 114.08 111.046 220.393 147.134 75.8363 73.8103 85.4333 71.5332 69.1596 57.5361 46.787 60.9322 46.6027 46.2074 44.4689 79.5989 71.4539
threshold=0.44382264064374816 0.90247172876026971 0.0074819902290845014 0.99969076792781786 0.96348594504704799 0.94420453726449838 0.57916666666666672 0.6538389648820927 0.99969076792781786 0.10595053138804891 0.76385325967176765 0.86509722074654849 0.76614845714764523 0.82740748455839974 0.16132226198020141 0.56555045593811037 0.21771159438952409 0.14321851209144429 0.93129070437157735 0.82207792207792219 0.39712028222995033 0.47354305469109675 0.7717575811946632 0.6416159791202507 0.71045237048121179 0.60832288289474812 0.3609101792765515 0.68716009130734179 0.25663663788199803 0.35217778561004326
decision_type=2 2 2 2 2 2 2 2 2 2 2 2 2 2 2 2 2 2 2 2 2 2 2 2 2 2 2 2 2 2
left_child=2 7 -1 4 5 18 -4 8 12 -8 -6 -9 14 21 15 22 -16 -11 19 -3 -19 -14 25 27 -25 -2 -18 28 -22 -30
right_child=1 3 6 -5 10 -7 9 11 -10 17 -12 -13 13 -15 16 -17 26 20 -20 -21 23 -23 -24 24 -26 -27 -28 -29 29 -31
leaf_value=-0.050038921387937502 -0.029240347236031441 0.038809333649863095 0.072847749265255765 0.2217429817762486 0.068109636540319041 0.17954735869605995 -0.038313101432940651 0.012522275351068896 0.13339831878741581 0.072216977711234781 -0.03911528603026742 -0.08730978009989486 0.15507266317804658 0.037176415903580395 0.12517060101875718 0.09876120542081035 0.058528037587529981 -0.049957655717248785 0.020362131583482723 0.14224763341391317 0.015392816557217016 0.057122428912450285 -0.066742074003024981 -0.066715644548336658 0.011163808330893518 0.02720896796125806 -0.022608909478936443 0.042431995182870386 -0.064747121023263896 0.025978424237109721
leaf_weight=991 81 34 53 42 76 57 371 137 47 34 37 31 44 128 52 48 31 72 42 51 288 33 48 50 49 65 38 82 68 31
leaf_count=991 81 34 53 42 76 57 371 137 47 34 37 31 44 128 52 48 31 72 42 51 288 33 48 50 49 65 38 82 68 31
internal_value=0.000434752 0.0543038 -0.0285104 0.0980516 0.0798744 0.108349 -0.00905203 0.0352624 0.0466096 -0.0132715 0.0329654 -0.00630674 0.0392063 0.0665834 0.023605 0.00397951 0.0625016 0.000548912 0.0752404 0.101805 -0.00336518 0.114365 -0.0198578 0.00261833 -0.0284431 -0.00409467 0.0141593 0.00922157 0.00209351 -0.0363624
internal_weight=3211 1122 2089 339 297 184 1098 783 615 1045 113 168 568 205 363 242 121 674 127 85 640 77 194 568 99 146 69 469 387 99
internal_count=3211 1122 2089 339 297 184 1098 783 615 1045 113 168 568 205 363 242 121 674 127 85 640 77 194 568 99 146 69 469 387 99
is_linear=0
shrinkage=0.05


Tree=34
num_leaves=31
num_cat=0
split_feature=0 4 0 1 4 5 0 4 4 4 6 6 2 5 1 6 6 0 1 4 1 4 5 0 0 0 1 4 7 1
split_gain=1734.45 758.033 296.554 274.595 251.026 232.715 199.939 198.609 274.265 158.643 156.629 151.219 128.797 143.493 98.0073 94.1754 115.717 148.151 99.486 92.3972 84.6218 81.5219 79.1964 146.172 81.3229 56.9584 51.5663 67.7967 54.0901 47.2577
threshold=0.012551640948888252 0.88036968405664939 0.90825912643301365 0.81748676678199172 0.98061163473078194 0.51751800335996767 0.96943933582753006 0.96348594504704799 0.9427315836372433 0.83201019343343674 0.67689448055080981 0.80040137147599477 0.19717407599256143 0.34350700228411318 0.9815981517246436 0.50561182436146568 0.031746847250549805 0.080958601508551761 0.67407797160805749 0.99834079820232746 0.29290611533722405 0.93045770567552177 0.2000409957425002 0.94693803894635475 0.92985514996194485 0.87839820543000624 0.54048572054149591 0.61850878042634805 0.47854765952605588 0.5190315579553183
decision_type=2 2 2 2 2 2 2 2 2 2 2 2 2 2 2 2 2 2 2 2 2 2 2 2 2 2 2 2 2 2
left_child=19 2 5 6 14 9 7 8 20 12 22 -12 15 -14 -5 16 17 -2 -18 26 -3 -22 24 -24 -4 -19 27 -1 -29 -9
right_child=1 3 10 4 -6 -7 -8 29 -10 -11 11 -13 13 -15 -16 -17 18 25 -20 -21 21 -23 23 -25 -26 -27 -28 28 -30 -31
leaf_value=-0.044967174307658599 -0.050560970699939978 0.0021390309195487285 -0.0022538593803238609 0.15302043694491482 0.27394407843389817 0.16582681766965174 -0.041368658386352591 -0.012288701708894224 0.19634876093217013 0.1035147526671016 0.093984476537867026 -0.0058338343854842153 0.12320276470685548 0.014342304950822955 0.047542995358318359 -0.029392641891183249 0.017375510315532271 0.09939458528533579 0.1255002451424555 0.033687557138147806 0.10524887527008692 0.012925578653812409 -0.050586374508181833 0.069224353218261078 -0.060549245917693131 0.0033800593907794643 -0.098123293351382021 -0.028774360610970801 0.02757925951986441 0.051442393361300721
leaf_weight=1201 77 36 83 50 30 32 40 55 57 62 54 122 54 68 41 133 45 31 40 41 123 30 52 48 214 30 39 178 55 60
leaf_count=1201 77 36 83 50 30 32 40 55 57 62 54 122 54 68 41 133 45 31 40 41 123 30 52 48 214 30 39 178 55 60
internal_value=-0.00098637 0.0341895 0.0113983 0.0840645 0.149944 0.0368365 0.0638623 0.0756043 0.100886 0.0289002 -0.0140155 0.0251502 0.0190263 0.0631364 0.106531 0.00377541 0.0236002 -0.00473631 0.0691254 -0.039714 0.0712142 0.0873477 -0.0313982 0.00703877 -0.0443202 0.0529905 -0.0417786 -0.0401789 -0.015411 0.0211191
internal_weight=3181 1667 1145 522 121 572 401 361 246 540 573 176 478 122 91 356 223 138 85 1514 189 153 397 100 297 61 1473 1434 233 115
internal_count=3181 1667 1145 522 121 572 401 361 246 540 573 176 478 122 91 356 223 138 85 1514 189 153 397 100 297 61 1473 1434 233 115
is_linear=0
shrinkage=0.05


Tree=35
num_leaves=31
num_cat=0
split_feature=1 7 4 1 1 0 0 6 6 0 0 0 4 6 1 4 0 4 4 0 0 6 6 6 6 4 6 5 1 0
split_gain=1847.25 434.22 308.206 305.125 265.646 157.203 197.754 152.76 228.62 118.445 112.2 169.534 118.258 122.463 104.846 109.252 100.695 94.1793 149.153 90.6005 154.507 135.137 112.756 82.6684 80.9973 89.8306 77.1391 68.6322 62.2587 59.6833
threshold=0.40878275071474462 0.6538389648820927 0.76614845714764523 0.10595053138804891 0.99969076792781786 0.96943933582753006 0.023466243009575252 0.093414304127198103 0.55642005668334049 0.95458023349857968 0.76346147206262505 0.0079173446445115012 0.83511867096392967 0.65874950302395796 0.97500092195106858 0.97101775629889153 0.90281346186191069 0.9203330985704915 0.89521322144367688 0.88954602293560214 0.063370509086160765 0.61614369322430751 0.87007674911000765 0.99914173046650312 0.13897886139420881 0.14321851209144429 0.28670488464258542 0.16575600061905418 0.27880858000137759 0.86073896865044774
decision_type=2 2 2 2 2 2 2 2 2 2 2 2 2 2 2 2 2 2 2 2 2 2 2 2 2 2 2 2 2 2
left_child=3 2 4 -1 19 6 -4 14 -9 10 11 26 23 28 15 17 -3 18 -8 20 24 27 -23 -12 25 -2 -5 -21 -14 -17
right_child=1 16 5 9 -6 -7 7 8 -10 -11 12 -13 13 -15 -16 29 -18 -19 -20 21 -22 22 -24 -25 -26 -27 -28 -29 -30 -31
leaf_value=-0.041191198224256653 0.057112588601246961 0.024013777003947939 0.037771076465194876 0.021827746980956624 0.17103465298423545 0.020578282757045388 0.15697272955154887 0.022103607296012344 0.15281597778752998 -0.071222153995875961 -0.0056267937288925537 -0.097913594439364315 -0.010693532366143621 0.1455711735325167 0.20934663011946461 0.014219195878831671 -0.046991811787276613 0.18398123581726583 0.014873526870243013 -0.055821203210155712 0.1174666837685638 0.11820261699812754 -0.011331447518684647 0.07592927999794484 0.063653035663952265 -0.048043173191658524 -0.066727185525721128 0.01777042885672073 0.069788141344107837 0.11209031719117775
leaf_weight=1298 30 88 109 118 31 76 48 89 53 53 276 56 45 31 43 31 113 77 30 90 53 34 32 34 58 58 30 48 50 31
leaf_count=1298 30 88 109 118 31 76 48 89 53 53 276 56 45 31 43 31 113 77 30 90 53 34 32 34 58 58 30 48 50 31
internal_value=0.00279971 0.0511687 0.0643827 -0.0268981 0.0323263 0.0879884 0.0979544 0.114139 0.0716181 -0.000106108 0.00588511 -0.0246445 0.0201933 0.0608313 0.136998 0.121767 -0.0159398 0.144252 0.103199 0.0212595 0.0451734 -0.00217475 0.0561665 0.00353345 0.0183093 -0.0119557 0.00355006 -0.0302804 0.031951 0.0641572
internal_weight=3213 1222 1021 1991 434 587 511 402 142 693 640 204 436 126 260 217 201 155 78 403 199 204 66 310 146 88 148 138 95 62
internal_count=3213 1222 1021 1991 434 587 511 402 142 693 640 204 436 126 260 217 201 155 78 403 199 204 66 310 146 88 148 138 95 62
is_linear=0
shrinkage=0.05


Tree=36
num_leaves=31
num_cat=0
split_feature=4 1 2 2 3 4 0 0 4 3 4 1 2 1 1 1 0 0 4 0 3 0 7 4 3 4 3 7 4 0
split_gain=1449.57 401.993 260.361 214.316 150.033 197.649 156.697 211.839 149.044 119.085 212.517 124.16 125.438 100.976 99.3025 86.8434 86.4435 85.6727 83.262 89.7296 99.4287 76.803 73.5573 142.77 118.139 102.213 72.5906 61.5171 58.6357 134.505
