{"learner":{"attributes":{"best_iteration":"599","best_ntree_limit":"600","scikit_learn":"{\"n_estimators\": 600, \"objective\": \"reg:squarederror\", \"max_depth\": 4, \"max_leaves\": null, \"max_bin\": null, \"grow_policy\": null, \"learning_rate\": 0.05, \"verbosity\": null, \"booster\": null, \"tree_method\": \"hist\", \"gamma\": null, \"min_child_weight\": 1.0, \"max_delta_step\": null, \"subsample\": 0.8, \"sampling_method\": null, \"colsample_bytree\": 0.8, \"colsample_bylevel\": null, \"colsample_bynode\": null, \"reg_alpha\": 0.0, \"reg_lambda\": 1.0, \"scale_pos_weight\": null, \"base_score\": null, \"missing\": NaN, \"num_parallel_tree\": null, \"random_state\": 42, \"n_jobs\": -1, \"monotone_constraints\": null, \"interaction_constraints\": null, \"importance_type\": null, \"gpu_id\": null, \"validate_parameters\": null, \"predictor\": null, \"enable_categorical\": false, \"feature_types\": null, \"max_cat_to_onehot\": null, \"max_cat_threshold\": null, \"eval_metric\": null, \"early_stopping_rounds\": null, \"callbacks\": null, \"_estimator_type\": \"regressor\"}"},"feature_names":[],"feature_types":[],"gradient_booster":{"model":{"gbtree_model_param":{"num_parallel_tree":"1","num_trees":"600","size_leaf_vector":"0"},"tree_info":[0,0,0,0,0,0,0,0,0,0,0,0,0,0,0,0,0,0,0,0,0,0,0,0,0,0,0,0,0,0,0,0,0,0,0,0,0,0,0,0,0,0,0,0,0,0,0,0,0,0,0,0,0,0,0,0,0,0,0,0,0,0,0,0,0,0,0,0,0,0,0,0,0,0,0,0,0,0,0,0,0,0,0,0,0,0,0,0,0,0,0,0,0,0,0,0,0,0,0,0,0,0,0,0,0,0,0,0,0,0,0,0,0,0,0,0,0,0,0,0,0,0,0,0,0,0,0,0,0,0,0,0,0,0,0,0,0,0,0,0,0,0,0,0,0,0,0,0,0,0,0,0,0,0,0,0,0,0,0,0,0,0,0,0,0,0,0,0,0,0,0,0,0,0,0,0,0,0,0,0,0,0,0,0,0,0,0,0,0,0,0,0,0,0,0,0,0,0,0,0,0,0,0,0,0,0,0,0,0,0,0,0,0,0,0,0,0,0,0,0,0,0,0,0,0,0,0,0,0,0,0,0,0,0,0,0,0,0,0,0,0,0,0,0,0,0,0,0,0,0,0,0,0,0,0,0,0,0,0,0,0,0,0,0,0,0,0,0,0,0,0,0,0,0,0,0,0,0,0,0,0,0,0,0,0,0,0,0,0,0,0,0,0,0,0,0,0,0,0,0,0,0,0,0,0,0,0,0,0,0,0,0,0,0,0,0,0,0,0,0,0,0,0,0,0,0,0,0,0,0,0,0,0,0,0,0,0,0,0,0,0,0,0,0,0,0,0,0,0,0,0,0,0,0,0,0,0,0,0,0,0,0,0,0,0,0,0,0,0,0,0,0,0,0,0,0,0,0,0,0,0,0,0,0,0,0,0,0,0,0,0,0,0,0,0,0,0,0,0,0,0,0,0,0,0,0,0,0,0,0,0,0,0,0,0,0,0,0,0,0,0,0,0,0,0,0,0,0,0,0,0,0,0,0,0,0,0,0,0,0,0,0,0,0,0,0,0,0,0,0,0,0,0,0,0,0,0,0,0,0,0,0,0,0,0,0,0,0,0,0,0,0,0,0,0,0,0,0,0,0,0,0,0,0,0,0,0,0,0,0,0,0,0,0,0,0,0,0,0,0,0,0,0,0,0,0,0,0,0,0,0,0,0,0,0,0,0,0,0,0,0,0,0,0,0,0,0,0,0,0,0,0,0,0,0,0,0,0,0,0,0,0,0,0,0,0,0,0,0,0,0,0,0,0,0,0,0,0,0,0,0,0,0,0,0,0,0,0,0,0,0,0,0,0,0,0,0,0,0,0,0,0,0,0,0,0,0,0,0,0,0,0,0,0,0,0,0,0,0,0],"trees":[{"base_weights":[1.3177753E1,6.634321E0,3.532602E1,3.925946E0,3.221464E1,2.890954E1,5.5176796E1,1.1429614E0,1.2487271E1,2.7480852E1,6.766455E1,2.4391983E1,3.3818283E1,2.4350488E0,3.5957334E0,4.6893666E-3,4.3616492E-1,4.818917E-1,8.088633E-1,1.1001225E0,1.7455155E0,2.8631427E0,4.4601645E0,1.1442411E0,1.791416E0,1.6226168E0,2.1289604E0],"categories":[],"categories_nodes":[],"categories_segments":[],"categories_sizes":[],"default_left":[0,0,0,0,0,0,0,0,0,0,0,0,0,0,0,0,0,0,0,0,0,0,0,0,0,0,0],"id":0,"left_children":[1,3,5,7,9,11,13,15,17,19,21,23,25,-1,-1,-1,-1,-1,-1,-1,-1,-1,-1,-1,-1,-1,-1],"loss_changes":[4.6062925E5,1.7002792E5,9.074969E4,5.2927184E4,3.7576453E4,1.1371656E4,1.5574625E4,1.3344472E4,5.5744297E3,7.7385156E3,9.4103125E2,4.1786094E3,1.7415312E3,0E0,0E0,0E0,0E0,0E0,0E0,0E0,0E0,0E0,0E0,0E0,0E0,0E0,0E0],"parents":[2147483647,0,0,1,1,2,2,3,3,4,4,5,5,6,6,7,7,8,8,9,9,10,10,11,11,12,12],"right_children":[2,4,6,8,10,12,14,16,18,20,22,24,26,-1,-1,-1,-1,-1,-1,-1,-1,-1,-1,-1,-1,-1,-1],"split_conditions":[6.883363E0,7.8140564E0,1.6638252E1,1.0811294E0,2.7120312E1,1.0644479E1,2.552864E1,1.564103E0,4.2485423E0,1.39115095E1,3.9282146E1,4.1913843E0,2.441157E0,2.4350488E0,3.5957334E0,4.6893666E-3,4.3616492E-1,4.818917E-1,8.088633E-1,1.1001225E0,1.7455155E0,2.8631427E0,4.4601645E0,1.1442411E0,1.791416E0,1.6226168E0,2.1289604E0],"split_indices":[8,9,8,8,9,8,8,9,8,9,9,9,9,0,0,0,0,0,0,0,0,0,0,0,0,0,0],"split_type":[0,0,0,0,0,0,0,0,0,0,0,0,0,0,0,0,0,0,0,0,0,0,0,0,0,0,0],"sum_hessian":[3.179E3,2.455E3,7.24E2,2.221E3,2.34E2,5.49E2,1.75E2,1.677E3,5.44E2,2.08E2,2.6E1,2.89E2,2.6E2,1.29E2,4.6E1,1.474E3,2.03E2,3.09E2,2.35E2,1.22E2,8.6E1,2E1,6E0,2.58E2,3.1E1,2.29E2,3.1E1],"tree_param":{"num_deleted":"0","num_feature":"20","num_nodes":"27","size_leaf_vector":"0"}},{"base_weights":[1.28471575E1,6.716139E0,3.365105E1,3.9148188E0,3.193491E1,2.8098259E1,5.345506E1,1.4558393E0,1.2693874E1,2.607788E1,5.9622982E1,2.4083622E1,3.3732555E1,4.832607E1,3.6778457E0,2.2999646E-2,5.196386E-1,5.160788E-1,7.9302967E-1,1.0924537E0,1.7199372E0,2.311465E0,3.4338677E0,1.1372128E0,1.9537598E0,1.6229063E0,2.2240055E0,2.1612113E0,2.6376266E0],"categories":[],"categories_nodes":[],"categories_segments":[],"categories_sizes":[],"default_left":[0,0,0,0,0,0,0,0,0,0,0,0,0,0,0,0,0,0,0,0,0,0,0,0,0,0,0,0,0],"id":1,"left_children":[1,3,5,7,9,11,13,15,17,19,21,23,25,27,-1,-1,-1,-1,-1,-1,-1,-1,-1,-1,-1,-1,-1,-1,-1],"loss_changes":[4.044872E5,1.7309862E5,7.789456E4,4.764676E4,3.8176766E4,1.19903125E4,1.2632281E4,1.5356295E4,3.4647812E3,6.426625E3,1.9184844E3,5.8177344E3,1.7476562E3,6.1046875E2,0E0,0E0,0E0,0E0,0E0,0E0,0E0,0E0,0E0,0E0,0E0,0E0,0E0,0E0,0E0],"parents":[2147483647,0,0,1,1,2,2,3,3,4,4,5,5,6,6,7,7,8,8,9,9,10,10,11,11,12,12,13,13],"right_children":[2,4,6,8,10,12,14,16,18,20,22,24,26,28,-1,-1,-1,-1,-1,-1,-1,-1,-1,-1,-1,-1,-1,-1,-1],"split_conditions":[6.883363E0,8.013757E0,1.7563288E1,1.6943784E0,2.4629501E1,1.1244559E1,2.7962513E1,2.6510415E0,4.758042E0,1.4466539E1,3.2286545E1,5.874897E0,3.9051874E0,2.0831842E1,3.6778457E0,2.2999646E-2,5.196386E-1,5.160788E-1,7.9302967E-1,1.0924537E0,1.7199372E0,2.311465E0,3.4338677E0,1.1372128E0,1.9537598E0,1.6229063E0,2.2240055E0,2.1612113E0,2.6376266E0],"split_indices":[8,9,8,8,9,8,8,9,8,9,9,9,9,8,0,0,0,0,0,0,0,0,0,0,0,0,0,0,0],"split_type":[0,0,0,0,0,0,0,0,0,0,0,0,0,0,0,0,0,0,0,0,0,0,0,0,0,0,0,0,0],"sum_hessian":[3.172E3,2.451E3,7.21E2,2.207E3,2.44E2,5.65E2,1.56E2,1.725E3,4.82E2,2.03E2,4.1E1,3.33E2,2.32E2,1.27E2,2.9E1,1.553E3,1.72E2,2.78E2,2.04E2,1.37E2,6.6E1,1.9E1,2.2E1,3.08E2,2.5E1,2.11E2,2.1E1,6.4E1,6.3E1],"tree_param":{"num_deleted":"0","num_feature":"20","num_nodes":"29","size_leaf_vector":"0"}},{"base_weights":[1.2136677E1,5.7756715E0,3.0683187E1,3.3755426E0,3.182595E1,2.5351751E1,4.8759487E1,1.0386868E0,1.0085947E1,2.5237532E1,5.6921303E1,2.1993828E1,3.1179731E1,4.3555344E1,3.2987568E0,8.977929E-3,5.5291045E-1,3.495178E-1,6.403076E-1,1.1066025E0,1.6622425E0,2.511476E0,3.9123104E0,1.0300483E0,1.9066744E0,1.4918184E0,2.123168E0,1.9816418E0,2.4153557E0],"categories":[],"categories_nodes":[],"categories_segments":[],"categories_sizes":[],"default_left":[0,0,0,0,0,0,0,0,0,0,0,0,0,0,0,0,0,0,0,0,0,0,0,0,0,0,0,0,0],"id":2,"left_children":[1,3,5,7,9,11,13,15,17,19,21,23,25,27,-1,-1,-1,-1,-1,-1,-1,-1,-1,-1,-1,-1,-1,-1,-1],"loss_changes":[3.77341E5,1.4894984E5,7.750031E4,3.4237367E4,3.1796531E4,1.1702E4,1.37010625E4,1.3951669E4,4.6597227E3,3.2677422E3,1.9205E3,8.318922E3,2.2042031E3,7.8809375E2,0E0,0E0,0E0,0E0,0E0,0E0,0E0,0E0,0E0,0E0,0E0,0E0,0E0,0E0,0E0],"parents":[2147483647,0,0,1,1,2,2,3,3,4,4,5,5,6,6,7,7,8,8,9,9,10,10,11,11,12,12,13,13],"right_children":[2,4,6,8,10,12,14,16,18,20,22,24,26,28,-1,-1,-1,-1,-1,-1,-1,-1,-1,-1,-1,-1,-1,-1,-1],"split_conditions":[6.121237E0,9.318053E0,1.6335278E1,5.438447E-1,2.4629501E1,1.1175062E1,2.552864E1,3.348426E0,3.0267365E0,1.6200274E1,3.9282146E1,6.283589E0,3.9051874E0,2.045038E1,3.2987568E0,8.977929E-3,5.5291045E-1,3.495178E-1,6.403076E-1,1.1066025E0,1.6622425E0,2.511476E0,3.9123104E0,1.0300483E0,1.9066744E0,1.4918184E0,2.123168E0,1.9816418E0,2.4153557E0],"split_indices":[8,9,8,8,9,8,8,9,8,9,9,9,9,8,0,0,0,0,0,0,0,0,0,0,0,0,0,0,0],"split_type":[0,0,0,0,0,0,0,0,0,0,0,0,0,0,0,0,0,0,0,0,0,0,0,0,0,0,0,0,0],"sum_hessian":[3.199E3,2.383E3,8.16E2,2.183E3,2E2,6.32E2,1.84E2,1.62E3,5.63E2,1.6E2,4E1,4.04E2,2.28E2,1.44E2,4E1,1.493E3,1.27E2,2.65E2,2.98E2,1.18E2,4.2E1,3.3E1,7E0,3.74E2,3E1,2.07E2,2.1E1,8.4E1,6E1],"tree_param":{"num_deleted":"0","num_feature":"20","num_nodes":"29","size_leaf_vector":"0"}},{"base_weights":[1.1447731E1,5.5254784E0,2.8995094E1,3.3389297E0,3.2588272E1,2.384789E1,4.607957E1,1.1970935E0,9.471302E0,2.600079E1,5.220894E1,2.2677536E1,1.9553355E0,2.013545E0,5.9532787E1,9.795529E-3,5.7764035E-1,3.8719162E-1,7.28797E-1,1.1362327E0,1.6396016E0,2.207853E0,3.2416055E0,9.455221E-1,1.3847469E0,2.654207E0,3.638017E0],"categories":[],"categories_nodes":[],"categories_segments":[],"categories_sizes":[],"default_left":[0,0,0,0,0,0,0,0,0,0,0,0,0,0,0,0,0,0,0,0,0,0,0,0,0,0,0],"id":3,"left_children":[1,3,5,7,9,11,13,15,17,19,21,23,-1,-1,25,-1,-1,-1,-1,-1,-1,-1,-1,-1,-1,-1,-1],"loss_changes":[3.3269528E5,1.4167238E5,6.9954375E4,2.9121062E4,2.1778422E4,1.0238875E4,1.2137594E4,1.7053037E4,4.9487227E3,2.2806875E3,1.609375E3,1.0457781E4,0E0,0E0,7.437969E2,0E0,0E0,0E0,0E0,0E0,0E0,0E0,0E0,0E0,0E0,0E0,0E0],"parents":[2147483647,0,0,1,1,2,2,3,3,4,4,5,5,6,6,7,7,8,8,9,9,10,10,11,11,14,14],"right_children":[2,4,6,8,10,12,14,16,18,20,22,24,-1,-1,26,-1,-1,-1,-1,-1,-1,-1,-1,-1,-1,-1,-1],"split_conditions":[6.121237E0,1.0447499E1,1.6335278E1,5.088435E-1,2.4629501E1,6.283589E0,2.4394148E1,3.5106049E0,2.0662904E0,1.7018335E1,3.519539E1,1.056752E1,1.9553355E0,2.013545E0,3.269781E1,9.795529E-3,5.7764035E-1,3.8719162E-1,7.28797E-1,1.1362327E0,1.6396016E0,2.207853E0,3.2416055E0,9.455221E-1,1.3847469E0,2.654207E0,3.638017E0],"split_indices":[8,9,8,8,9,9,8,9,9,9,9,8,0,0,8,0,0,0,0,0,0,0,0,0,0,0,0],"split_type":[0,0,0,0,0,0,0,0,0,0,0,0,0,0,0,0,0,0,0,0,0,0,0,0,0,0,0],"sum_hessian":[3.202E3,2.395E3,8.07E2,2.217E3,1.78E2,6.22E2,1.85E2,1.644E3,5.73E2,1.35E2,4.3E1,5.8E2,4.2E1,1.32E2,5.3E1,1.5E3,1.44E2,4.3E2,1.43E2,9.4E1,4.1E1,2.9E1,1.4E1,3.34E2,2.46E2,3.9E1,1.4E1],"tree_param":{"num_deleted":"0","num_feature":"20","num_nodes":"27","size_leaf_vector":"0"}},{"base_weights":[1.0882774E1,1.973512E0,2.0299707E1,3.516086E-1,8.474846E0,1.7633522E1,3.8418858E1,1.9957478E-1,1.0124042E0,1.0314615E1,5.3501105E0,1.5026737E1,2.115556E1,3.4642982E1,2.5655863E0,7.276324E-3,1.1858062E0,7.05424E-1,3.739054E-1,2.13931E-1,4.3563142E-1,4.5571217E-1,8.366491E-1,1.3037986E0,8.540765E-1,1.4959269E0,1.8745543E0],"categories":[],"categories_nodes":[],"categories_segments":[],"categories_sizes":[],"default_left":[0,0,0,0,0,0,0,0,0,0,0,0,0,0,0,0,0,0,0,0,0,0,0,0,0,0,0],"id":4,"left_children":[1,3,5,7,9,11,13,15,-1,17,19,21,23,25,-1,-1,-1,-1,-1,-1,-1,-1,-1,-1,-1,-1,-1],"loss_changes":[2.6885278E5,1.7374416E4,7.458794E4,3.9888762E3,1.836168E3,1.2168531E4,7.9100938E3,1.6628679E3,0E0,2.11133E3,4.094829E2,7.766703E3,1.1101031E4,9.908594E2,0E0,0E0,0E0,0E0,0E0,0E0,0E0,0E0,0E0,0E0,0E0,0E0,0E0],"parents":[2147483647,0,0,1,1,2,2,3,3,4,4,5,5,6,6,7,7,9,9,10,10,11,11,12,12,13,13],"right_children":[2,4,6,8,10,12,14,16,-1,18,20,22,24,26,-1,-1,-1,-1,-1,-1,-1,-1,-1,-1,-1,-1,-1],"split_conditions":[2.714063E-1,1.09028555E-1,1.6965878E1,6.635582E0,8.601695E-1,5.9319353E-1,2.9528513E1,1.7612035E-4,1.0124042E0,4.3580565E-3,2.3978426E-1,4.1603866E-1,4.3580565E-3,2.013734E1,2.5655863E0,7.276324E-3,1.1858062E0,7.05424E-1,3.739054E-1,2.13931E-1,4.3563142E-1,4.5571217E-1,8.366491E-1,1.3037986E0,8.540765E-1,1.4959269E0,1.8745543E0],"split_indices":[1,1,14,14,3,1,14,11,0,14,1,4,14,14,0,0,0,0,0,0,0,0,0,0,0,0,0],"split_type":[0,0,0,0,0,0,0,0,0,0,0,0,0,0,0,0,0,0,0,0,0,0,0,0,0,0,0],"sum_hessian":[3.204E3,1.647E3,1.557E3,1.319E3,3.28E2,1.359E3,1.98E2,1.31E3,9E0,2.05E2,1.23E2,7.84E2,5.75E2,1.56E2,4.2E1,1.308E3,2E0,8.6E1,1.19E2,9.5E1,2.8E1,1.77E2,6.07E2,2.58E2,3.17E2,6.3E1,9.3E1],"tree_param":{"num_deleted":"0","num_feature":"20","num_nodes":"27","size_leaf_vector":"0"}},{"base_weights":[1.0253501E1,4.986491E0,2.6327202E1,2.3400207E0,2.4901329E1,2.107202E1,4.0447193E1,4.738233E-1,7.94821E0,1.9904686E1,4.6303585E1,1.9847267E1,3.453895E1,3.5884415E1,5.469543E1,-8.9564575E-3,2.9070663E-1,2.579802E-1,5.258423E-1,8.58359E-1,1.3264912E0,1.8573815E0,2.790961E0,8.5353965E-1,1.2293258E0,1.5007555E0,2.03783E0,1.6235125E0,1.9682311E0,2.3879154E0,3.1750154E0],"categories":[],"categories_nodes":[],"categories_segments":[],"categories_sizes":[],"default_left":[0,0,0,0,0,0,0,0,0,0,0,0,0,0,0,0,0,0,0,0,0,0,0,0,0,0,0,0,0,0,0],"id":5,"left_children":[1,3,5,7,9,11,13,15,17,19,21,23,25,27,29,-1,-1,-1,-1,-1,-1,-1,-1,-1,-1,-1,-1,-1,-1,-1,-1],"loss_changes":[2.7196703E5,1.27590875E5,5.799075E4,2.2382984E4,2.944914E4,8.8808125E3,1.194975E4,5.6011123E3,3.7707344E3,3.7521875E3,2.5440547E3,6.606875E3,9.869141E1,6.823594E2,2.1359375E1,0E0,0E0,0E0,0E0,0E0,0E0,0E0,0E0,0E0,0E0,0E0,0E0,0E0,0E0,0E0,0E0],"parents":[2147483647,0,0,1,1,2,2,3,3,4,4,5,5,6,6,7,7,8,8,9,9,10,10,11,11,12,12,13,13,14,14],"right_children":[2,4,6,8,10,12,14,16,18,20,22,24,26,28,30,-1,-1,-1,-1,-1,-1,-1,-1,-1,-1,-1,-1,-1,-1,-1,-1],"split_conditions":[6.121237E0,6.9896083E0,1.4977838E1,5.438447E-1,2.2471735E1,6.283589E0,2.4394148E1,1.3034775E0,3.0267365E0,1.4102212E1,3.2286545E1,1.0644479E1,1.2657367E1,1.868921E1,2.9846834E1,-8.9564575E-3,2.9070663E-1,2.579802E-1,5.258423E-1,8.58359E-1,1.3264912E0,1.8573815E0,2.790961E0,8.5353965E-1,1.2293258E0,1.5007555E0,2.03783E0,1.6235125E0,1.9682311E0,2.3879154E0,3.1750154E0],"split_indices":[8,9,8,8,9,9,8,9,8,9,9,8,9,8,8,0,0,0,0,0,0,0,0,0,0,0,0,0,0,0,0],"split_type":[0,0,0,0,0,0,0,0,0,0,0,0,0,0,0,0,0,0,0,0,0,0,0,0,0,0,0,0,0,0,0],"sum_hessian":[3.213E3,2.421E3,7.92E2,2.138E3,2.83E2,5.79E2,2.13E2,1.605E3,5.33E2,2.31E2,5.2E1,5.33E2,4.6E1,1.64E2,4.9E1,1.431E3,1.74E2,2.57E2,2.76E2,1.66E2,6.5E1,2.9E1,2.3E1,3.39E2,1.94E2,3E1,1.6E1,8.8E1,7.6E1,3.1E1,1.8E1],"tree_param":{"num_deleted":"0","num_feature":"20","num_nodes":"31","size_leaf_vector":"0"}},{"base_weights":[9.754674E0,4.56927E0,2.529863E1,2.2128434E0,2.3359213E1,2.1199997E1,4.133237E1,7.139248E-1,9.020688E0,1.8987904E1,4.3852695E1,2.0037746E1,3.533887E1,3.7523632E1,2.868739E0,-3.0601646E-3,2.828634E-1,3.7982234E-1,6.311719E-1,8.12187E-1,1.2526472E0,1.8353909E0,2.958301E0,8.154395E-1,1.2353964E0,1.6063904E0,2.7943113E0,1.6795613E0,2.0874104E0],"categories":[],"categories_nodes":[],"categories_segments":[],"categories_sizes":[],"default_left":[0,0,0,0,0,0,0,0,0,0,0,0,0,0,0,0,0,0,0,0,0,0,0,0,0,0,0,0,0],"id":6,"left_children":[1,3,5,7,9,11,13,15,17,19,21,23,25,27,-1,-1,-1,-1,-1,-1,-1,-1,-1,-1,-1,-1,-1,-1,-1],"loss_changes":[2.5643953E5,1.0568208E5,5.1434062E4,2.1657512E4,2.29965E4,9.7431875E3,7.6844062E3,6.6713784E3,1.8693477E3,3.2712578E3,2.861086E3,9.871844E3,1.3055039E3,8.07125E2,0E0,0E0,0E0,0E0,0E0,0E0,0E0,0E0,0E0,0E0,0E0,0E0,0E0,0E0,0E0],"parents":[2147483647,0,0,1,1,2,2,3,3,4,4,5,5,6,6,7,7,8,8,9,9,10,10,11,11,12,12,13,13],"right_children":[2,4,6,8,10,12,14,16,18,20,22,24,26,28,-1,-1,-1,-1,-1,-1,-1,-1,-1,-1,-1,-1,-1,-1,-1],"split_conditions":[6.121237E0,6.9896083E0,1.7259777E1,1.6943784E0,2.2471735E1,6.283589E0,2.7962513E1,1.3034775E0,1.0809013E0,1.4102212E1,3.519539E1,1.0644479E1,1.8492199E1,2.0831842E1,2.868739E0,-3.0601646E-3,2.828634E-1,3.7982234E-1,6.311719E-1,8.12187E-1,1.2526472E0,1.8353909E0,2.958301E0,8.154395E-1,1.2353964E0,1.6063904E0,2.7943113E0,1.6795613E0,2.0874104E0],"split_indices":[8,9,8,8,9,9,8,9,9,9,9,8,9,8,0,0,0,0,0,0,0,0,0,0,0,0,0,0,0],"split_type":[0,0,0,0,0,0,0,0,0,0,0,0,0,0,0,0,0,0,0,0,0,0,0,0,0,0,0,0,0],"sum_hessian":[3.182E3,2.387E3,7.95E2,2.122E3,2.65E2,6.35E2,1.6E2,1.74E3,3.82E2,2.2E2,4.5E1,5.89E2,4.6E1,1.32E2,2.8E1,1.505E3,2.35E2,2.76E2,1.06E2,1.54E2,6.6E1,3.3E1,1.2E1,3.3E2,2.59E2,4.2E1,4E0,7.3E1,5.9E1],"tree_param":{"num_deleted":"0","num_feature":"20","num_nodes":"29","size_leaf_vector":"0"}},{"base_weights":[9.253687E0,4.840813E0,2.5874662E1,3.1065764E0,2.7541193E1,2.227637E1,4.239111E1,1.3746898E0,1.0380525E1,2.2407331E1,4.6271057E1,1.9472118E1,1.3935243E0,1.923872E0,2.9037876E0,2.3887945E-2,5.067359E-1,4.512324E-1,7.469873E-1,9.6254987E-1,1.3892765E0,2.0318034E0,2.8992712E0,9.192776E-1,1.667503E0],"categories":[],"categories_nodes":[],"categories_segments":[],"categories_sizes":[],"default_left":[0,0,0,0,0,0,0,0,0,0,0,0,0,0,0,0,0,0,0,0,0,0,0,0,0],"id":7,"left_children":[1,3,5,7,9,11,13,15,17,19,21,23,-1,-1,-1,-1,-1,-1,-1,-1,-1,-1,-1,-1,-1],"loss_changes":[2.3663653E5,1.0038115E5,3.929047E4,2.9867367E4,1.6367516E4,8.210781E3,5.1315156E3,1.5057297E4,2.684039E3,1.9095547E3,1.5209375E2,5.041578E3,0E0,0E0,0E0,0E0,0E0,0E0,0E0,0E0,0E0,0E0,0E0,0E0,0E0],"parents":[2147483647,0,0,1,1,2,2,3,3,4,4,5,5,6,6,7,7,8,8,9,9,10,10,11,11],"right_children":[2,4,6,8,10,12,14,16,18,20,22,24,-1,-1,-1,-1,-1,-1,-1,-1,-1,-1,-1,-1,-1],"split_conditions":[7.4656763E0,1.0717098E1,1.905513E1,2.7306786E0,2.7120312E1,1.3088074E1,2.9846834E1,3.9051874E0,1.564103E0,1.7018335E1,3.9282146E1,6.9896083E0,1.3935243E0,1.923872E0,2.9037876E0,2.3887945E-2,5.067359E-1,4.512324E-1,7.469873E-1,9.6254987E-1,1.3892765E0,2.0318034E0,2.8992712E0,9.192776E-1,1.667503E0],"split_indices":[8,9,8,8,9,8,8,9,9,9,9,9,0,0,0,0,0,0,0,0,0,0,0,0,0],"split_type":[0,0,0,0,0,0,0,0,0,0,0,0,0,0,0,0,0,0,0,0,0,0,0,0,0],"sum_hessian":[3.227E3,2.551E3,6.76E2,2.371E3,1.8E2,5.57E2,1.19E2,1.916E3,4.55E2,1.43E2,3.7E1,3.74E2,1.83E2,9.8E1,2.1E1,1.739E3,1.77E2,3.53E2,1.02E2,9.3E1,5E1,2.8E1,9E0,3.49E2,2.5E1],"tree_param":{"num_deleted":"0","num_feature":"20","num_nodes":"25","size_leaf_vector":"0"}},{"base_weights":[8.666065E0,4.479919E0,2.397653E1,2.6184225E0,2.3197252E1,1.9941689E1,3.794278E1,7.9606456E-1,8.376821E0,1.8579172E1,4.1667206E1,1.7293991E1,2.3731504E1,3.469679E1,2.6294277E0,-1.3425375E-3,3.2048213E-1,3.1206372E-1,5.5724114E-1,7.959133E-1,1.2065593E0,1.848835E0,2.816035E0,8.152265E-1,1.4178525E0,1.0961902E0,1.4242276E0,1.5455375E0,1.9029505E0],"categories":[],"categories_nodes":[],"categories_segments":[],"categories_sizes":[],"default_left":[0,0,0,0,0,0,0,0,0,0,0,0,0,0,0,0,0,0,0,0,0,0,0,0,0,0,0,0,0],"id":8,"left_children":[1,3,5,7,9,11,13,15,17,19,21,23,25,27,-1,-1,-1,-1,-1,-1,-1,-1,-1,-1,-1,-1,-1,-1,-1],"loss_changes":[2.065247E5,8.819469E4,3.8238656E4,2.418168E4,1.8758586E4,4.9980625E3,5.4965312E3,8.093535E3,3.205246E3,2.3489492E3,1.01040625E3,3.0514688E3,1.2571719E3,4.6567188E2,0E0,0E0,0E0,0E0,0E0,0E0,0E0,0E0,0E0,0E0,0E0,0E0,0E0,0E0,0E0],"parents":[2147483647,0,0,1,1,2,2,3,3,4,4,5,5,6,6,7,7,8,8,9,9,10,10,11,11,12,12,13,13],"right_children":[2,4,6,8,10,12,14,16,18,20,22,24,26,28,-1,-1,-1,-1,-1,-1,-1,-1,-1,-1,-1,-1,-1,-1,-1],"split_conditions":[7.055365E0,8.507812E0,1.7259777E1,1.2645719E0,2.4629501E1,1.1244559E1,2.7962513E1,1.8207986E0,4.4778075E0,1.5465078E1,3.9282146E1,6.097164E0,4.5702964E-1,2.0831842E1,2.6294277E0,-1.3425375E-3,3.2048213E-1,3.1206372E-1,5.5724114E-1,7.959133E-1,1.2065593E0,1.848835E0,2.816035E0,8.152265E-1,1.4178525E0,1.0961902E0,1.4242276E0,1.5455375E0,1.9029505E0],"split_indices":[8,9,8,8,9,8,8,9,8,14,9,9,9,8,0,0,0,0,0,0,0,0,0,0,0,0,0,0,0],"split_type":[0,0,0,0,0,0,0,0,0,0,0,0,0,0,0,0,0,0,0,0,0,0,0,0,0,0,0,0,0],"sum_hessian":[3.223E3,2.532E3,6.91E2,2.304E3,2.28E2,5.38E2,1.53E2,1.751E3,5.53E2,1.84E2,4.4E1,3.2E2,2.18E2,1.28E2,2.5E1,1.528E3,2.23E2,3.14E2,2.39E2,1.27E2,5.7E1,3.6E1,8E0,2.96E2,2.4E1,1.62E2,5.6E1,6.5E1,6.3E1],"tree_param":{"num_deleted":"0","num_feature":"20","num_nodes":"29","size_leaf_vector":"0"}},{"base_weights":[8.337678E0,4.2555428E0,2.2650887E1,2.8192878E0,2.3049568E1,1.87978E1,3.6713924E1,1.2620673E-1,6.386407E0,1.8180012E1,3.6028145E1,1.6930323E1,1.2370714E0,3.3083282E1,2.542342E0,-8.925724E-3,2.7742207E-1,2.5857493E-1,5.2289605E-1,7.429959E-1,1.0494313E0,1.8674129E0,6.24991E-1,8.121285E-1,1.2084546E0,1.4505546E0,1.7975168E0],"categories":[],"categories_nodes":[],"categories_segments":[],"categories_sizes":[],"default_left":[0,0,0,0,0,0,0,0,0,0,0,0,0,0,0,0,0,0,0,0,0,0,0,0,0,0,0],"id":9,"left_children":[1,3,5,7,9,11,13,15,17,19,21,23,-1,25,-1,-1,-1,-1,-1,-1,-1,-1,-1,-1,-1,-1,-1],"loss_changes":[1.8611508E5,6.690469E4,3.7619438E4,2.2151875E4,1.0468195E4,5.7636094E3,6.0658594E3,2.1737256E3,4.8528633E3,9.0034375E2,9.929844E2,1.7332422E3,0E0,3.9307812E2,0E0,0E0,0E0,0E0,0E0,0E0,0E0,0E0,0E0,0E0,0E0,0E0,0E0],"parents":[2147483647,0,0,1,1,2,2,3,3,4,4,5,5,6,6,7,7,8,8,9,9,10,10,11,11,13,13],"right_children":[2,4,6,8,10,12,14,16,18,20,22,24,-1,26,-1,-1,-1,-1,-1,-1,-1,-1,-1,-1,-1,-1,-1],"split_conditions":[7.055365E0,1.0659143E1,1.7563288E1,1.0609242E-1,2.2711334E1,1.31928425E1,2.7962513E1,1.3721298E-1,4.2485423E0,1.4119138E1,9.290078E-1,1.6072699E1,1.2370714E0,2.0831842E1,2.542342E0,-8.925724E-3,2.7742207E-1,2.5857493E-1,5.2289605E-1,7.429959E-1,1.0494313E0,1.8674129E0,6.24991E-1,8.121285E-1,1.2084546E0,1.4505546E0,1.7975168E0],"split_indices":[8,14,8,1,14,8,8,8,8,14,0,14,0,8,0,0,0,0,0,0,0,0,0,0,0,0,0],"split_type":[0,0,0,0,0,0,0,0,0,0,0,0,0,0,0,0,0,0,0,0,0,0,0,0,0,0,0],"sum_hessian":[3.186E3,2.48E3,7.06E2,2.305E3,1.75E2,5.56E2,1.5E2,1.314E3,9.91E2,1.29E2,4.6E1,4.26E2,1.3E2,1.22E2,2.8E1,1.245E3,6.9E1,7.65E2,2.26E2,6.2E1,6.7E1,4.3E1,3E0,3.92E2,3.4E1,5.5E1,6.7E1],"tree_param":{"num_deleted":"0","num_feature":"20","num_nodes":"27","size_leaf_vector":"0"}},{"base_weights":[8.028295E0,3.795081E0,2.065394E1,2.3616843E0,2.2715508E1,1.6701498E1,3.2328945E1,-1.4662516E-2,5.315228E0,1.7475136E1,3.53432E1,1.5726989E1,2.659393E1,2.96367E1,2.4240806E0,-7.976828E-3,2.9803243E-1,2.2578613E-1,5.0514233E-1,7.029359E-1,1.0074832E0,1.812748E0,4.7909027E-1,6.5945244E-1,9.57276E-1,1.2128768E0,2.4283142E0,1.3431616E0,1.699193E0],"categories":[],"categories_nodes":[],"categories_segments":[],"categories_sizes":[],"default_left":[0,0,0,0,0,0,0,0,0,0,0,0,0,0,0,0,0,0,0,0,0,0,0,0,0,0,0,0,0],"id":10,"left_children":[1,3,5,7,9,11,13,15,17,19,21,23,25,27,-1,-1,-1,-1,-1,-1,-1,-1,-1,-1,-1,-1,-1,-1,-1],"loss_changes":[1.6918845E5,6.430324E4,3.6145156E4,1.5490225E4,1.0433391E4,5.3273594E3,7.2605625E3,1.0605278E3,3.7208613E3,8.131992E2,7.800469E2,4.4759062E3,1.4913789E3,1.1849531E3,0E0,0E0,0E0,0E0,0E0,0E0,0E0,0E0,0E0,0E0,0E0,0E0,0E0,0E0,0E0],"parents":[2147483647,0,0,1,1,2,2,3,3,4,4,5,5,6,6,7,7,8,8,9,9,10,10,11,11,12,12,13,13],"right_children":[2,4,6,8,10,12,14,16,18,20,22,24,26,28,-1,-1,-1,-1,-1,-1,-1,-1,-1,-1,-1,-1,-1,-1,-1],"split_conditions":[6.121237E0,1.0840591E1,1.5272954E1,1.5103116E-3,2.3056921E1,1.6732088E1,2.7962513E1,9.075147E-2,6.223721E0,1.4226716E1,9.290078E-1,1.0252517E1,2.9528513E1,2.0831842E1,2.4240806E0,-7.976828E-3,2.9803243E-1,2.2578613E-1,5.0514233E-1,7.029359E-1,1.0074832E0,1.812748E0,4.7909027E-1,6.5945244E-1,9.57276E-1,1.2128768E0,2.4283142E0,1.3431616E0,1.699193E0],"split_indices":[8,14,8,0,14,14,8,8,14,14,0,8,14,8,0,0,0,0,0,0,0,0,0,0,0,0,0,0,0],"split_type":[0,0,0,0,0,0,0,0,0,0,0,0,0,0,0,0,0,0,0,0,0,0,0,0,0,0,0,0,0],"sum_hessian":[3.166E3,2.372E3,7.94E2,2.206E3,1.66E2,5.95E2,1.99E2,1.223E3,9.83E2,1.19E2,4.7E1,5.44E2,5.1E1,1.73E2,2.6E1,1.195E3,2.8E1,8.44E2,1.39E2,5.5E1,6.4E1,4.5E1,2E0,3.15E2,2.29E2,4.8E1,3E0,1.1E2,6.3E1],"tree_param":{"num_deleted":"0","num_feature":"20","num_nodes":"29","size_leaf_vector":"0"}},{"base_weights":[7.5548916E0,3.551374E0,1.953085E1,2.0497265E0,2.140584E1,1.6025366E1,3.1122353E1,5.3480536E-1,6.3152585E0,1.7630539E1,4.194483E1,1.5503213E1,3.729596E1,1.3482908E0,3.947153E1,-2.3332115E-3,4.0173355E-1,2.5015578E-1,5.3079146E-1,7.487876E-1,1.1532681E0,1.6933911E0,2.7616603E0,6.135908E-1,9.123211E-1,1.3527644E0,2.322049E0,1.7506325E0,2.4633238E0],"categories":[],"categories_nodes":[],"categories_segments":[],"categories_sizes":[],"default_left":[0,0,0,0,0,0,0,0,0,0,0,0,0,0,0,0,0,0,0,0,0,0,0,0,0,0,0,0,0],"id":11,"left_children":[1,3,5,7,9,11,13,15,17,19,21,23,25,-1,27,-1,-1,-1,-1,-1,-1,-1,-1,-1,-1,-1,-1,-1,-1],"loss_changes":[1.5249467E5,6.3927438E4,3.1886406E4,1.4225824E4,1.3605547E4,6.241172E3,5.3211094E3,7.091269E3,3.202879E3,1.93425E3,1.1346211E3,5.103578E3,5.464258E1,0E0,8.5184375E2,0E0,0E0,0E0,0E0,0E0,0E0,0E0,0E0,0E0,0E0,0E0,0E0,0E0,0E0],"parents":[2147483647,0,0,1,1,2,2,3,3,4,4,5,5,6,6,7,7,8,8,9,9,10,10,11,11,12,12,14,14],"right_children":[2,4,6,8,10,12,14,16,18,20,22,24,26,-1,28,-1,-1,-1,-1,-1,-1,-1,-1,-1,-1,-1,-1,-1,-1],"split_conditions":[6.121237E0,1.0045217E1,1.5935004E1,5.088435E-1,2.8777983E1,1.2657367E1,2.3793745E1,4.0803847E0,2.3035696E0,1.7018335E1,3.9282146E1,9.647722E0,8.8E-1,1.3482908E0,3.269781E1,-2.3332115E-3,4.0173355E-1,2.5015578E-1,5.3079146E-1,7.487876E-1,1.1532681E0,1.6933911E0,2.7616603E0,6.135908E-1,9.123211E-1,1.3527644E0,2.322049E0,1.7506325E0,2.4633238E0],"split_indices":[8,9,8,8,9,9,8,9,9,9,9,8,3,0,8,0,0,0,0,0,0,0,0,0,0,0,0,0,0],"split_type":[0,0,0,0,0,0,0,0,0,0,0,0,0,0,0,0,0,0,0,0,0,0,0,0,0,0,0,0,0],"sum_hessian":[3.181E3,2.385E3,7.96E2,2.201E3,1.84E2,6.13E2,1.83E2,1.625E3,5.76E2,1.57E2,2.7E1,6E2,1.3E1,1.25E2,5.8E1,1.509E3,1.16E2,4.43E2,1.33E2,1.08E2,4.9E1,1.9E1,8E0,2.78E2,3.22E2,8E0,5E0,4.3E1,1.5E1],"tree_param":{"num_deleted":"0","num_feature":"20","num_nodes":"29","size_leaf_vector":"0"}},{"base_weights":[7.3170605E0,3.8106797E0,1.9476648E1,2.5585706E0,2.0897966E1,1.5616046E1,2.8259607E1,7.076433E-2,5.764462E0,1.73735E1,3.399595E1,1.5011795E1,2.493309E1,2.6123981E1,2.2217042E0,-9.833585E-3,2.2368002E-1,2.2908786E-1,4.6265492E-1,7.51194E-1,1.1052923E0,1.7479919E0,3.0592872E-2,6.7557436E-1,9.259825E-1,1.1181363E0,1.9877676E0,1.1989378E0,1.5169543E0],"categories":[],"categories_nodes":[],"categories_segments":[],"categories_sizes":[],"default_left":[0,0,0,0,0,0,0,0,0,0,0,0,0,0,0,0,0,0,0,0,0,0,0,0,0,0,0,0,0],"id":12,"left_children":[1,3,5,7,9,11,13,15,17,19,21,23,25,27,-1,-1,-1,-1,-1,-1,-1,-1,-1,-1,-1,-1,-1,-1,-1],"loss_changes":[1.3674519E5,5.326324E4,2.3904281E4,1.8526996E4,7.2571484E3,2.4462578E3,6.3694844E3,1.5421971E3,4.1455195E3,1.1801016E3,1.1048594E3,2.2391016E3,2.1582227E2,1.0357656E3,0E0,0E0,0E0,0E0,0E0,0E0,0E0,0E0,0E0,0E0,0E0,0E0,0E0,0E0,0E0],"parents":[2147483647,0,0,1,1,2,2,3,3,4,4,5,5,6,6,7,7,8,8,9,9,10,10,11,11,12,12,13,13],"right_children":[2,4,6,8,10,12,14,16,18,20,22,24,26,28,-1,-1,-1,-1,-1,-1,-1,-1,-1,-1,-1,-1,-1,-1,-1],"split_conditions":[7.1528025E0,1.179067E1,1.4977838E1,1.1299819E-1,2.7526268E1,1.8395247E1,2.7962513E1,1.3721298E-1,4.2485423E0,1.866642E1,8.609937E-1,1.18642435E1,2.6654825E1,2.0831842E1,2.2217042E0,-9.833585E-3,2.2368002E-1,2.2908786E-1,4.6265492E-1,7.51194E-1,1.1052923E0,1.7479919E0,3.0592872E-2,6.7557436E-1,9.259825E-1,1.1181363E0,1.9877676E0,1.1989378E0,1.5169543E0],"split_indices":[8,14,8,1,14,14,8,8,8,14,0,8,14,8,0,0,0,0,0,0,0,0,0,0,0,0,0,0,0],"split_type":[0,0,0,0,0,0,0,0,0,0,0,0,0,0,0,0,0,0,0,0,0,0,0,0,0,0,0,0,0],"sum_hessian":[3.208E3,2.491E3,7.17E2,2.322E3,1.69E2,5E2,2.17E2,1.308E3,1.014E3,1.35E2,3.4E1,4.72E2,2.8E1,1.94E2,2.3E1,1.234E3,7.4E1,7.59E2,2.55E2,9.3E1,4.2E1,3.3E1,1E0,3.34E2,1.38E2,2.6E1,2E0,1.33E2,6.1E1],"tree_param":{"num_deleted":"0","num_feature":"20","num_nodes":"29","size_leaf_vector":"0"}},{"base_weights":[6.9823046E0,3.641954E0,1.9388878E1,2.0072339E0,1.7569597E1,1.6020664E1,2.9868202E1,4.9785548E-1,7.069526E0,1.4320951E1,3.0920364E1,1.3926235E1,1.94252E1,2.7699728E1,2.4097679E0,-8.313934E-3,2.47679E-1,2.4595578E-1,4.395349E-1,6.0764277E-1,9.319199E-1,1.2576448E0,1.8180367E0,6.344469E-1,1.0644001E0,9.052164E-1,1.1585617E0,1.5189074E0,1.1885515E0],"categories":[],"categories_nodes":[],"categories_segments":[],"categories_sizes":[],"default_left":[0,0,0,0,0,0,0,0,0,0,0,0,0,0,0,0,0,0,0,0,0,0,0,0,0,0,0,0,0],"id":13,"left_children":[1,3,5,7,9,11,13,15,17,19,21,23,25,27,-1,-1,-1,-1,-1,-1,-1,-1,-1,-1,-1,-1,-1,-1,-1],"loss_changes":[1.3262766E5,5.743066E4,2.3487875E4,1.7264945E4,1.105075E4,3.4088438E3,5.1826875E3,5.155748E3,1.8776934E3,1.7860273E3,6.8566016E2,2.6719844E3,5.404219E2,8.457656E2,0E0,0E0,0E0,0E0,0E0,0E0,0E0,0E0,0E0,0E0,0E0,0E0,0E0,0E0,0E0],"parents":[2147483647,0,0,1,1,2,2,3,3,4,4,5,5,6,6,7,7,8,8,9,9,10,10,11,11,12,12,13,13],"right_children":[2,4,6,8,10,12,14,16,18,20,22,24,26,28,-1,-1,-1,-1,-1,-1,-1,-1,-1,-1,-1,-1,-1,-1,-1],"split_conditions":[7.60738E0,7.8140564E0,1.7563288E1,1.7550579E0,2.2471735E1,1.2054569E1,3.269781E1,1.8207986E0,4.2485423E0,1.4102212E1,3.2286545E1,2.365375E0,6.5811086E-1,5.7887135E0,2.4097679E0,-8.313934E-3,2.47679E-1,2.4595578E-1,4.395349E-1,6.0764277E-1,9.319199E-1,1.2576448E0,1.8180367E0,6.344469E-1,1.0644001E0,9.052164E-1,1.1585617E0,1.5189074E0,1.1885515E0],"split_indices":[8,9,8,8,9,8,8,9,8,9,9,9,9,14,0,0,0,0,0,0,0,0,0,0,0,0,0,0,0],"split_type":[0,0,0,0,0,0,0,0,0,0,0,0,0,0,0,0,0,0,0,0,0,0,0,0,0,0,0,0,0],"sum_hessian":[3.201E3,2.523E3,6.78E2,2.259E3,2.64E2,5.15E2,1.63E2,1.741E3,5.18E2,2.14E2,5E1,3.22E2,1.93E2,1.48E2,1.5E1,1.516E3,2.25E2,2.32E2,2.86E2,1.45E2,6.9E1,2.7E1,2.3E1,2.78E2,4.4E1,1.47E2,4.6E1,8.4E1,6.4E1],"tree_param":{"num_deleted":"0","num_feature":"20","num_nodes":"29","size_leaf_vector":"0"}},{"base_weights":[6.5626984E0,2.9863052E0,1.65256E1,1.924956E0,1.925433E1,1.3140573E1,2.5893143E1,-1.0463953E-1,4.5291524E0,1.5668611E1,3.2357777E1,1.242953E1,2.5071846E1,2.2107119E1,3.3852493E1,-7.0031174E-3,1.0972623E0,1.934753E-1,4.285376E-1,6.638877E-1,9.5463294E-1,1.6720451E0,2.367915E-2,5.102086E-1,7.359955E-1,1.0662655E0,2.1268356E0,1.1894565E0,9.957449E-1,1.5440253E0,2.0976458E0],"categories":[],"categories_nodes":[],"categories_segments":[],"categories_sizes":[],"default_left":[0,0,0,0,0,0,0,0,0,0,0,0,0,0,0,0,0,0,0,0,0,0,0,0,0,0,0,0,0,0,0],"id":14,"left_children":[1,3,5,7,9,11,13,15,17,19,21,23,25,27,29,-1,-1,-1,-1,-1,-1,-1,-1,-1,-1,-1,-1,-1,-1,-1,-1],"loss_changes":[1.1382814E5,4.0589973E4,2.6422469E4,1.1681352E4,6.258879E3,4.9651875E3,5.9715625E3,9.739423E2,2.5475508E3,6.879297E2,1.0202012E3,2.8518828E3,1.3176074E3,9.409375E1,3.8967188E2,0E0,0E0,0E0,0E0,0E0,0E0,0E0,0E0,0E0,0E0,0E0,0E0,0E0,0E0,0E0,0E0],"parents":[2147483647,0,0,1,1,2,2,3,3,4,4,5,5,6,6,7,7,8,8,9,9,10,10,11,11,12,12,13,13,14,14],"right_children":[2,4,6,8,10,12,14,16,18,20,22,24,26,28,30,-1,-1,-1,-1,-1,-1,-1,-1,-1,-1,-1,-1,-1,-1,-1,-1],"split_conditions":[5.854443E0,1.1859587E1,1.4977838E1,6.787465E-2,2.7526268E1,1.9239468E1,2.3556772E1,1.7612035E-4,6.3816686E0,1.7587673E1,1.0344695E-1,9.430762E0,2.9528513E1,9.106037E0,3.269781E1,-7.0031174E-3,1.0972623E0,1.934753E-1,4.285376E-1,6.638877E-1,9.5463294E-1,1.6720451E0,2.367915E-2,5.102086E-1,7.359955E-1,1.0662655E0,2.1268356E0,1.1894565E0,9.957449E-1,1.5440253E0,2.0976458E0],"split_indices":[8,14,8,1,14,14,8,11,14,14,0,8,14,14,8,0,0,0,0,0,0,0,0,0,0,0,0,0,0,0,0],"split_type":[0,0,0,0,0,0,0,0,0,0,0,0,0,0,0,0,0,0,0,0,0,0,0,0,0,0,0,0,0,0,0],"sum_hessian":[3.195E3,2.352E3,8.43E2,2.209E3,1.43E2,6.21E2,2.22E2,1.242E3,9.67E2,1.14E2,2.9E1,5.88E2,3.3E1,1.53E2,6.9E1,1.241E3,1E0,8.33E2,1.34E2,7E1,4.4E1,2.8E1,1E0,3.01E2,2.87E2,2.9E1,4E0,8.1E1,7.2E1,5.4E1,1.5E1],"tree_param":{"num_deleted":"0","num_feature":"20","num_nodes":"31","size_leaf_vector":"0"}},{"base_weights":[6.15068E0,2.9048069E0,1.5788293E1,1.3133582E0,1.5673339E1,1.2398535E1,2.3711918E1,5.325734E-1,6.5297813E0,1.2567152E1,3.1059849E1,1.1290499E1,2.1946953E1,9.996247E-1,2.9416029E1,-5.351651E-3,2.0929372E-1,2.7009794E-1,4.8407897E-1,5.444261E-1,8.689315E-1,1.2911372E0,2.4278586E0,4.532226E-1,6.645419E-1,1.0081033E0,2.0501213E0,1.3264761E0,1.7296689E0],"categories":[],"categories_nodes":[],"categories_segments":[],"categories_sizes":[],"default_left":[0,0,0,0,0,0,0,0,0,0,0,0,0,0,0,0,0,0,0,0,0,0,0,0,0,0,0,0,0],"id":15,"left_children":[1,3,5,7,9,11,13,15,17,19,21,23,25,-1,27,-1,-1,-1,-1,-1,-1,-1,-1,-1,-1,-1,-1,-1,-1],"loss_changes":[1.0030829E5,4.876885E4,2.1408234E4,8.696246E3,1.2322695E4,5.7616406E3,4.524953E3,4.3443257E3,9.3589844E2,1.611875E3,2.7780742E3,2.1549375E3,1.1459961E3,0E0,4.7208594E2,0E0,0E0,0E0,0E0,0E0,0E0,0E0,0E0,0E0,0E0,0E0,0E0,0E0,0E0],"parents":[2147483647,0,0,1,1,2,2,3,3,4,4,5,5,6,6,7,7,8,8,9,9,10,10,11,11,12,12,14,14],"right_children":[2,4,6,8,10,12,14,16,18,20,22,24,26,-1,28,-1,-1,-1,-1,-1,-1,-1,-1,-1,-1,-1,-1,-1,-1],"split_conditions":[5.854443E0,6.9896083E0,1.415797E1,3.0267365E0,2.4629501E1,4.7848186E0,2.0831842E1,1.2558231E0,1.3863027E0,1.5442506E1,3.9282146E1,9.063529E0,1.8492199E1,9.996247E-1,2.622207E1,-5.351651E-3,2.0929372E-1,2.7009794E-1,4.8407897E-1,5.444261E-1,8.689315E-1,1.2911372E0,2.4278586E0,4.532226E-1,6.645419E-1,1.0081033E0,2.0501213E0,1.3264761E0,1.7296689E0],"split_indices":[8,9,8,8,9,9,8,9,9,9,9,8,9,0,8,0,0,0,0,0,0,0,0,0,0,0,0,0,0],"split_type":[0,0,0,0,0,0,0,0,0,0,0,0,0,0,0,0,0,0,0,0,0,0,0,0,0,0,0,0,0],"sum_hessian":[3.207E3,2.4E3,8.07E2,2.135E3,2.65E2,5.67E2,2.4E2,1.858E3,2.77E2,2.22E2,4.3E1,5.1E2,5.7E1,1.48E2,9.2E1,1.582E3,2.76E2,2.06E2,7.1E1,1.67E2,5.5E1,3.5E1,8E0,2.44E2,2.66E2,5.4E1,3E0,6.3E1,2.9E1],"tree_param":{"num_deleted":"0","num_feature":"20","num_nodes":"29","size_leaf_vector":"0"}},{"base_weights":[5.925841E0,2.5973096E0,1.4859341E1,1.0004656E0,1.3939219E1,1.1692231E1,2.2578323E1,1.3212095E-1,4.705211E0,1.0143642E1,2.3756191E1,1.060291E1,2.057625E1,1.9723026E1,3.0401506E1,-1.5395679E-2,1.2630057E-1,1.9417058E-1,4.2122218E-1,4.5639846E-1,6.970318E-1,1.0201932E0,1.784037E0,4.2866513E-1,6.326654E-1,8.9260465E-1,1.2974603E0,1.0674407E0,8.792166E-1,1.3754907E0,1.9103247E0],"categories":[],"categories_nodes":[],"categories_segments":[],"categories_sizes":[],"default_left":[0,0,0,0,0,0,0,0,0,0,0,0,0,0,0,0,0,0,0,0,0,0,0,0,0,0,0,0,0,0,0],"id":16,"left_children":[1,3,5,7,9,11,13,15,17,19,21,23,25,27,29,-1,-1,-1,-1,-1,-1,-1,-1,-1,-1,-1,-1,-1,-1,-1,-1],"loss_changes":[9.452007E4,4.1967953E4,2.083364E4,6.5395317E3,1.0415691E4,5.7238516E3,4.9847812E3,1.7367719E3,1.1470781E3,6.7490234E2,2.43E3,2.1761797E3,5.0277734E2,2.7133594E2,4.1597266E2,0E0,0E0,0E0,0E0,0E0,0E0,0E0,0E0,0E0,0E0,0E0,0E0,0E0,0E0,0E0,0E0],"parents":[2147483647,0,0,1,1,2,2,3,3,4,4,5,5,6,6,7,7,8,8,9,9,10,10,11,11,12,12,13,13,14,14],"right_children":[2,4,6,8,10,12,14,16,18,20,22,24,26,28,30,-1,-1,-1,-1,-1,-1,-1,-1,-1,-1,-1,-1,-1,-1,-1,-1],"split_conditions":[5.5393763E0,5.874897E0,1.415797E1,1.2645719E0,1.7018335E1,4.7848186E0,2.3556772E1,8.005108E-1,2.365375E0,1.5710483E0,3.519539E1,9.224146E0,1.2657367E1,2.3806345E0,3.269781E1,-1.5395679E-2,1.2630057E-1,1.9417058E-1,4.2122218E-1,4.5639846E-1,6.970318E-1,1.0201932E0,1.784037E0,4.2866513E-1,6.326654E-1,8.9260465E-1,1.2974603E0,1.0674407E0,8.792166E-1,1.3754907E0,1.9103247E0],"split_indices":[8,9,8,8,9,9,8,9,9,8,9,8,9,14,8,0,0,0,0,0,0,0,0,0,0,0,0,0,0,0,0],"split_type":[0,0,0,0,0,0,0,0,0,0,0,0,0,0,0,0,0,0,0,0,0,0,0,0,0,0,0,0,0,0,0],"sum_hessian":[3.179E3,2.317E3,8.62E2,2.032E3,2.85E2,6.13E2,2.49E2,1.647E3,3.85E2,2.07E2,7.8E1,5.48E2,6.5E1,1.85E2,6.4E1,1.392E3,2.55E2,3.17E2,6.8E1,1.66E2,4.1E1,6.3E1,1.5E1,2.78E2,2.7E2,4.6E1,1.9E1,1E2,8.5E1,5E1,1.4E1],"tree_param":{"num_deleted":"0","num_feature":"20","num_nodes":"31","size_leaf_vector":"0"}},{"base_weights":[5.6913595E0,3.0924199E0,1.6008825E1,1.2514399E0,1.228999E1,1.3205414E1,2.486704E1,1.354037E-1,6.081619E0,1.0041112E1,2.7429739E1,1.2820762E1,1.511639E0,2.3274878E1,2.2574127E0,-1.0668479E-2,9.618144E-2,2.1449868E-1,3.5063797E-1,4.0651065E-1,6.72538E-1,1.1738368E0,2.3612454E0,5.376005E-1,7.8283733E-1,1.0290256E0,1.3489501E0],"categories":[],"categories_nodes":[],"categories_segments":[],"categories_sizes":[],"default_left":[0,0,0,0,0,0,0,0,0,0,0,0,0,0,0,0,0,0,0,0,0,0,0,0,0,0,0],"id":17,"left_children":[1,3,5,7,9,11,13,15,17,19,21,23,-1,25,-1,-1,-1,-1,-1,-1,-1,-1,-1,-1,-1,-1,-1],"loss_changes":[8.487193E4,4.2840883E4,1.5490375E4,1.1373459E4,1.4092605E4,2.7955E3,3.8574062E3,1.0700304E3,6.305508E2,2.2948594E3,3.116832E3,2.6301953E3,0E0,8.719375E2,0E0,0E0,0E0,0E0,0E0,0E0,0E0,0E0,0E0,0E0,0E0,0E0,0E0],"parents":[2147483647,0,0,1,1,2,2,3,3,4,4,5,5,6,6,7,7,8,8,9,9,10,10,11,11,13,13],"right_children":[2,4,6,8,10,12,14,16,18,20,22,24,-1,26,-1,-1,-1,-1,-1,-1,-1,-1,-1,-1,-1,-1,-1],"split_conditions":[7.973216E0,3.9051874E0,1.7563288E1,3.0267365E0,2.2471735E1,1.0447499E1,3.742244E1,5.4380167E-1,4.4778075E0,1.0717098E1,3.9282146E1,1.2054569E1,1.511639E0,2.3556772E1,2.2574127E0,-1.0668479E-2,9.618144E-2,2.1449868E-1,3.5063797E-1,4.0651065E-1,6.72538E-1,1.1738368E0,2.3612454E0,5.376005E-1,7.8283733E-1,1.0290256E0,1.3489501E0],"split_indices":[8,9,8,8,9,9,8,9,8,9,9,8,0,8,0,0,0,0,0,0,0,0,0,0,0,0,0],"split_type":[0,0,0,0,0,0,0,0,0,0,0,0,0,0,0,0,0,0,0,0,0,0,0,0,0,0,0],"sum_hessian":[3.166E3,2.53E3,6.36E2,2.109E3,4.21E2,4.85E2,1.51E2,1.714E3,3.95E2,3.68E2,5.3E1,4.76E2,9E0,1.42E2,9E0,1.435E3,2.79E2,1.37E2,2.58E2,2.38E2,1.3E2,4.6E1,7E0,2.78E2,1.98E2,8.6E1,5.6E1],"tree_param":{"num_deleted":"0","num_feature":"20","num_nodes":"27","size_leaf_vector":"0"}},{"base_weights":[5.308696E0,2.7158873E0,1.4318172E1,1.322682E0,1.3796632E1,1.1791513E1,2.2061779E1,2.8520393E-1,5.254152E0,1.1677061E1,3.0929188E1,1.0904991E1,1.7250801E1,1.9539106E1,2.7500027E1,-6.6577415E-3,1.748021E-1,2.1596156E-1,3.9870268E-1,4.7235122E-1,7.6580924E-1,1.2409607E0,2.0333607E0,4.7167498E-1,7.016399E-1,7.948484E-1,1.0758042E0,1.0783359E0,8.5253346E-1,1.5156916E0,1.1418468E0],"categories":[],"categories_nodes":[],"categories_segments":[],"categories_sizes":[],"default_left":[0,0,0,0,0,0,0,0,0,0,0,0,0,0,0,0,0,0,0,0,0,0,0,0,0,0,0,0,0,0,0],"id":18,"left_children":[1,3,5,7,9,11,13,15,17,19,21,23,25,27,29,-1,-1,-1,-1,-1,-1,-1,-1,-1,-1,-1,-1,-1,-1,-1,-1],"loss_changes":[7.482943E4,3.842175E4,1.3748734E4,9.024916E3,9.734043E3,2.435039E3,1.8634766E3,2.353896E3,1.140376E3,1.8760352E3,7.7564453E2,2.0262109E3,8.5271484E1,2.5288281E2,3.140625E0,0E0,0E0,0E0,0E0,0E0,0E0,0E0,0E0,0E0,0E0,0E0,0E0,0E0,0E0,0E0,0E0],"parents":[2147483647,0,0,1,1,2,2,3,3,4,4,5,5,6,6,7,7,8,8,9,9,10,10,11,11,12,12,13,13,14,14],"right_children":[2,4,6,8,10,12,14,16,18,20,22,24,26,28,30,-1,-1,-1,-1,-1,-1,-1,-1,-1,-1,-1,-1,-1,-1,-1,-1],"split_conditions":[7.055365E0,6.9896083E0,1.6869778E1,1.6943784E0,2.8777983E1,2.5045407E0,2.4394148E1,2.0118914E0,1.0809013E0,1.39115095E1,3.9282146E1,1.2128218E1,1.1724737E1,2.2785974E0,6.445661E-1,-6.6577415E-3,1.748021E-1,2.1596156E-1,3.9870268E-1,4.7235122E-1,7.6580924E-1,1.2409607E0,2.0333607E0,4.7167498E-1,7.016399E-1,7.948484E-1,1.0758042E0,1.0783359E0,8.5253346E-1,1.5156916E0,1.1418468E0],"split_indices":[8,9,8,8,9,9,8,9,9,9,9,8,9,14,14,0,0,0,0,0,0,0,0,0,0,0,0,0,0,0,0],"split_type":[0,0,0,0,0,0,0,0,0,0,0,0,0,0,0,0,0,0,0,0,0,0,0,0,0,0,0,0,0,0,0],"sum_hessian":[3.204E3,2.489E3,7.15E2,2.212E3,2.77E2,5.41E2,1.74E2,1.751E3,4.61E2,2.48E2,2.9E1,4.68E2,7.3E1,1.22E2,5.2E1,1.55E3,2.01E2,3.45E2,1.16E2,1.56E2,9.2E1,2E1,9E0,3.21E2,1.47E2,5.9E1,1.4E1,6.3E1,5.9E1,2.9E1,2.3E1],"tree_param":{"num_deleted":"0","num_feature":"20","num_nodes":"31","size_leaf_vector":"0"}},{"base_weights":[5.1400895E0,2.4953904E0,1.2943121E1,1.3773024E0,1.5600148E1,1.01934805E1,1.9017548E1,7.4799263E-1,6.7218356E0,1.3048277E1,3.090026E1,9.406232E0,1.9622692E1,1.689712E1,1.2655197E0,3.912211E-3,2.4219258E-1,2.885673E-1,5.3716236E-1,5.227975E-1,8.283953E-1,1.2115567E0,2.040258E0,3.8562337E-1,5.4255635E-1,8.623168E-1,1.8943253E0,8.042249E-1,1.0203398E0],"categories":[],"categories_nodes":[],"categories_segments":[],"categories_sizes":[],"default_left":[0,0,0,0,0,0,0,0,0,0,0,0,0,0,0,0,0,0,0,0,0,0,0,0,0,0,0,0,0],"id":19,"left_children":[1,3,5,7,9,11,13,15,17,19,21,23,25,27,-1,-1,-1,-1,-1,-1,-1,-1,-1,-1,-1,-1,-1,-1,-1],"loss_changes":[6.569549E4,3.4850926E4,1.3268344E4,7.3742E3,6.8980156E3,3.9501133E3,2.908211E3,5.387256E3,8.209502E2,1.3048594E3,7.287285E2,1.1791211E3,1.1694521E3,2.1365625E2,0E0,0E0,0E0,0E0,0E0,0E0,0E0,0E0,0E0,0E0,0E0,0E0,0E0,0E0,0E0],"parents":[2147483647,0,0,1,1,2,2,3,3,4,4,5,5,6,6,7,7,8,8,9,9,10,10,11,11,12,12,13,13],"right_children":[2,4,6,8,10,12,14,16,18,20,22,24,26,28,-1,-1,-1,-1,-1,-1,-1,-1,-1,-1,-1,-1,-1,-1,-1],"split_conditions":[6.0184417E0,1.0717098E1,1.3749135E1,3.7776656E0,3.2286545E1,6.9896083E0,2.3556772E1,2.8602822E0,2.4531004E0,1.7018335E1,3.9282146E1,9.063529E0,1.7878765E1,1.0347252E0,1.2655197E0,3.912211E-3,2.4219258E-1,2.885673E-1,5.3716236E-1,5.227975E-1,8.283953E-1,1.2115567E0,2.040258E0,3.8562337E-1,5.4255635E-1,8.623168E-1,1.8943253E0,8.042249E-1,1.0203398E0],"split_indices":[8,9,8,9,9,9,8,8,8,9,9,8,9,9,0,0,0,0,0,0,0,0,0,0,0,0,0,0,0],"split_type":[0,0,0,0,0,0,0,0,0,0,0,0,0,0,0,0,0,0,0,0,0,0,0,0,0,0,0,0,0],"sum_hessian":[3.184E3,2.379E3,8.05E2,2.193E3,1.86E2,5.56E2,2.49E2,1.963E3,2.3E2,1.61E2,2.5E1,5.15E2,4.1E1,1.89E2,6E1,1.688E3,2.75E2,1.88E2,4.2E1,9.5E1,6.6E1,1.7E1,8E0,2.4E2,2.75E2,3.8E1,3E0,1.58E2,3.1E1],"tree_param":{"num_deleted":"0","num_feature":"20","num_nodes":"29","size_leaf_vector":"0"}},{"base_weights":[4.685979E0,2.1579704E0,1.2157689E1,9.190068E-1,1.0940998E1,9.770977E0,1.889624E1,2.2435756E-1,4.6428275E0,8.976091E0,2.2894901E1,8.769557E0,1.614555E1,1.7038298E1,1.3428752E0,-7.7089886E-3,1.24360695E-1,1.863374E-1,3.6143357E-1,3.7192506E-1,5.9047455E-1,9.379243E-1,1.4766191E0,3.3054924E-1,5.266211E-1,7.2914857E-1,1.5178865E0,7.615448E-1,9.522176E-1],"categories":[],"categories_nodes":[],"categories_segments":[],"categories_sizes":[],"default_left":[0,0,0,0,0,0,0,0,0,0,0,0,0,0,0,0,0,0,0,0,0,0,0,0,0,0,0,0,0],"id":20,"left_children":[1,3,5,7,9,11,13,15,17,19,21,23,25,27,-1,-1,-1,-1,-1,-1,-1,-1,-1,-1,-1,-1,-1,-1,-1],"loss_changes":[6.0284883E4,2.5964924E4,1.2794336E4,5.4130254E3,6.723543E3,3.6758242E3,2.648625E3,1.5122393E3,7.524082E2,1.02308984E3,5.716875E2,1.9053047E3,1.3339043E3,3.371914E2,0E0,0E0,0E0,0E0,0E0,0E0,0E0,0E0,0E0,0E0,0E0,0E0,0E0,0E0,0E0],"parents":[2147483647,0,0,1,1,2,2,3,3,4,4,5,5,6,6,7,7,8,8,9,9,10,10,11,11,12,12,13,13],"right_children":[2,4,6,8,10,12,14,16,18,20,22,24,26,28,-1,-1,-1,-1,-1,-1,-1,-1,-1,-1,-1,-1,-1,-1,-1],"split_conditions":[5.854443E0,5.874897E0,1.4977838E1,2.3520513E0,2.2471735E1,2.5045407E0,2.552864E1,9.9896276E-1,9.3021876E-1,1.234601E1,3.519539E1,9.156393E0,1.6200274E1,1.905513E1,1.3428752E0,-7.7089886E-3,1.24360695E-1,1.863374E-1,3.6143357E-1,3.7192506E-1,5.9047455E-1,9.379243E-1,1.4766191E0,3.3054924E-1,5.266211E-1,7.2914857E-1,1.5178865E0,7.615448E-1,9.522176E-1],"split_indices":[8,9,8,8,9,9,8,9,9,9,9,8,9,8,0,0,0,0,0,0,0,0,0,0,0,0,0,0,0],"split_type":[0,0,0,0,0,0,0,0,0,0,0,0,0,0,0,0,0,0,0,0,0,0,0,0,0,0,0,0,0],"sum_hessian":[3.192E3,2.386E3,8.06E2,2.092E3,2.94E2,5.97E2,2.09E2,1.764E3,3.28E2,2.54E2,4E1,5.18E2,7.9E1,1.72E2,3.7E1,1.512E3,2.52E2,2.44E2,8.4E1,1.67E2,8.7E1,2.7E1,1.3E1,2.35E2,2.83E2,7.3E1,6E0,9.5E1,7.7E1],"tree_param":{"num_deleted":"0","num_feature":"20","num_nodes":"29","size_leaf_vector":"0"}},{"base_weights":[4.6190624E0,8.495374E-1,8.64555E0,1.3676041E-1,4.3337345E0,7.577608E0,1.7540098E1,-1.2657455E-1,5.491844E0,7.953657E0,3.4296036E0,6.8515077E0,1.0879193E1,1.6354322E1,3.614463E1,-7.704349E-3,4.419867E-1,1.0365849E0,2.4604335E-1,5.482806E-1,3.2184073E-1,6.704223E-2,2.3322307E-1,2.4547565E-1,3.9348665E-1,7.487976E-1,3.9118278E-1,7.456339E-1,9.84252E-1,2.2744997E0,9.78517E-1],"categories":[],"categories_nodes":[],"categories_segments":[],"categories_sizes":[],"default_left":[0,0,0,0,0,0,0,0,0,0,0,0,0,0,0,0,0,0,0,0,0,0,0,0,0,0,0,0,0,0,0],"id":21,"left_children":[1,3,5,7,9,11,13,15,17,19,21,23,25,27,29,-1,-1,-1,-1,-1,-1,-1,-1,-1,-1,-1,-1,-1,-1,-1,-1],"loss_changes":[4.8243344E4,4.0797246E3,1.446682E4,1.9255918E3,8.8585693E2,3.2193281E3,3.0268516E3,3.2254602E2,4.5488477E2,1.8069287E2,5.740925E2,2.193836E3,2.962213E3,4.5551172E2,5.0378027E2,0E0,0E0,0E0,0E0,0E0,0E0,0E0,0E0,0E0,0E0,0E0,0E0,0E0,0E0,0E0,0E0],"parents":[2147483647,0,0,1,1,2,2,3,3,4,4,5,5,6,6,7,7,8,8,9,9,10,10,11,11,12,12,13,13,14,14],"right_children":[2,4,6,8,10,12,14,16,18,20,22,24,26,28,30,-1,-1,-1,-1,-1,-1,-1,-1,-1,-1,-1,-1,-1,-1,-1,-1],"split_conditions":[2.7940908E-1,4.1336562E-2,1.8395247E1,2.1999154E0,6.632653E-1,7.8396434E-1,3.9282146E1,9.904816E-1,5.6666666E-1,8.581532E-1,4.319349E-3,5.9045625E-1,4.3580565E-3,2.8444658E1,5.4808713E-2,-7.704349E-3,4.419867E-1,1.0365849E0,2.4604335E-1,5.482806E-1,3.2184073E-1,6.704223E-2,2.3322307E-1,2.4547565E-1,3.9348665E-1,7.487976E-1,3.9118278E-1,7.456339E-1,9.84252E-1,2.2744997E0,9.78517E-1],"split_indices":[1,0,14,9,3,1,9,10,3,0,9,4,14,14,0,0,0,0,0,0,0,0,0,0,0,0,0,0,0,0,0],"split_type":[0,0,0,0,0,0,0,0,0,0,0,0,0,0,0,0,0,0,0,0,0,0,0,0,0,0,0,0,0,0,0],"sum_hessian":[3.178E3,1.642E3,1.536E3,1.364E3,2.78E2,1.373E3,1.63E2,1.301E3,6.3E1,5.4E1,2.24E2,1.128E3,2.45E2,1.55E2,8E0,1.298E3,3E0,1E0,6.2E1,1.6E1,3.8E1,8.4E1,1.4E2,3.9E2,7.38E2,1.03E2,1.42E2,1.12E2,4.3E1,4E0,4E0],"tree_param":{"num_deleted":"0","num_feature":"20","num_nodes":"31","size_leaf_vector":"0"}},{"base_weights":[4.4155135E0,1.9358149E0,1.1207482E1,1.1931357E0,1.2981353E1,9.554205E0,2.066715E1,-5.4162543E-2,2.9722667E0,1.009173E1,1.924269E1,8.054561E0,1.2094744E1,1.8888401E1,1.7269408E0,-4.2918897E-3,1.0106702E0,1.23581305E-1,2.8880444E-1,4.5279986E-1,5.7353586E-1,7.542216E-1,1.1126323E0,3.7575722E-1,6.7450476E-1,5.940723E-1,1.7154703E0,1.0488447E0,7.91868E-1],"categories":[],"categories_nodes":[],"categories_segments":[],"categories_sizes":[],"default_left":[0,0,0,0,0,0,0,0,0,0,0,0,0,0,0,0,0,0,0,0,0,0,0,0,0,0,0,0,0],"id":22,"left_children":[1,3,5,7,9,11,13,15,17,19,21,23,25,27,-1,-1,-1,-1,-1,-1,-1,-1,-1,-1,-1,-1,-1,-1,-1],"loss_changes":[5.3266504E4,1.9007943E4,1.3033516E4,4.8244995E3,2.4473691E3,2.6533438E3,2.4318984E3,8.2282776E2,1.2434453E3,4.180371E1,2.275586E2,1.2385508E3,8.527539E2,3.8782812E2,0E0,0E0,0E0,0E0,0E0,0E0,0E0,0E0,0E0,0E0,0E0,0E0,0E0,0E0,0E0],"parents":[2147483647,0,0,1,1,2,2,3,3,4,4,5,5,6,6,7,7,8,8,9,9,10,10,11,11,12,12,13,13],"right_children":[2,4,6,8,10,12,14,16,18,20,22,24,26,28,-1,-1,-1,-1,-1,-1,-1,-1,-1,-1,-1,-1,-1,-1,-1],"split_conditions":[5.5393763E0,1.1859587E1,1.868921E1,1.0609242E-1,2.3056921E1,1.1175062E1,3.269781E1,1.7612035E-4,6.3816686E0,1.6418945E1,2.9528513E1,1.4119138E1,3.1265663E1,1.0659143E1,1.7269408E0,-4.2918897E-3,1.0106702E0,1.23581305E-1,2.8880444E-1,4.5279986E-1,5.7353586E-1,7.542216E-1,1.1126323E0,3.7575722E-1,6.7450476E-1,5.940723E-1,1.7154703E0,1.0488447E0,7.91868E-1],"split_indices":[8,14,8,1,14,8,8,11,14,14,14,14,14,14,0,0,0,0,0,0,0,0,0,0,0,0,0,0,0],"split_type":[0,0,0,0,0,0,0,0,0,0,0,0,0,0,0,0,0,0,0,0,0,0,0,0,0,0,0,0,0],"sum_hessian":[3.163E3,2.318E3,8.45E2,2.173E3,1.45E2,7.21E2,1.24E2,1.278E3,8.95E2,1.01E2,4.4E1,4.56E2,2.65E2,1.12E2,1.2E1,1.277E3,1E0,7.61E2,1.34E2,6.2E1,3.9E1,2.1E1,2.3E1,4.17E2,3.9E1,2.64E2,1E0,6.3E1,4.9E1],"tree_param":{"num_deleted":"0","num_feature":"20","num_nodes":"29","size_leaf_vector":"0"}},{"base_weights":[4.056527E0,2.1122167E0,1.1591949E1,7.4043596E-1,9.001655E0,8.752688E0,1.6183603E1,-2.7340634E-2,4.156328E0,7.339242E0,1.9189857E1,7.762495E0,1.23929205E1,1.4149666E1,2.1905428E1,-1.4535951E-2,5.892827E-2,7.621788E-1,2.0013694E-1,3.119497E-1,5.4042786E-1,7.576235E-1,1.2425222E0,3.1693095E-1,4.1972852E-1,5.4261756E-1,7.3267484E-1,6.700062E-1,8.5752624E-1,9.5491964E-1,1.2760234E0],"categories":[],"categories_nodes":[],"categories_segments":[],"categories_sizes":[],"default_left":[0,0,0,0,0,0,0,0,0,0,0,0,0,0,0,0,0,0,0,0,0,0,0,0,0,0,0,0,0,0,0],"id":23,"left_children":[1,3,5,7,9,11,13,15,17,19,21,23,25,27,29,-1,-1,-1,-1,-1,-1,-1,-1,-1,-1,-1,-1,-1,-1,-1,-1],"loss_changes":[4.7137727E4,2.4187375E4,8.462711E3,5.6020767E3,7.0573867E3,1.3816562E3,2.6111484E3,5.545714E2,6.065127E2,1.3334434E3,9.718379E2,2.3928906E2,1.4047656E2,1.9304297E2,1.6204297E2,0E0,0E0,0E0,0E0,0E0,0E0,0E0,0E0,0E0,0E0,0E0,0E0,0E0,0E0,0E0,0E0],"parents":[2147483647,0,0,1,1,2,2,3,3,4,4,5,5,6,6,7,7,8,8,9,9,10,10,11,11,12,12,13,13,14,14],"right_children":[2,4,6,8,10,12,14,16,18,20,22,24,26,28,30,-1,-1,-1,-1,-1,-1,-1,-1,-1,-1,-1,-1,-1,-1,-1,-1],"split_conditions":[7.60738E0,3.9051874E0,1.415797E1,2.8857138E0,2.0494411E1,9.9896276E-1,2.3556772E1,3.9521152E-1,4.3333334E-1,2.1554434E0,3.2286545E1,9.430762E0,4.7848186E0,8.629844E-1,2.7962513E1,-1.4535951E-2,5.892827E-2,7.621788E-1,2.0013694E-1,3.119497E-1,5.4042786E-1,7.576235E-1,1.2425222E0,3.1693095E-1,4.1972852E-1,5.4261756E-1,7.3267484E-1,6.700062E-1,8.5752624E-1,9.5491964E-1,1.2760234E0],"split_indices":[8,9,8,8,9,9,8,9,3,8,9,8,9,9,8,0,0,0,0,0,0,0,0,0,0,0,0,0,0,0,0],"split_type":[0,0,0,0,0,0,0,0,0,0,0,0,0,0,0,0,0,0,0,0,0,0,0,0,0,0,0,0,0,0,0],"sum_hessian":[3.218E3,2.559E3,6.59E2,2.135E3,4.24E2,4.09E2,2.5E2,1.744E3,3.91E2,3.66E2,5.8E1,3.24E2,8.5E1,1.87E2,6.3E1,1.432E3,3.12E2,4E0,3.87E2,2.8E2,8.6E1,3.6E1,2.2E1,1.03E2,2.21E2,5.4E1,3.1E1,1.54E2,3.3E1,3.9E1,2.4E1],"tree_param":{"num_deleted":"0","num_feature":"20","num_nodes":"31","size_leaf_vector":"0"}},{"base_weights":[3.9310179E0,2.027585E0,1.1289611E1,7.032517E-1,8.530581E0,9.652937E0,1.9000675E1,2.1907E-2,3.8406324E0,6.281274E0,1.4860927E1,8.564607E0,1.3386812E1,1.7565647E1,1.790954E0,-1.19500635E-2,6.0024012E-2,2.4225329E-1,1.4391576E-1,2.5211063E-1,4.5534936E-1,6.1332387E-1,1.1103092E0,3.7210155E-1,5.831512E-1,6.1889875E-1,1.2282951E0,1.0054454E0,7.1320766E-1],"categories":[],"categories_nodes":[],"categories_segments":[],"categories_sizes":[],"default_left":[0,0,0,0,0,0,0,0,0,0,0,0,0,0,0,0,0,0,0,0,0,0,0,0,0,0,0,0,0],"id":24,"left_children":[1,3,5,7,9,11,13,15,17,19,21,23,25,27,-1,-1,-1,-1,-1,-1,-1,-1,-1,-1,-1,-1,-1,-1,-1],"loss_changes":[4.477018E4,2.1886047E4,8.1082656E3,4.5167437E3,6.029381E3,2.0959922E3,2.1221875E3,5.344136E2,3.5045703E2,1.0709736E3,1.8619824E3,1.3879648E3,1.0605488E3,6.1159375E2,0E0,0E0,0E0,0E0,0E0,0E0,0E0,0E0,0E0,0E0,0E0,0E0,0E0,0E0,0E0],"parents":[2147483647,0,0,1,1,2,2,3,3,4,4,5,5,6,6,7,7,8,8,9,9,10,10,11,11,12,12,13,13],"right_children":[2,4,6,8,10,12,14,16,18,20,22,24,26,28,-1,-1,-1,-1,-1,-1,-1,-1,-1,-1,-1,-1,-1,-1,-1],"split_conditions":[7.60738E0,3.7776656E0,1.923199E1,3.0267365E0,1.4102212E1,8.005108E-1,3.742244E1,3.9521152E-1,1.5809715E-1,1.7550579E0,2.8777983E1,1.3976461E1,1.4102212E1,1.9084774E0,1.790954E0,-1.19500635E-2,6.0024012E-2,2.4225329E-1,1.4391576E-1,2.5211063E-1,4.5534936E-1,6.1332387E-1,1.1103092E0,3.7210155E-1,5.831512E-1,6.1889875E-1,1.2282951E0,1.0054454E0,7.1320766E-1],"split_indices":[8,9,8,8,9,9,8,9,14,8,9,8,9,14,0,0,0,0,0,0,0,0,0,0,0,0,0,0,0],"split_type":[0,0,0,0,0,0,0,0,0,0,0,0,0,0,0,0,0,0,0,0,0,0,0,0,0,0,0,0,0],"sum_hessian":[3.197E3,2.541E3,6.56E2,2.112E3,4.29E2,5.43E2,1.13E2,1.736E3,3.76E2,3.18E2,1.11E2,4.23E2,1.2E2,1.06E2,7E0,1.422E3,3.14E2,1.82E2,1.94E2,2.23E2,9.5E1,8.4E1,2.7E1,3.13E2,1.1E2,1.12E2,8E0,5.7E1,4.9E1],"tree_param":{"num_deleted":"0","num_feature":"20","num_nodes":"29","size_leaf_vector":"0"}},{"base_weights":[3.8183165E0,2.0892868E0,1.0962743E1,1.3925068E0,1.1422275E1,9.505318E0,1.8117699E1,3.7475994E-1,3.6197615E0,9.316042E0,1.9881924E1,8.089505E0,1.1769809E1,1.7104748E1,1.7477896E0,1.6303916E-2,2.0260065E0,1.2847476E-1,2.5039512E-1,3.806459E-1,5.782222E-1,1.0268093E0,-5.907626E-2,3.9570165E-1,1.6235594E0,6.543844E-1,4.942998E-1,9.2841893E-1,7.0356077E-1],"categories":[],"categories_nodes":[],"categories_segments":[],"categories_sizes":[],"default_left":[0,0,0,0,0,0,0,0,0,0,0,0,0,0,0,0,0,0,0,0,0,0,0,0,0,0,0,0,0],"id":25,"left_children":[1,3,5,7,9,11,13,15,17,19,21,23,25,27,-1,-1,-1,-1,-1,-1,-1,-1,-1,-1,-1,-1,-1,-1,-1],"loss_changes":[3.9741156E4,1.6846477E4,6.3660312E3,5.4706533E3,3.0220176E3,1.5815742E3,1.1929922E3,3.2270872E3,1.0907764E3,4.7103906E2,5.0660156E2,1.1334668E3,3.646621E2,1.8715625E2,0E0,0E0,0E0,0E0,0E0,0E0,0E0,0E0,0E0,0E0,0E0,0E0,0E0,0E0,0E0],"parents":[2147483647,0,0,1,1,2,2,3,3,4,4,5,5,6,6,7,7,8,8,9,9,10,10,11,11,12,12,13,13],"right_children":[2,4,6,8,10,12,14,16,18,20,22,24,26,28,-1,-1,-1,-1,-1,-1,-1,-1,-1,-1,-1,-1,-1,-1,-1],"split_conditions":[8.306206E0,1.179067E1,2.0104874E1,4.4690374E-1,2.8444658E1,1.3088074E1,3.742244E1,9E0,4.4778075E0,1.6965878E1,8.609937E-1,2.6654825E1,1.008022E1,2.0252352E1,1.7477896E0,1.6303916E-2,2.0260065E0,1.2847476E-1,2.5039512E-1,3.806459E-1,5.782222E-1,1.0268093E0,-5.907626E-2,3.9570165E-1,1.6235594E0,6.543844E-1,4.942998E-1,9.2841893E-1,7.0356077E-1],"split_indices":[8,14,8,8,14,8,8,19,8,14,0,14,14,14,0,0,0,0,0,0,0,0,0,0,0,0,0,0,0],"split_type":[0,0,0,0,0,0,0,0,0,0,0,0,0,0,0,0,0,0,0,0,0,0,0,0,0,0,0,0,0],"sum_hessian":[3.218E3,2.592E3,6.26E2,2.413E3,1.79E2,5.22E2,1.04E2,1.657E3,7.56E2,1.45E2,3.4E1,3.24E2,1.98E2,1E2,4E0,1.656E3,1E0,4.32E2,3.24E2,8.5E1,6E1,3.3E1,1E0,3.23E2,1E0,1.13E2,8.5E1,6.4E1,3.6E1],"tree_param":{"num_deleted":"0","num_feature":"20","num_nodes":"29","size_leaf_vector":"0"}},{"base_weights":[3.5397563E0,5.703706E-1,6.7121525E0,3.0459091E-2,3.1462495E0,5.931977E0,1.4083194E1,1.8204821E-3,9.7089434E-1,6.4993296E0,2.5699277E0,4.582784E0,7.1072383E0,1.3301853E1,2.7698128E1,-3.4259134E-3,2.350179E-1,3.7980375E-1,5.1287193E-2,5.2722223E-2,1.6582759E-1,1.2575637E-1,2.615976E-1,4.6427283E-1,2.7444065E-1,5.999752E-1,8.027483E-1,2.697487E-1,1.5258079E0],"categories":[],"categories_nodes":[],"categories_segments":[],"categories_sizes":[],"default_left":[0,0,0,0,0,0,0,0,0,0,0,0,0,0,0,0,0,0,0,0,0,0,0,0,0,0,0,0,0],"id":26,"left_children":[1,3,5,7,9,11,13,15,-1,17,19,21,23,25,27,-1,-1,-1,-1,-1,-1,-1,-1,-1,-1,-1,-1,-1,-1],"loss_changes":[2.986721E4,2.2793381E3,8.732289E3,7.528551E2,5.321135E2,2.1683203E3,1.1846953E3,4.4813498E2,0E0,2.3833691E2,2.72588E2,8.5796484E2,2.5577422E3,3.093203E2,2.7532324E2,0E0,0E0,0E0,0E0,0E0,0E0,0E0,0E0,0E0,0E0,0E0,0E0,0E0,0E0],"parents":[2147483647,0,0,1,1,2,2,3,3,4,4,5,5,6,6,7,7,9,9,10,10,11,11,12,12,13,13,14,14],"right_children":[2,4,6,8,10,12,14,16,-1,18,20,22,24,26,28,-1,-1,-1,-1,-1,-1,-1,-1,-1,-1,-1,-1,-1,-1],"split_conditions":[2.714063E-1,4.1336562E-2,1.9632534E1,7.672555E-1,8.609937E-1,5.302862E-1,4.590628E1,4.557168E0,9.7089434E-1,8.839286E-1,4.5560074E-1,3.7817586E-2,3.0408327E-2,2.9528513E1,8.080446E-1,-3.4259134E-3,2.350179E-1,3.7980375E-1,5.1287193E-2,5.2722223E-2,1.6582759E-1,1.2575637E-1,2.615976E-1,4.6427283E-1,2.7444065E-1,5.999752E-1,8.027483E-1,2.697487E-1,1.5258079E0],"split_indices":[1,0,14,11,0,1,14,14,0,3,4,0,14,14,1,0,0,0,0,0,0,0,0,0,0,0,0,0,0],"split_type":[0,0,0,0,0,0,0,0,0,0,0,0,0,0,0,0,0,0,0,0,0,0,0,0,0,0,0,0,0],"sum_hessian":[3.17E3,1.638E3,1.532E3,1.355E3,2.83E2,1.387E3,1.45E2,1.354E3,1E0,4E1,2.43E2,6.48E2,7.39E2,1.39E2,6E0,1.335E3,1.9E1,3.3E1,7E0,8.1E1,1.62E2,1.56E2,4.92E2,3.13E2,4.26E2,9.8E1,4.1E1,1E0,5E0],"tree_param":{"num_deleted":"0","num_feature":"20","num_nodes":"29","size_leaf_vector":"0"}},{"base_weights":[3.3381848E0,7.5938547E-1,6.639022E0,8.92352E-2,3.2313042E0,6.3272376E0,2.4562807E1,-4.3924693E-2,6.33146E0,1.3956614E0,4.168694E0,5.645717E0,1.0948313E1,8.3729917E-1,3.227851E1,-1.1824437E-2,8.2333244E-2,2.313504E-1,6.964159E-1,1.5374875E-1,2.6544437E-2,2.8399327E-1,1.3585381E-1,3.5325536E-1,2.2180894E-1,4.6714482E-1,6.1662143E-1,2.0185072E0,7.247261E-1],"categories":[],"categories_nodes":[],"categories_segments":[],"categories_sizes":[],"default_left":[0,0,0,0,0,0,0,0,0,0,0,0,0,0,0,0,0,0,0,0,0,0,0,0,0,0,0,0,0],"id":27,"left_children":[1,3,5,7,9,11,13,15,17,19,21,23,25,-1,27,-1,-1,-1,-1,-1,-1,-1,-1,-1,-1,-1,-1,-1,-1],"loss_changes":[2.7634059E4,3.0212715E3,7.8024062E3,1.1939012E3,6.635393E2,4.3504375E3,9.0695996E2,4.5843375E2,3.2400793E2,1.915134E2,5.483335E2,2.0683125E3,2.8253125E2,0E0,9.977715E2,0E0,0E0,0E0,0E0,0E0,0E0,0E0,0E0,0E0,0E0,0E0,0E0,0E0,0E0],"parents":[2147483647,0,0,1,1,2,2,3,3,4,4,5,5,6,6,7,7,8,8,9,9,10,10,11,11,12,12,14,14],"right_children":[2,4,6,8,10,12,14,16,18,20,22,24,26,-1,28,-1,-1,-1,-1,-1,-1,-1,-1,-1,-1,-1,-1,-1,-1],"split_conditions":[3.272057E-1,4.1336562E-2,3.2286545E1,4.57849E0,1.1151973E-3,1.6965878E1,3.9282146E1,5.643609E-1,1.4466539E1,9.031219E-1,4.5502707E-2,3.0408327E-2,2.1452724E1,8.3729917E-1,7.02767E-2,-1.1824437E-2,8.2333244E-2,2.313504E-1,6.964159E-1,1.5374875E-1,2.6544437E-2,2.8399327E-1,1.3585381E-1,3.5325536E-1,2.2180894E-1,4.6714482E-1,6.1662143E-1,2.0185072E0,7.247261E-1],"split_indices":[1,0,9,9,9,14,9,9,9,0,14,14,14,0,0,0,0,0,0,0,0,0,0,0,0,0,0,0,0],"split_type":[0,0,0,0,0,0,0,0,0,0,0,0,0,0,0,0,0,0,0,0,0,0,0,0,0,0,0,0,0],"sum_hessian":[3.246E3,1.823E3,1.423E3,1.435E3,3.88E2,1.4E3,2.3E1,1.406E3,2.9E1,1.32E2,2.56E2,1.222E3,1.78E2,1.3E1,1E1,1.263E3,1.43E2,2.5E1,4E0,4.4E1,8.8E1,1.24E2,1.32E2,5.6E2,6.62E2,8.6E1,9.2E1,6E0,4E0],"tree_param":{"num_deleted":"0","num_feature":"20","num_nodes":"29","size_leaf_vector":"0"}},{"base_weights":[3.181112E0,1.5350268E0,9.463177E0,6.780633E-1,8.724661E0,7.9074116E0,1.6241728E1,5.551475E-2,3.456146E0,6.6763406E0,1.3104224E1,7.2140255E0,1.2556073E1,1.4843319E1,3.448844E1,-1.3821134E-2,1.0013377E-1,1.3649128E-1,2.9369816E-1,2.700008E-1,5.168056E-1,5.6288457E-1,9.271286E-1,2.9647082E-1,4.5598814E-1,5.725798E-1,8.424021E-1,6.239358E-1,8.164471E-1,1.840875E0,4.5462582E-1],"categories":[],"categories_nodes":[],"categories_segments":[],"categories_sizes":[],"default_left":[0,0,0,0,0,0,0,0,0,0,0,0,0,0,0,0,0,0,0,0,0,0,0,0,0,0,0,0,0,0,0],"id":28,"left_children":[1,3,5,7,9,11,13,15,17,19,21,23,25,27,29,-1,-1,-1,-1,-1,-1,-1,-1,-1,-1,-1,-1,-1,-1,-1,-1],"loss_changes":[3.3065742E4,1.5619023E4,6.874008E3,3.920565E3,2.3346133E3,1.6564609E3,2.626588E3,1.1982133E3,7.12751E2,8.1300195E2,6.448301E2,1.1063379E3,1.3414844E2,2.0373242E2,1.384248E2,0E0,0E0,0E0,0E0,0E0,0E0,0E0,0E0,0E0,0E0,0E0,0E0,0E0,0E0,0E0,0E0],"parents":[2147483647,0,0,1,1,2,2,3,3,4,4,5,5,6,6,7,7,8,8,9,9,10,10,11,11,12,12,13,13,14,14],"right_children":[2,4,6,8,10,12,14,16,18,20,22,24,26,28,30,-1,-1,-1,-1,-1,-1,-1,-1,-1,-1,-1,-1,-1,-1,-1,-1],"split_conditions":[7.60738E0,7.6327915E0,1.868921E1,3.0267365E0,1.7018335E1,2.5045407E0,3.742244E1,1.2558231E0,1.1684229E0,1.8229765E0,3.2286545E1,1.2128218E1,1.1724737E1,2.195954E1,9.6940446E-1,-1.3821134E-2,1.0013377E-1,1.3649128E-1,2.9369816E-1,2.700008E-1,5.168056E-1,5.6288457E-1,9.271286E-1,2.9647082E-1,4.5598814E-1,5.725798E-1,8.424021E-1,6.239358E-1,8.164471E-1,1.840875E0,4.5462582E-1],"split_indices":[8,9,8,8,9,9,8,9,9,8,9,8,9,8,0,0,0,0,0,0,0,0,0,0,0,0,0,0,0,0,0],"split_type":[0,0,0,0,0,0,0,0,0,0,0,0,0,0,0,0,0,0,0,0,0,0,0,0,0,0,0,0,0,0,0],"sum_hessian":[3.198E3,2.535E3,6.63E2,2.266E3,2.69E2,5.41E2,1.22E2,1.852E3,4.14E2,1.85E2,8.4E1,4.73E2,6.8E1,1.15E2,7E0,1.583E3,2.69E2,3.2E2,9.4E1,1.39E2,4.6E1,6.5E1,1.9E1,2.85E2,1.88E2,5.7E1,1.1E1,4.8E1,6.7E1,6E0,1E0],"tree_param":{"num_deleted":"0","num_feature":"20","num_nodes":"31","size_leaf_vector":"0"}},{"base_weights":[2.964387E0,1.4524039E0,8.81389E0,6.536552E-1,8.952724E0,7.1847506E0,1.38508E1,4.472005E-2,3.3930259E0,7.834212E0,2.4401896E1,6.912246E0,1.976447E1,1.21580925E1,1.9945438E1,-1.0881653E-2,1.3487409E-1,1.2608346E-1,2.7396628E-1,3.356472E-1,6.074489E-1,1.757251E0,8.9460516E-1,3.0580208E-1,4.6514875E-1,6.964138E-1,1.4369746E0,7.029562E-1,4.706924E-1,8.718624E-1,1.2801938E0],"categories":[],"categories_nodes":[],"categories_segments":[],"categories_sizes":[],"default_left":[0,0,0,0,0,0,0,0,0,0,0,0,0,0,0,0,0,0,0,0,0,0,0,0,0,0,0,0,0,0,0],"id":29,"left_children":[1,3,5,7,9,11,13,15,17,19,21,23,25,27,29,-1,-1,-1,-1,-1,-1,-1,-1,-1,-1,-1,-1,-1,-1,-1,-1],"loss_changes":[2.8200674E4,1.5186997E4,5.2753047E3,3.8247996E3,4.0251738E3,1.5671094E3,1.3978164E3,1.3069045E3,7.4425195E2,1.0263486E3,4.901504E2,8.720156E2,1.2350781E2,5.301953E2,2.1888672E1,0E0,0E0,0E0,0E0,0E0,0E0,0E0,0E0,0E0,0E0,0E0,0E0,0E0,0E0,0E0,0E0],"parents":[2147483647,0,0,1,1,2,2,3,3,4,4,5,5,6,6,7,7,8,8,9,9,10,10,11,11,12,12,13,13,14,14],"right_children":[2,4,6,8,10,12,14,16,18,20,22,24,26,28,30,-1,-1,-1,-1,-1,-1,-1,-1,-1,-1,-1,-1,-1,-1,-1,-1],"split_conditions":[7.7585254E0,8.261561E0,1.6869778E1,3.1979947E0,3.519539E1,1.1724737E1,2.552864E1,3.038477E0,5.829976E-1,2.0494411E1,3.1265663E1,1.31928425E1,9.329833E-1,1.3357949E1,3.742244E1,-1.0881653E-2,1.3487409E-1,1.2608346E-1,2.7396628E-1,3.356472E-1,6.074489E-1,1.757251E0,8.9460516E-1,3.0580208E-1,4.6514875E-1,6.964138E-1,1.4369746E0,7.029562E-1,4.706924E-1,8.718624E-1,1.2801938E0],"split_indices":[8,9,8,8,9,9,8,9,9,9,14,8,4,14,8,0,0,0,0,0,0,0,0,0,0,0,0,0,0,0,0],"split_type":[0,0,0,0,0,0,0,0,0,0,0,0,0,0,0,0,0,0,0,0,0,0,0,0,0,0,0,0,0,0,0],"sum_hessian":[3.189E3,2.535E3,6.54E2,2.292E3,2.43E2,4.96E2,1.58E2,1.876E3,4.16E2,2.28E2,1.5E1,4.87E2,9E0,1.26E2,3.2E1,1.708E3,1.68E2,2.95E2,1.21E2,1.83E2,4.5E1,4E0,1.1E1,3.68E2,1.19E2,7E0,2E0,7.2E1,5.4E1,2.5E1,7E0],"tree_param":{"num_deleted":"0","num_feature":"20","num_nodes":"31","size_leaf_vector":"0"}},{"base_weights":[2.9305422E0,1.4631511E0,9.029467E0,4.912512E-1,6.3304763E0,7.7594438E0,1.6059917E1,-1.1224378E-1,2.8443189E0,4.9472666E0,1.1280944E1,7.520403E0,2.0841314E1,1.4522937E1,2.9132963E1,2.7623382E-1,-8.567067E-3,5.7397956E-1,1.359909E-1,1.9207273E-1,3.844647E-1,5.360839E-1,1.5823201E0,3.1431362E-1,4.6929726E-1,1.1075653E0,2.5903472E-1,8.194281E-1,5.486737E-1,1.5359154E0,4.1125536E-1],"categories":[],"categories_nodes":[],"categories_segments":[],"categories_sizes":[],"default_left":[0,0,0,0,0,0,0,0,0,0,0,0,0,0,0,0,0,0,0,0,0,0,0,0,0,0,0,0,0,0,0],"id":30,"left_children":[1,3,5,7,9,11,13,15,17,19,21,23,25,27,29,-1,-1,-1,-1,-1,-1,-1,-1,-1,-1,-1,-1,-1,-1,-1,-1],"loss_changes":[2.8929496E4,1.2334172E4,5.4737617E3,3.0889595E3,2.9160215E3,1.5100098E3,1.4857402E3,5.779246E2,4.4612207E2,1.00443164E3,7.31333E2,1.1497168E3,6.9878174E1,3.9627148E2,4.565381E1,0E0,0E0,0E0,0E0,0E0,0E0,0E0,0E0,0E0,0E0,0E0,0E0,0E0,0E0,0E0,0E0],"parents":[2147483647,0,0,1,1,2,2,3,3,4,4,5,5,6,6,7,7,8,8,9,9,10,10,11,11,12,12,13,13,14,14],"right_children":[2,4,6,8,10,12,14,16,18,20,22,24,26,28,30,-1,-1,-1,-1,-1,-1,-1,-1,-1,-1,-1,-1,-1,-1,-1,-1],"split_conditions":[8.306206E0,3.9051874E0,2.0831842E1,2.8857138E0,1.5442506E1,1.1724737E1,3.742244E1,5.083333E-1,4.3333334E-1,1.7550579E0,4.590628E1,1.3088074E1,1.1321467E0,2.0252352E1,9.6940446E-1,2.7623382E-1,-8.567067E-3,5.7397956E-1,1.359909E-1,1.9207273E-1,3.844647E-1,5.360839E-1,1.5823201E0,3.1431362E-1,4.6929726E-1,1.1075653E0,2.5903472E-1,8.194281E-1,5.486737E-1,1.5359154E0,4.1125536E-1],"split_indices":[8,9,8,8,9,9,8,3,3,8,14,8,17,14,0,0,0,0,0,0,0,0,0,0,0,0,0,0,0,0,0],"split_type":[0,0,0,0,0,0,0,0,0,0,0,0,0,0,0,0,0,0,0,0,0,0,0,0,0,0,0,0,0,0,0],"sum_hessian":[3.233E3,2.607E3,6.26E2,2.174E3,4.33E2,5.32E2,9.4E1,1.731E3,4.43E2,3.4E2,9.3E1,5.24E2,8E0,8.6E1,8E0,1.7E1,1.714E3,5E0,4.38E2,2.44E2,9.6E1,9.2E1,1E0,3.18E2,2.06E2,7E0,1E0,5.4E1,3.2E1,7E0,1E0],"tree_param":{"num_deleted":"0","num_feature":"20","num_nodes":"31","size_leaf_vector":"0"}},{"base_weights":[2.803405E0,9.457914E-1,5.915587E0,1.3945134E-1,3.0875168E0,5.730471E0,2.7482391E1,-4.8440028E-2,4.7980294E0,1.3469399E0,3.9101188E0,5.102192E0,1.0183471E1,1.8607525E0,1.4791443E1,-1.166284E-2,5.340288E-2,9.3388665E-1,2.1083234E-1,-1.8690778E-2,1.3397707E-1,2.1681379E-1,5.8981985E-2,3.3324632E-1,1.9059071E-1,4.7606665E-1,7.199916E-1,3.794914E-1,9.731558E-1],"categories":[],"categories_nodes":[],"categories_segments":[],"categories_sizes":[],"default_left":[0,0,0,0,0,0,0,0,0,0,0,0,0,0,0,0,0,0,0,0,0,0,0,0,0,0,0,0,0],"id":31,"left_children":[1,3,5,7,9,11,13,15,17,19,21,23,25,-1,27,-1,-1,-1,-1,-1,-1,-1,-1,-1,-1,-1,-1,-1,-1],"loss_changes":[1.865044E4,3.4914807E3,4.657293E3,1.2869332E3,7.8652E2,3.2969219E3,6.8470264E2,2.9202444E2,3.8119946E2,4.1146317E2,4.3123877E2,2.093955E3,2.73292E2,0E0,5.413977E1,0E0,0E0,0E0,0E0,0E0,0E0,0E0,0E0,0E0,0E0,0E0,0E0,0E0,0E0],"parents":[2147483647,0,0,1,1,2,2,3,3,4,4,5,5,6,6,7,7,8,8,9,9,10,10,11,11,12,12,14,14],"right_children":[2,4,6,8,10,12,14,16,18,20,22,24,26,-1,28,-1,-1,-1,-1,-1,-1,-1,-1,-1,-1,-1,-1,-1,-1],"split_conditions":[4.0990797E-1,4.1336562E-2,3.9282146E1,4.01814E0,1.1151973E-3,1.9239468E1,7.02767E-2,3.369669E-1,5.6666666E-1,5.401239E-1,9.383362E-1,3.0408327E-2,3.5053974E1,1.8607525E0,4.590628E1,-1.166284E-2,5.340288E-2,9.3388665E-1,2.1083234E-1,-1.8690778E-2,1.3397707E-1,2.1681379E-1,5.8981985E-2,3.3324632E-1,1.9059071E-1,4.7606665E-1,7.199916E-1,3.794914E-1,9.731558E-1],"split_indices":[1,0,9,9,9,14,0,9,3,4,0,14,14,0,14,0,0,0,0,0,0,0,0,0,0,0,0,0,0],"split_type":[0,0,0,0,0,0,0,0,0,0,0,0,0,0,0,0,0,0,0,0,0,0,0,0,0,0,0,0,0],"sum_hessian":[3.226E3,2.021E3,1.205E3,1.469E3,5.52E2,1.196E3,9E0,1.413E3,5.6E1,1.78E2,3.74E2,1.05E3,1.46E2,4E0,5E0,1.213E3,2E2,1E0,5.5E1,7.8E1,1E2,3.23E2,5.1E1,4.73E2,5.77E2,1.29E2,1.7E1,3E0,2E0],"tree_param":{"num_deleted":"0","num_feature":"20","num_nodes":"29","size_leaf_vector":"0"}},{"base_weights":[2.6423163E0,1.4292071E0,8.804316E0,5.281753E-1,6.2909284E0,7.4744925E0,1.6124647E1,-5.9135113E-2,3.2220995E0,5.7752733E0,2.9082886E1,6.261801E0,9.470252E0,1.4256304E1,2.7777416E1,1.7449819E-1,-5.9710904E-3,2.3961711E-1,1.3848256E-1,2.2112732E-1,4.6457672E-1,3.3796015E-1,1.9559097E0,2.655579E-1,4.3557057E-1,5.4186815E-1,3.7105042E-1,8.214976E-1,5.3689927E-1,3.7996387E-1,1.4587535E0],"categories":[],"categories_nodes":[],"categories_segments":[],"categories_sizes":[],"default_left":[0,0,0,0,0,0,0,0,0,0,0,0,0,0,0,0,0,0,0,0,0,0,0,0,0,0,0,0,0,0,0],"id":32,"left_children":[1,3,5,7,9,11,13,15,17,19,21,23,25,27,29,-1,-1,-1,-1,-1,-1,-1,-1,-1,-1,-1,-1,-1,-1,-1,-1],"loss_changes":[2.3900508E4,1.1710311E4,4.999953E3,3.571148E3,4.744701E3,1.0225469E3,1.345707E3,3.9710492E2,2.7375E2,1.9090898E3,1.7518174E3,6.0809863E2,3.8743262E2,3.665547E2,6.0311035E1,0E0,0E0,0E0,0E0,0E0,0E0,0E0,0E0,0E0,0E0,0E0,0E0,0E0,0E0,0E0,0E0],"parents":[2147483647,0,0,1,1,2,2,3,3,4,4,5,5,6,6,7,7,8,8,9,9,10,10,11,11,12,12,13,13,14,14],"right_children":[2,4,6,8,10,12,14,16,18,20,22,24,26,28,30,-1,-1,-1,-1,-1,-1,-1,-1,-1,-1,-1,-1,-1,-1,-1,-1],"split_conditions":[9.430762E0,4.01814E0,2.195954E1,4.3585954E0,3.9282146E1,1.435756E1,3.742244E1,5.833333E-1,2.6907456E-1,1.39115095E1,7.949051E-3,4.876447E-1,9.106037E0,5.7887135E0,7.065319E-1,1.7449819E-1,-5.9710904E-3,2.3961711E-1,1.3848256E-1,2.2112732E-1,4.6457672E-1,3.3796015E-1,1.9559097E0,2.655579E-1,4.3557057E-1,5.4186815E-1,3.7105042E-1,8.214976E-1,5.3689927E-1,3.7996387E-1,1.4587535E0],"split_indices":[8,9,8,8,9,8,8,3,1,9,17,9,14,14,1,0,0,0,0,0,0,0,0,0,0,0,0,0,0,0,0],"split_type":[0,0,0,0,0,0,0,0,0,0,0,0,0,0,0,0,0,0,0,0,0,0,0,0,0,0,0,0,0,0,0],"sum_hessian":[3.198E3,2.673E3,5.25E2,2.256E3,4.17E2,4.46E2,7.9E1,1.853E3,4.03E2,4.09E2,8E0,2.8E2,1.66E2,7E1,9E0,3E1,1.823E3,8.8E1,3.15E2,2.97E2,1.12E2,3E0,5E0,2.04E2,7.6E1,9.7E1,6.9E1,4.1E1,2.9E1,1E0,8E0],"tree_param":{"num_deleted":"0","num_feature":"20","num_nodes":"31","size_leaf_vector":"0"}},{"base_weights":[2.4701226E0,1.3078686E0,7.8430114E0,6.3809764E-1,7.236331E0,6.782864E0,1.2730205E1,2.4592804E-2,2.9900239E0,6.3431425E0,2.1938105E1,5.854882E0,9.404724E0,1.1064406E1,1.7351654E1,2.764076E-1,-2.9045942E-3,1.1742115E-1,2.4715701E-1,2.7741227E-1,4.964686E-1,1.3428062E0,5.042528E-1,2.4208967E-1,3.8989022E-1,3.858377E-1,5.597111E-1,6.366176E-1,4.1604868E-1,4.7469434E-1,9.1981405E-1],"categories":[],"categories_nodes":[],"categories_segments":[],"categories_sizes":[],"default_left":[0,0,0,0,0,0,0,0,0,0,0,0,0,0,0,0,0,0,0,0,0,0,0,0,0,0,0,0,0,0,0],"id":33,"left_children":[1,3,5,7,9,11,13,15,17,19,21,23,25,27,29,-1,-1,-1,-1,-1,-1,-1,-1,-1,-1,-1,-1,-1,-1,-1,-1],"loss_changes":[2.0116285E4,1.052174E4,2.8824492E3,3.4384004E3,3.3932021E3,1.0957637E3,5.8555273E2,8.608397E2,6.061797E2,6.7183496E2,6.035576E2,6.551035E2,2.8213184E2,2.4639746E2,3.0558594E1,0E0,0E0,0E0,0E0,0E0,0E0,0E0,0E0,0E0,0E0,0E0,0E0,0E0,0E0,0E0,0E0],"parents":[2147483647,0,0,1,1,2,2,3,3,4,4,5,5,6,6,7,7,8,8,9,9,10,10,11,11,12,12,13,13,14,14],"right_children":[2,4,6,8,10,12,14,16,18,20,22,24,26,28,30,-1,-1,-1,-1,-1,-1,-1,-1,-1,-1,-1,-1,-1,-1,-1,-1],"split_conditions":[8.915652E0,7.8140564E0,2.0104874E1,3.0267365E0,3.519539E1,5.276659E-1,2.7962513E1,5.75E-1,1.1684229E0,2.1739246E1,7.02767E-2,1.3976461E1,1.2354472E1,2.0252352E1,6.8615323E-1,2.764076E-1,-2.9045942E-3,1.1742115E-1,2.4715701E-1,2.7741227E-1,4.964686E-1,1.3428062E0,5.042528E-1,2.4208967E-1,3.8989022E-1,3.858377E-1,5.597111E-1,6.366176E-1,4.1604868E-1,4.7469434E-1,9.1981405E-1],"split_indices":[8,9,8,8,9,9,8,3,9,14,0,8,8,14,1,0,0,0,0,0,0,0,0,0,0,0,0,0,0,0,0],"split_type":[0,0,0,0,0,0,0,0,0,0,0,0,0,0,0,0,0,0,0,0,0,0,0,0,0,0,0,0,0,0,0],"sum_hessian":[3.222E3,2.65E3,5.72E2,2.382E3,2.68E2,4.72E2,1E2,1.89E3,4.92E2,2.54E2,1.4E1,3.51E2,1.21E2,7.6E1,2.4E1,2.7E1,1.863E3,3.72E2,1.2E2,2.1E2,4.4E1,9E0,5E0,2.33E2,1.18E2,6.5E1,5.6E1,4.5E1,3.1E1,4E0,2E1],"tree_param":{"num_deleted":"0","num_feature":"20","num_nodes":"31","size_leaf_vector":"0"}},{"base_weights":[2.381223E0,1.3018839E0,7.767355E0,7.7534956E-1,8.292697E0,6.790903E0,1.3719032E1,1.5320899E-1,3.0062299E0,7.3314815E0,2.4476946E1,5.846988E0,9.9567E0,1.215554E1,2.3660301E1,-4.424382E-3,1.5246479E-1,1.0028824E0,1.4526862E-1,2.8073224E-1,4.6714813E-1,2.4876748E-1,1.8324393E0,2.4116178E-1,3.7636203E-1,4.6632272E-1,1.028514E0,7.232889E-1,4.6244296E-1,1.2475972E0,3.3317873E-1],"categories":[],"categories_nodes":[],"categories_segments":[],"categories_sizes":[],"default_left":[0,0,0,0,0,0,0,0,0,0,0,0,0,0,0,0,0,0,0,0,0,0,0,0,0,0,0,0,0,0,0],"id":34,"left_children":[1,3,5,7,9,11,13,15,17,19,21,23,25,27,29,-1,-1,-1,-1,-1,-1,-1,-1,-1,-1,-1,-1,-1,-1,-1,-1],"loss_changes":[1.8523207E4,9.773732E3,2.9985703E3,3.430481E3,2.7140674E3,1.3133887E3,8.6258496E2,1.3540204E3,8.6867725E2,5.58791E2,2.1913623E3,5.760713E2,5.0382617E2,3.0940527E2,3.1314941E1,0E0,0E0,0E0,0E0,0E0,0E0,0E0,0E0,0E0,0E0,0E0,0E0,0E0,0E0,0E0,0E0],"parents":[2147483647,0,0,1,1,2,2,3,3,4,4,5,5,6,6,7,7,8,8,9,9,10,10,11,11,12,12,13,13,14,14],"right_children":[2,4,6,8,10,12,14,16,18,20,22,24,26,28,30,-1,-1,-1,-1,-1,-1,-1,-1,-1,-1,-1,-1,-1,-1,-1,-1],"split_conditions":[9.063529E0,1.0876465E1,2.195954E1,3.1979947E0,3.9282146E1,6.95199E-1,3.742244E1,5.099671E0,4.3333334E-1,1.7018335E1,7.949051E-3,1.435756E1,1.234601E1,5.7887135E0,9.6940446E-1,-4.424382E-3,1.5246479E-1,1.0028824E0,1.4526862E-1,2.8073224E-1,4.6714813E-1,2.4876748E-1,1.8324393E0,2.4116178E-1,3.7636203E-1,4.6632272E-1,1.028514E0,7.232889E-1,4.6244296E-1,1.2475972E0,3.3317873E-1],"split_indices":[8,9,8,8,9,9,8,9,3,9,17,8,9,14,0,0,0,0,0,0,0,0,0,0,0,0,0,0,0,0,0],"split_type":[0,0,0,0,0,0,0,0,0,0,0,0,0,0,0,0,0,0,0,0,0,0,0,0,0,0,0,0,0,0,0],"sum_hessian":[3.187E3,2.656E3,5.31E2,2.471E3,1.85E2,4.58E2,7.3E1,1.933E3,5.38E2,1.76E2,9E0,3.55E2,1.03E2,6.5E1,8E0,1.785E3,1.48E2,2E0,5.36E2,9.7E1,7.9E1,4E0,5E0,2.23E2,1.32E2,9.9E1,4E0,3.4E1,3.1E1,7E0,1E0],"tree_param":{"num_deleted":"0","num_feature":"20","num_nodes":"31","size_leaf_vector":"0"}},{"base_weights":[2.2995265E0,1.3564999E0,8.01842E0,8.085391E-1,7.246557E0,7.327196E0,1.8014946E1,9.047394E-2,2.9921787E0,6.2741857E0,1.5241301E1,6.666279E0,1.11532E1,1.3765078E1,2.4713188E1,-8.402529E-3,1.05481684E-1,1.216048E-1,2.4017917E-1,2.7243304E-1,4.4992074E-1,1.4747479E0,5.560898E-1,2.5552484E-1,4.1226354E-1,5.2362424E-1,1.3169221E0,7.112476E-1,1.2568608E-1,3.162794E-1,1.3026706E0],"categories":[],"categories_nodes":[],"categories_segments":[],"categories_sizes":[],"default_left":[0,0,0,0,0,0,0,0,0,0,0,0,0,0,0,0,0,0,0,0,0,0,0,0,0,0,0,0,0,0,0],"id":35,"left_children":[1,3,5,7,9,11,13,15,17,19,21,23,25,27,29,-1,-1,-1,-1,-1,-1,-1,-1,-1,-1,-1,-1,-1,-1,-1,-1],"loss_changes":[1.748424E4,8.986014E3,3.0396191E3,3.9981177E3,1.7467783E3,1.01550586E3,4.853545E2,1.00259894E3,6.2848975E2,4.2999023E2,1.1399131E3,8.6679297E2,3.6505518E2,6.772681E1,8.163135E1,0E0,0E0,0E0,0E0,0E0,0E0,0E0,0E0,0E0,0E0,0E0,0E0,0E0,0E0,0E0,0E0],"parents":[2147483647,0,0,1,1,2,2,3,3,4,4,5,5,6,6,7,7,8,8,9,9,10,10,11,11,12,12,13,13,14,14],"right_children":[2,4,6,8,10,12,14,16,18,20,22,24,26,28,30,-1,-1,-1,-1,-1,-1,-1,-1,-1,-1,-1,-1,-1,-1,-1,-1],"split_conditions":[1.0252517E1,9.318053E0,2.7962513E1,3.0267365E0,3.2286545E1,1.7027985E0,3.742244E1,2.7362154E0,9.9896276E-1,1.9249451E0,3.1265663E1,1.435756E1,1.5442506E1,4.048036E1,7.065319E-1,-8.402529E-3,1.05481684E-1,1.216048E-1,2.4017917E-1,2.7243304E-1,4.4992074E-1,1.4747479E0,5.560898E-1,2.5552484E-1,4.1226354E-1,5.2362424E-1,1.3169221E0,7.112476E-1,1.2568608E-1,3.162794E-1,1.3026706E0],"split_indices":[8,9,8,8,9,9,8,9,9,8,14,8,9,14,1,0,0,0,0,0,0,0,0,0,0,0,0,0,0,0,0],"split_type":[0,0,0,0,0,0,0,0,0,0,0,0,0,0,0,0,0,0,0,0,0,0,0,0,0,0,0,0,0,0,0],"sum_hessian":[3.243E3,2.785E3,4.58E2,2.549E3,2.36E2,4.3E2,2.8E1,1.919E3,6.3E2,2.12E2,2.4E1,3.69E2,6.1E1,1.9E1,9E0,1.702E3,2.17E2,4.83E2,1.47E2,1.65E2,4.7E1,4E0,2E1,1.88E2,1.81E2,6E1,1E0,1.8E1,1E0,1E0,8E0],"tree_param":{"num_deleted":"0","num_feature":"20","num_nodes":"31","size_leaf_vector":"0"}},{"base_weights":[2.2181969E0,1.0683976E0,6.7978506E0,6.577613E-1,6.107519E0,5.6875434E0,1.2011113E1,9.5997654E-2,1.9639437E0,4.5337434E0,9.28303E0,5.6015315E0,1.2839991E0,1.077444E1,2.4966991E1,2.807718E-3,1.1035389E0,3.034995E-1,8.715135E-2,1.7841695E-1,2.9890677E-1,4.1349378E-1,9.690823E-1,2.235974E-1,3.4314296E-1,6.2916976E-1,3.9578053E-1,1.4780041E0,5.9178036E-1],"categories":[],"categories_nodes":[],"categories_segments":[],"categories_sizes":[],"default_left":[0,0,0,0,0,0,0,0,0,0,0,0,0,0,0,0,0,0,0,0,0,0,0,0,0,0,0,0,0],"id":36,"left_children":[1,3,5,7,9,11,13,15,17,19,21,23,-1,25,27,-1,-1,-1,-1,-1,-1,-1,-1,-1,-1,-1,-1,-1,-1],"loss_changes":[1.686925E4,5.299462E3,3.6535742E3,1.7395701E3,9.224385E2,7.709746E2,1.5254795E3,1.4512941E3,6.36178E2,1.6133765E2,4.8429785E2,7.2586523E2,0E0,4.3823047E2,1.9296143E2,0E0,0E0,0E0,0E0,0E0,0E0,0E0,0E0,0E0,0E0,0E0,0E0,0E0,0E0],"parents":[2147483647,0,0,1,1,2,2,3,3,4,4,5,5,6,6,7,7,8,8,9,9,10,10,11,11,13,13,14,14],"right_children":[2,4,6,8,10,12,14,16,18,20,22,24,-1,26,28,-1,-1,-1,-1,-1,-1,-1,-1,-1,-1,-1,-1,-1,-1],"split_conditions":[8.306206E0,1.0882813E1,2.0104874E1,4.801416E-1,2.0690025E1,4.590628E1,3.742244E1,9E0,7.949051E-3,1.2137616E0,4.590628E1,1.2054569E1,1.2839991E0,2.0252352E1,1.2550773E1,2.807718E-3,1.1035389E0,3.034995E-1,8.715135E-2,1.7841695E-1,2.9890677E-1,4.1349378E-1,9.690823E-1,2.235974E-1,3.4314296E-1,6.2916976E-1,3.9578053E-1,1.4780041E0,5.9178036E-1],"split_indices":[8,14,8,8,14,14,8,19,17,8,14,8,0,14,14,0,0,0,0,0,0,0,0,0,0,0,0,0,0],"split_type":[0,0,0,0,0,0,0,0,0,0,0,0,0,0,0,0,0,0,0,0,0,0,0,0,0,0,0,0,0],"sum_hessian":[3.204E3,2.562E3,6.42E2,2.37E3,1.92E2,5.31E2,1.11E2,1.658E3,7.12E2,1.3E2,6.2E1,5.3E2,1E0,1.03E2,8E0,1.656E3,2E0,3.5E1,6.77E2,8E1,5E1,5.8E1,4E0,2.82E2,2.48E2,6.1E1,4.2E1,5E0,3E0],"tree_param":{"num_deleted":"0","num_feature":"20","num_nodes":"29","size_leaf_vector":"0"}},{"base_weights":[2.052644E0,2.0856436E-1,3.6398864E0,4.680942E0,9.421892E-2,3.509045E0,2.5715199E1,8.2156706E-1,8.709084E0,-2.0192562E-1,1.2102959E0,3.1860611E0,7.326897E0,1.2877402E1,2.0876272E0,-4.9514687E-3,4.5782247E-1,7.847769E-1,2.4073184E-1,-1.4372039E-2,1.2603909E-1,4.2543028E-2,1.448237E-1,1.8956682E-2,1.7684536E-1,3.2444865E-1,5.054055E-1,4.627813E-2,8.736513E-1],"categories":[],"categories_nodes":[],"categories_segments":[],"categories_sizes":[],"default_left":[0,0,0,0,0,0,0,0,0,0,0,0,0,0,0,0,0,0,0,0,0,0,0,0,0,0,0,0,0],"id":37,"left_children":[1,3,5,7,9,11,13,15,17,19,21,23,25,27,-1,-1,-1,-1,-1,-1,-1,-1,-1,-1,-1,-1,-1,-1,-1],"loss_changes":[9.389062E3,7.58982E2,4.8893027E3,5.6805096E2,4.7916806E2,2.0914297E3,1.5211777E3,1.54368E2,4.1418237E2,2.6755084E2,1.817814E2,1.5575957E3,2.443584E2,3.6831067E2,0E0,0E0,0E0,0E0,0E0,0E0,0E0,0E0,0E0,0E0,0E0,0E0,0E0,0E0,0E0],"parents":[2147483647,0,0,1,1,2,2,3,3,4,4,5,5,6,6,7,7,8,8,9,9,10,10,11,11,12,12,13,13],"right_children":[2,4,6,8,10,12,14,16,18,20,22,24,26,28,-1,-1,-1,-1,-1,-1,-1,-1,-1,-1,-1,-1,-1,-1,-1],"split_conditions":[1.8951389E-1,6.0294116E-1,3.9282146E1,5.966446E-1,9.555877E-2,1.234601E1,1E0,2.4886106E-4,1.1275171E-1,7.642478E-1,1.86766E0,1.6902503E-1,2.7120312E1,7.949051E-3,2.0876272E0,-4.9514687E-3,4.5782247E-1,7.847769E-1,2.4073184E-1,-1.4372039E-2,1.2603909E-1,4.2543028E-2,1.448237E-1,1.8956682E-2,1.7684536E-1,3.2444865E-1,5.054055E-1,4.627813E-2,8.736513E-1],"split_indices":[1,3,9,4,9,9,3,18,17,6,9,4,9,17,0,0,0,0,0,0,0,0,0,0,0,0,0,0,0],"split_type":[0,0,0,0,0,0,0,0,0,0,0,0,0,0,0,0,0,0,0,0,0,0,0,0,0,0,0,0,0],"sum_hessian":[3.207E3,1.484E3,1.723E3,3.6E1,1.448E3,1.714E3,9E0,1.9E1,1.7E1,1.145E3,3.03E2,1.582E3,1.32E2,6E0,3E0,1.8E1,1E0,5E0,1.2E1,1.111E3,3.4E1,2.51E2,5.2E1,1.76E2,1.406E3,1.04E2,2.8E1,2E0,4E0],"tree_param":{"num_deleted":"0","num_feature":"20","num_nodes":"29","size_leaf_vector":"0"}},{"base_weights":[1.9323922E0,6.470669E-1,5.3207736E0,-4.8361097E-2,4.491591E0,4.4765744E0,1.01198015E1,4.8362236E0,-1.111201E-1,3.6173043E0,1.0771462E1,3.8027322E0,8.368668E0,9.373784E0,2.0418102E1,8.317029E-2,1.0538833E0,-1.895604E-2,2.6721759E-2,1.7168671E-1,6.234139E-1,3.5226566E-1,8.628627E-1,1.4942677E-1,2.720036E-1,3.8919306E-1,1.0960035E0,5.5027527E-1,3.4514162E-1,1.0950598E0,2.5091133E-1],"categories":[],"categories_nodes":[],"categories_segments":[],"categories_sizes":[],"default_left":[0,0,0,0,0,0,0,0,0,0,0,0,0,0,0,0,0,0,0,0,0,0,0,0,0,0,0,0,0,0,0],"id":38,"left_children":[1,3,5,7,9,11,13,15,17,19,21,23,25,27,29,-1,-1,-1,-1,-1,-1,-1,-1,-1,-1,-1,-1,-1,-1,-1,-1],"loss_changes":[1.395053E4,6.2136396E3,3.5239238E3,6.041376E2,1.9156211E3,1.937792E3,8.15041E2,1.2532178E3,3.3670563E2,4.673662E2,9.175996E2,8.3960254E2,7.011221E2,4.2398633E2,7.281055E1,0E0,0E0,0E0,0E0,0E0,0E0,0E0,0E0,0E0,0E0,0E0,0E0,0E0,0E0,0E0,0E0],"parents":[2147483647,0,0,1,1,2,2,3,3,4,4,5,5,6,6,7,7,8,8,9,9,10,10,11,11,12,12,13,13,14,14],"right_children":[2,4,6,8,10,12,14,16,18,20,22,24,26,28,30,-1,-1,-1,-1,-1,-1,-1,-1,-1,-1,-1,-1,-1,-1,-1,-1],"split_conditions":[5.4064145E0,4.01814E0,1.868921E1,5.25E-1,2.4629501E1,2.5045407E0,3.742244E1,6.583512E-1,1.0259714E-1,3.2574332E0,9.5033115E-1,1.181668E1,3.2286545E1,1.3357949E1,9.6940446E-1,8.317029E-2,1.0538833E0,-1.895604E-2,2.6721759E-2,1.7168671E-1,6.234139E-1,3.5226566E-1,8.628627E-1,1.4942677E-1,2.720036E-1,3.8919306E-1,1.0960035E0,5.5027527E-1,3.4514162E-1,1.0950598E0,2.5091133E-1],"split_indices":[8,9,8,3,9,9,8,4,9,11,3,8,9,14,0,0,0,0,0,0,0,0,0,0,0,0,0,0,0,0,0],"split_type":[0,0,0,0,0,0,0,0,0,0,0,0,0,0,0,0,0,0,0,0,0,0,0,0,0,0,0,0,0,0,0],"sum_hessian":[3.203E3,2.323E3,8.8E2,1.968E3,3.55E2,7.5E2,1.3E2,2.4E1,1.944E3,3.13E2,4.2E1,6.41E2,1.09E2,1.23E2,7E0,2.1E1,3E0,1.374E3,5.7E2,3.08E2,5E0,2.8E1,1.4E1,4.3E2,2.11E2,1.06E2,3E0,7.2E1,5.1E1,6E0,1E0],"tree_param":{"num_deleted":"0","num_feature":"20","num_nodes":"31","size_leaf_vector":"0"}},{"base_weights":[1.8084247E0,1.0367314E0,6.8070993E0,7.50196E-1,6.344658E0,5.822404E0,1.0999467E1,3.0852243E-1,2.6296227E0,5.201206E0,1.0651032E1,5.700895E0,1.1723083E0,1.2939579E1,7.2751546E0,1.2693266E-2,5.268069E-1,2.4085556E-1,1.2007407E-1,1.866331E-1,3.2161257E-1,5.618546E-1,-1.2931426E-1,3.3907506E-1,2.071508E-1,6.9324815E-1,3.1740963E-1,2.7781297E-2,3.747647E-1],"categories":[],"categories_nodes":[],"categories_segments":[],"categories_sizes":[],"default_left":[0,0,0,0,0,0,0,0,0,0,0,0,0,0,0,0,0,0,0,0,0,0,0,0,0,0,0,0,0],"id":39,"left_children":[1,3,5,7,9,11,13,15,17,19,21,23,-1,25,27,-1,-1,-1,-1,-1,-1,-1,-1,-1,-1,-1,-1,-1,-1],"loss_changes":[1.1997308E4,4.097132E3,1.653291E3,2.124227E3,6.2413135E2,5.922832E2,4.69458E2,1.1567161E3,2.3147241E2,1.7666138E2,2.4628223E2,5.409131E2,0E0,2.1696094E2,3.8733154E1,0E0,0E0,0E0,0E0,0E0,0E0,0E0,0E0,0E0,0E0,0E0,0E0,0E0,0E0],"parents":[2147483647,0,0,1,1,2,2,3,3,4,4,5,5,6,6,7,7,8,8,9,9,10,10,11,11,13,13,14,14],"right_children":[2,4,6,8,10,12,14,16,18,20,22,24,-1,26,28,-1,-1,-1,-1,-1,-1,-1,-1,-1,-1,-1,-1,-1,-1],"split_conditions":[1.056752E1,1.4119138E1,2.195954E1,4.301459E0,2.9528513E1,4.590628E1,2.0252352E1,2.419258E0,2.0496197E-1,6.118756E-1,1.0344695E-1,1.008022E1,1.1723083E0,9.932586E-1,3.2066833E-2,1.2693266E-2,5.268069E-1,2.4085556E-1,1.2007407E-1,1.866331E-1,3.2161257E-1,5.618546E-1,-1.2931426E-1,3.3907506E-1,2.071508E-1,6.9324815E-1,3.1740963E-1,2.7781297E-2,3.747647E-1],"split_indices":[8,14,8,8,14,14,14,11,1,8,0,14,0,0,0,0,0,0,0,0,0,0,0,0,0,0,0,0,0],"split_type":[0,0,0,0,0,0,0,0,0,0,0,0,0,0,0,0,0,0,0,0,0,0,0,0,0,0,0,0,0],"sum_hessian":[3.111E3,2.696E3,4.15E2,2.559E3,1.37E2,3.38E2,7.7E1,2.073E3,4.86E2,1.1E2,2.7E1,3.37E2,1E0,4.9E1,2.8E1,2.063E3,1E1,4.4E1,4.42E2,5.2E1,5.8E1,2.6E1,1E0,1.97E2,1.4E2,4.2E1,7E0,1E0,2.7E1],"tree_param":{"num_deleted":"0","num_feature":"20","num_nodes":"29","size_leaf_vector":"0"}},{"base_weights":[1.8371534E0,9.8318416E-1,6.239404E0,7.1791494E-1,4.5654697E0,5.107767E0,1.0506696E1,1.2777968E-1,2.2692122E0,4.0535254E0,2.646161E1,4.273354E0,6.1048837E0,9.477214E0,2.3859697E1,-6.322679E-3,7.179734E-2,1.9810174E-1,1.0251864E-1,2.7986392E-1,1.9493838E-3,-1.11673236E-1,1.8385562E0,4.8830223E-1,2.0134948E-1,3.1949496E-1,2.1805917E-1,5.043363E-1,3.3374715E-1,1.3076786E0,2.5241128E-1],"categories":[],"categories_nodes":[],"categories_segments":[],"categories_sizes":[],"default_left":[0,0,0,0,0,0,0,0,0,0,0,0,0,0,0,0,0,0,0,0,0,0,0,0,0,0,0,0,0,0,0],"id":40,"left_children":[1,3,5,7,9,11,13,15,17,19,21,23,25,27,29,-1,-1,-1,-1,-1,-1,-1,-1,-1,-1,-1,-1,-1,-1,-1,-1],"loss_changes":[1.1914882E4,2.5215903E3,2.4332812E3,2.2655107E3,1.944096E3,3.1420117E2,1.2447715E3,5.9682935E2,2.4452759E2,1.1153235E3,1.265456E3,2.6649707E2,6.357715E1,1.0518164E2,1.700293E2,0E0,0E0,0E0,0E0,0E0,0E0,0E0,0E0,0E0,0E0,0E0,0E0,0E0,0E0,0E0,0E0],"parents":[2147483647,0,0,1,1,2,2,3,3,4,4,5,5,6,6,7,7,8,8,9,9,10,10,11,11,12,12,13,13,14,14],"right_children":[2,4,6,8,10,12,14,16,18,20,22,24,26,28,30,-1,-1,-1,-1,-1,-1,-1,-1,-1,-1,-1,-1,-1,-1,-1,-1],"split_conditions":[9.581562E0,8.2053095E-1,2.0104874E1,1.3062476E0,2.4886106E-4,1.31928425E1,3.742244E1,8.0772173E-1,1.737708E-1,3.047168E-1,8.752456E-1,1.9663642E-3,9.4655126E-1,9.369396E-1,9.40272E-1,-6.322679E-3,7.179734E-2,1.9810174E-1,1.0251864E-1,2.7986392E-1,1.9493838E-3,-1.11673236E-1,1.8385562E0,4.8830223E-1,2.0134948E-1,3.1949496E-1,2.1805917E-1,5.043363E-1,3.3374715E-1,1.3076786E0,2.5241128E-1],"split_indices":[8,1,8,8,18,8,8,4,1,0,1,17,4,4,0,0,0,0,0,0,0,0,0,0,0,0,0,0,0,0,0],"split_type":[0,0,0,0,0,0,0,0,0,0,0,0,0,0,0,0,0,0,0,0,0,0,0,0,0,0,0,0,0,0,0],"sum_hessian":[3.17E3,2.656E3,5.14E2,2.474E3,1.82E2,4.08E2,1.06E2,1.793E3,6.81E2,1.79E2,3E0,2.25E2,1.83E2,1E2,6E0,1.502E3,2.91E2,7.6E1,6.05E2,1.29E2,5E1,1E0,2E0,8E0,2.17E2,1.55E2,2.8E1,8E1,2E1,5E0,1E0],"tree_param":{"num_deleted":"0","num_feature":"20","num_nodes":"31","size_leaf_vector":"0"}},{"base_weights":[1.7269839E0,6.1880934E-1,4.6140304E0,9.07879E-2,5.5231385E0,3.6262708E0,7.670272E0,-2.361767E-1,1.4908918E0,4.9053836E0,1.980421E1,3.147958E0,8.289192E0,6.904675E0,1.41075945E1,-3.6370938E-3,-5.996082E-2,4.242642E-2,1.5560831E-1,1.8416232E-1,3.5398084E-1,1.4776907E0,3.0468827E-1,1.2503566E-1,1.9686289E-1,3.7463635E-1,1.0727719E0,3.7071416E-1,2.372293E-1,1.0358787E0,5.4724014E-1],"categories":[],"categories_nodes":[],"categories_segments":[],"categories_sizes":[],"default_left":[0,0,0,0,0,0,0,0,0,0,0,0,0,0,0,0,0,0,0,0,0,0,0,0,0,0,0,0,0,0,0],"id":41,"left_children":[1,3,5,7,9,11,13,15,17,19,21,23,25,27,29,-1,-1,-1,-1,-1,-1,-1,-1,-1,-1,-1,-1,-1,-1,-1,-1],"loss_changes":[1.0241469E4,5.9944014E3,2.6529062E3,9.5757935E2,1.8878477E3,1.4749209E3,9.67124E2,2.6685333E2,4.0977252E2,5.5053906E2,1.022949E3,3.0280664E2,4.8940088E2,1.7947949E2,2.3318164E2,0E0,0E0,0E0,0E0,0E0,0E0,0E0,0E0,0E0,0E0,0E0,0E0,0E0,0E0,0E0,0E0],"parents":[2147483647,0,0,1,1,2,2,3,3,4,4,5,5,6,6,7,7,8,8,9,9,10,10,11,11,12,12,13,13,14,14],"right_children":[2,4,6,8,10,12,14,16,18,20,22,24,26,28,30,-1,-1,-1,-1,-1,-1,-1,-1,-1,-1,-1,-1,-1,-1,-1,-1],"split_conditions":[5.2717986E0,9.318053E0,1.5272954E1,1.2121241E0,3.9282146E1,4.57849E0,2.9846834E1,3.0786523E-1,1.2645719E0,1.7018335E1,7.02767E-2,9.744789E0,3.2286545E1,9.369396E-1,8.537571E-1,-3.6370938E-3,-5.996082E-2,4.242642E-2,1.5560831E-1,1.8416232E-1,3.5398084E-1,1.4776907E0,3.0468827E-1,1.2503566E-1,1.9686289E-1,3.7463635E-1,1.0727719E0,3.7071416E-1,2.372293E-1,1.0358787E0,5.4724014E-1],"split_indices":[8,9,8,9,9,9,8,1,8,9,0,8,9,4,0,0,0,0,0,0,0,0,0,0,0,0,0,0,0,0,0],"split_type":[0,0,0,0,0,0,0,0,0,0,0,0,0,0,0,0,0,0,0,0,0,0,0,0,0,0,0,0,0,0,0],"sum_hessian":[3.201E3,2.314E3,8.87E2,2.09E3,2.24E2,6.72E2,2.15E2,1.695E3,3.95E2,2.16E2,8E0,6.11E2,6.1E1,1.94E2,2.1E1,1.45E3,2.45E2,2.84E2,1.11E2,1.4E2,7.6E1,4E0,4E0,3.38E2,2.73E2,5.9E1,2E0,1.55E2,3.9E1,5E0,1.6E1],"tree_param":{"num_deleted":"0","num_feature":"20","num_nodes":"31","size_leaf_vector":"0"}},{"base_weights":[1.5430988E0,7.259841E-1,5.0193577E0,1.7678553E-1,4.3437133E0,4.595871E0,1.3286803E1,-1.2777984E-1,1.8859628E0,3.4908953E0,8.99988E0,4.424815E0,1.62305E1,9.87779E0,1.9764854E1,2.3367436E-1,-9.32098E-3,2.0443581E-1,7.674497E-2,1.2384194E-1,2.5592625E-1,3.8982636E-1,1.0745494E0,1.6263562E-1,2.9745707E-1,9.869394E-1,3.893757E-1,3.4073344E-1,6.6023844E-1,1.1854562E0,4.453619E-1],"categories":[],"categories_nodes":[],"categories_segments":[],"categories_sizes":[],"default_left":[0,0,0,0,0,0,0,0,0,0,0,0,0,0,0,0,0,0,0,0,0,0,0,0,0,0,0,0,0,0,0],"id":42,"left_children":[1,3,5,7,9,11,13,15,17,19,21,23,25,27,29,-1,-1,-1,-1,-1,-1,-1,-1,-1,-1,-1,-1,-1,-1,-1,-1],"loss_changes":[9.043355E3,5.1253096E3,2.0606348E3,1.1668075E3,1.3186753E3,1.078501E3,4.451958E2,5.366515E2,2.5587488E2,4.643191E2,6.1406836E2,1.00083594E3,8.324756E1,1.2402368E2,1.7424536E2,0E0,0E0,0E0,0E0,0E0,0E0,0E0,0E0,0E0,0E0,0E0,0E0,0E0,0E0,0E0,0E0],"parents":[2147483647,0,0,1,1,2,2,3,3,4,4,5,5,6,6,7,7,8,8,9,9,10,10,11,11,12,12,13,13,14,14],"right_children":[2,4,6,8,10,12,14,16,18,20,22,24,26,28,30,-1,-1,-1,-1,-1,-1,-1,-1,-1,-1,-1,-1,-1,-1,-1,-1],"split_conditions":[8.306206E0,5.3198004E0,2.7962513E1,4.210182E0,2.4629501E1,1.234601E1,3.742244E1,5.083333E-1,2.1686374E-1,4.801416E-1,4.590628E1,1.31928425E1,5.4808713E-2,2.0817222E-1,1.2550773E1,2.3367436E-1,-9.32098E-3,2.0443581E-1,7.674497E-2,1.2384194E-1,2.5592625E-1,3.8982636E-1,1.0745494E0,1.6263562E-1,2.9745707E-1,9.869394E-1,3.893757E-1,3.4073344E-1,6.6023844E-1,1.1854562E0,4.453619E-1],"split_indices":[8,9,8,8,9,9,8,3,1,8,14,8,0,7,14,0,0,0,0,0,0,0,0,0,0,0,0,0,0,0,0],"split_type":[0,0,0,0,0,0,0,0,0,0,0,0,0,0,0,0,0,0,0,0,0,0,0,0,0,0,0,0,0,0,0],"sum_hessian":[3.184E3,2.579E3,6.05E2,2.24E3,3.39E2,5.77E2,2.8E1,1.902E3,3.38E2,2.88E2,5.1E1,5.7E2,7E0,2E1,8E0,2.2E1,1.88E3,4.5E1,2.93E2,1.79E2,1.09E2,4.8E1,3E0,3.24E2,2.46E2,4E0,3E0,1.2E1,8E0,5E0,3E0],"tree_param":{"num_deleted":"0","num_feature":"20","num_nodes":"31","size_leaf_vector":"0"}},{"base_weights":[1.5036243E0,9.768345E-2,2.7034018E0,-1.9055551E-1,1.0472379E0,2.3979754E0,6.131046E0,-2.1020688E-1,5.4842246E-1,8.413456E-1,3.0856621E0,6.166043E-1,2.7581186E0,5.7434306E0,1.095884E0,-1.132644E-2,2.987568E-1,2.1042868E-2,7.3351465E-2,1.0102823E-1,2.9476237E-1,1.2344266E-2,1.8818015E-1,2.1992233E-1,8.725713E-2,6.001852E-1,2.3823419E-1],"categories":[],"categories_nodes":[],"categories_segments":[],"categories_sizes":[],"default_left":[0,0,0,0,0,0,0,0,0,0,0,0,0,0,0,0,0,0,0,0,0,0,0,0,0,0,0],"id":43,"left_children":[1,3,5,7,9,11,13,15,-1,17,19,21,23,25,-1,-1,-1,-1,-1,-1,-1,-1,-1,-1,-1,-1,-1],"loss_changes":[5.3739326E3,4.0198907E2,1.7849062E3,2.4944528E2,1.4093991E2,1.0119463E3,7.3079736E2,1.1503064E2,0E0,8.14675E1,8.0855194E1,3.097267E2,2.1756836E3,7.883633E2,0E0,0E0,0E0,0E0,0E0,0E0,0E0,0E0,0E0,0E0,0E0,0E0,0E0],"parents":[2147483647,0,0,1,1,2,2,3,3,4,4,5,5,6,6,7,7,9,9,10,10,11,11,12,12,13,13],"right_children":[2,4,6,8,10,12,14,16,-1,18,20,22,24,26,-1,-1,-1,-1,-1,-1,-1,-1,-1,-1,-1,-1,-1],"split_conditions":[1.8951389E-1,5.101093E-3,1.2657367E1,1.4044113E0,2.4223034E0,3.1201336E-1,4.590628E1,1.948714E1,5.4842246E-1,6.1579025E-1,6.216559E-5,4.927485E0,4.3580565E-3,7.0900025E0,1.095884E0,-1.132644E-2,2.987568E-1,2.1042868E-2,7.3351465E-2,1.0102823E-1,2.9476237E-1,1.2344266E-2,1.8818015E-1,2.1992233E-1,8.725713E-2,6.001852E-1,2.3823419E-1],"split_indices":[1,1,9,10,9,4,14,9,0,4,2,9,14,14,0,0,0,0,0,0,0,0,0,0,0,0,0],"split_type":[0,0,0,0,0,0,0,0,0,0,0,0,0,0,0,0,0,0,0,0,0,0,0,0,0,0,0],"sum_hessian":[3.185E3,1.467E3,1.718E3,1.126E3,3.41E2,1.579E3,1.39E2,1.125E3,1E0,3.11E2,3E1,2.66E2,1.313E3,1.37E2,2E0,1.123E3,2E0,1.87E2,1.24E2,2.3E1,7E0,2.39E2,2.7E1,5E2,8.13E2,1.7E1,1.2E2],"tree_param":{"num_deleted":"0","num_feature":"20","num_nodes":"27","size_leaf_vector":"0"}},{"base_weights":[1.4701439E0,6.8344927E-1,4.625884E0,8.866937E-2,3.7340188E0,3.8605032E0,8.344163E0,-1.296878E-1,1.5536572E0,3.3726163E0,1.785286E1,3.6355844E0,1.3097846E1,7.4156795E0,1.3482582E1,1.8376473E-1,-1.0400166E-2,1.9885224E-1,6.1339457E-2,1.385747E-1,3.0877367E-1,9.02585E-2,1.2236279E0,2.188803E-1,1.1541851E-1,4.423909E-1,9.692974E-1,4.4318873E-1,2.511772E-1,5.1150626E-1,8.9707357E-1],"categories":[],"categories_nodes":[],"categories_segments":[],"categories_sizes":[],"default_left":[0,0,0,0,0,0,0,0,0,0,0,0,0,0,0,0,0,0,0,0,0,0,0,0,0,0,0,0,0,0,0],"id":44,"left_children":[1,3,5,7,9,11,13,15,17,19,21,23,25,27,29,-1,-1,-1,-1,-1,-1,-1,-1,-1,-1,-1,-1,-1,-1,-1,-1],"loss_changes":[7.787249E3,4.5593003E3,1.7493203E3,6.732513E2,2.0318486E3,1.0348384E3,4.0573682E2,5.4668054E2,2.1137195E2,6.585132E2,1.0181321E3,4.921543E2,1.4917212E2,2.7416406E2,3.39917E1,0E0,0E0,0E0,0E0,0E0,0E0,0E0,0E0,0E0,0E0,0E0,0E0,0E0,0E0,0E0,0E0],"parents":[2147483647,0,0,1,1,2,2,3,3,4,4,5,5,6,6,7,7,8,8,9,9,10,10,11,11,12,12,13,13,14,14],"right_children":[2,4,6,8,10,12,14,16,18,20,22,24,26,28,30,-1,-1,-1,-1,-1,-1,-1,-1,-1,-1,-1,-1,-1,-1,-1,-1],"split_conditions":[7.7585254E0,4.01814E0,1.923199E1,4.4778075E0,3.9282146E1,1.1724737E1,3.269781E1,5.833333E-1,2.0496197E-1,1.7018335E1,7.949051E-3,8.083183E0,8.601695E-1,1.866642E1,4.251873E-2,1.8376473E-1,-1.0400166E-2,1.9885224E-1,6.1339457E-2,1.385747E-1,3.0877367E-1,9.02585E-2,1.2236279E0,2.188803E-1,1.1541851E-1,4.423909E-1,9.692974E-1,4.4318873E-1,2.511772E-1,5.1150626E-1,8.9707357E-1],"split_indices":[8,9,8,8,9,9,8,3,1,9,17,14,3,14,5,0,0,0,0,0,0,0,0,0,0,0,0,0,0,0,0],"split_type":[0,0,0,0,0,0,0,0,0,0,0,0,0,0,0,0,0,0,0,0,0,0,0,0,0,0,0,0,0,0,0],"sum_hessian":[3.137E3,2.512E3,6.25E2,2.103E3,4.09E2,5.2E2,1.05E2,1.831E3,2.72E2,4E2,9E0,5.09E2,1.1E1,9.1E1,1.4E1,3.6E1,1.795E3,3.1E1,2.41E2,3.31E2,6.9E1,3E0,6E0,3.25E2,1.84E2,8E0,3E0,5.5E1,3.6E1,1E1,4E0],"tree_param":{"num_deleted":"0","num_feature":"20","num_nodes":"31","size_leaf_vector":"0"}},{"base_weights":[1.3814135E0,3.1856454E-3,2.3330278E0,-2.283902E-2,8.432788E-1,2.054006E0,5.753791E0,-3.9380886E-2,5.349719E-1,2.91411E0,1.3596817E0,5.1823483E0,1.4606234E1,-1.036374E-2,4.404373E-2,5.494817E-2,2.0873807E-1,3.983209E-2,1.6177146E-1,2.6574394E-1,3.5004273E-2,-1.22458935E-2,1.1782954E0],"categories":[],"categories_nodes":[],"categories_segments":[],"categories_sizes":[],"default_left":[0,0,0,0,0,0,0,0,0,0,0,0,0,0,0,0,0,0,0,0,0,0,0],"id":45,"left_children":[1,3,5,7,-1,9,11,13,-1,15,17,19,21,-1,-1,-1,-1,-1,-1,-1,-1,-1,-1],"loss_changes":[4.161513E3,5.695581E2,1.7797168E3,2.3028828E2,0E0,1.0333584E3,6.3757666E2,2.0026692E2,0E0,1.7688193E3,1.01446704E3,7.588013E1,1.0702637E3,0E0,0E0,0E0,0E0,0E0,0E0,0E0,0E0,0E0,0E0],"parents":[2147483647,0,0,1,1,2,2,3,3,5,5,6,6,7,7,9,9,10,10,11,11,12,12],"right_children":[2,4,6,8,-1,10,12,14,-1,16,18,20,22,-1,-1,-1,-1,-1,-1,-1,-1,-1,-1],"split_conditions":[1.09028555E-1,1.3438133E0,2.013734E1,1.0221599E0,8.432788E-1,3.0408327E-2,4.590628E1,1.2919433E-1,5.349719E-1,4.70496E-1,1.1971315E1,3.9282146E1,7.1366024E-1,-1.036374E-2,4.404373E-2,5.494817E-2,2.0873807E-1,3.983209E-2,1.6177146E-1,2.6574394E-1,3.5004273E-2,-1.22458935E-2,1.1782954E0],"split_indices":[1,11,14,10,0,14,14,9,0,4,14,9,9,0,0,0,0,0,0,0,0,0,0],"split_type":[0,0,0,0,0,0,0,0,0,0,0,0,0,0,0,0,0,0,0,0,0,0,0],"sum_hessian":[3.172E3,1.296E3,1.876E3,1.295E3,1E0,1.736E3,1.4E2,1.294E3,1E0,7.74E2,9.62E2,1.33E2,7E0,1.095E3,1.99E2,3.18E2,4.56E2,7.41E2,2.21E2,1.29E2,4E0,3E0,4E0],"tree_param":{"num_deleted":"0","num_feature":"20","num_nodes":"23","size_leaf_vector":"0"}},{"base_weights":[1.3385785E0,7.07415E-1,5.13506E0,4.567942E-1,3.9365973E0,4.2673826E0,8.993421E0,1.3768247E-1,2.0505316E0,3.6718583E0,1.3421155E1,4.172032E0,9.9821323E-1,7.849202E0,1.7529305E1,4.9245576E-3,5.257987E-1,4.6716386E-1,9.883609E-2,1.4885102E-1,2.5025222E-1,-1.2852763E-1,9.03086E-1,2.5640503E-1,1.4234917E-1,4.699826E-1,2.8515416E-1,2.4216309E-1,1.0230998E0],"categories":[],"categories_nodes":[],"categories_segments":[],"categories_sizes":[],"default_left":[0,0,0,0,0,0,0,0,0,0,0,0,0,0,0,0,0,0,0,0,0,0,0,0,0,0,0,0,0],"id":46,"left_children":[1,3,5,7,9,11,13,15,17,19,21,23,-1,25,27,-1,-1,-1,-1,-1,-1,-1,-1,-1,-1,-1,-1,-1,-1],"loss_changes":[7.6809814E3,2.224587E3,1.4915713E3,1.2986316E3,4.4788403E2,4.7797363E2,6.730635E2,8.649116E2,2.1083643E2,1.6481152E2,4.1748138E2,4.5919727E2,0E0,1.9595117E2,2.3573535E2,0E0,0E0,0E0,0E0,0E0,0E0,0E0,0E0,0E0,0E0,0E0,0E0,0E0,0E0],"parents":[2147483647,0,0,1,1,2,2,3,3,4,4,5,5,6,6,7,7,8,8,9,9,10,10,11,11,13,13,14,14],"right_children":[2,4,6,8,10,12,14,16,18,20,22,24,-1,26,28,-1,-1,-1,-1,-1,-1,-1,-1,-1,-1,-1,-1,-1,-1],"split_conditions":[1.0321338E1,1.1452104E1,2.195954E1,4.758042E0,4.590628E1,4.590628E1,3.742244E1,3.6727488E0,4.3333334E-1,2.087172E1,8.034841E-1,1.008022E1,9.9821323E-1,5.7887135E0,7.303371E-1,4.9245576E-3,5.257987E-1,4.6716386E-1,9.883609E-2,1.4885102E-1,2.5025222E-1,-1.2852763E-1,9.03086E-1,2.5640503E-1,1.4234917E-1,4.699826E-1,2.8515416E-1,2.4216309E-1,1.0230998E0],"split_indices":[8,14,8,8,14,14,8,11,3,14,1,14,0,14,3,0,0,0,0,0,0,0,0,0,0,0,0,0,0],"split_type":[0,0,0,0,0,0,0,0,0,0,0,0,0,0,0,0,0,0,0,0,0,0,0,0,0,0,0,0,0],"sum_hessian":[3.206E3,2.75E3,4.56E2,2.553E3,1.97E2,3.74E2,8.2E1,2.128E3,4.25E2,1.93E2,4E0,3.73E2,1E0,7.4E1,8E0,2.121E3,7E0,3E0,4.22E2,1.29E2,6.4E1,1E0,3E0,2.15E2,1.58E2,4.1E1,3.3E1,2E0,6E0],"tree_param":{"num_deleted":"0","num_feature":"20","num_nodes":"29","size_leaf_vector":"0"}},{"base_weights":[1.3157679E0,3.952409E-1,3.6257172E0,-5.71056E-2,3.5105658E0,3.064748E0,8.012914E0,3.5749426E0,-1.3097377E-1,3.3323681E0,1.3796971E0,2.5464468E0,6.315043E0,7.1674137E0,1.7157305E1,1.56819E-3,4.4441754E-1,-1.5451752E-2,3.9124183E-2,1.578881E-1,9.4918746E-1,1.0457108E-1,2.1475725E-1,2.971941E-1,8.847772E-1,4.2311287E-1,2.4369764E-1,2.3409092E-1,1.0267749E0],"categories":[],"categories_nodes":[],"categories_segments":[],"categories_sizes":[],"default_left":[0,0,0,0,0,0,0,0,0,0,0,0,0,0,0,0,0,0,0,0,0,0,0,0,0,0,0,0,0],"id":47,"left_children":[1,3,5,7,9,11,13,15,17,19,-1,21,23,25,27,-1,-1,-1,-1,-1,-1,-1,-1,-1,-1,-1,-1,-1,-1],"loss_changes":[6.819965E3,3.234329E3,2.224872E3,5.383952E2,1.1569026E3,1.3518398E3,6.733799E2,7.5286035E2,3.2001443E2,7.3257275E2,0E0,5.495991E2,3.6368408E2,2.4384424E2,2.4101343E2,0E0,0E0,0E0,0E0,0E0,0E0,0E0,0E0,0E0,0E0,0E0,0E0,0E0,0E0],"parents":[2147483647,0,0,1,1,2,2,3,3,4,4,5,5,6,6,7,7,8,8,9,9,11,11,12,12,13,13,14,14],"right_children":[2,4,6,8,10,12,14,16,18,20,-1,22,24,26,28,-1,-1,-1,-1,-1,-1,-1,-1,-1,-1,-1,-1,-1,-1],"split_conditions":[5.2717986E0,6.097164E0,2.045038E1,5.75E-1,2.5739322E0,2.5469441E0,3.742244E1,5.9045625E-1,9.3021876E-1,4.590628E1,1.3796971E0,1.435756E1,3.2286545E1,2.0252352E1,7.303371E-1,1.56819E-3,4.4441754E-1,-1.5451752E-2,3.9124183E-2,1.578881E-1,9.4918746E-1,1.0457108E-1,2.1475725E-1,2.971941E-1,8.847772E-1,4.2311287E-1,2.4369764E-1,2.3409092E-1,1.0267749E0],"split_indices":[8,9,8,3,17,9,8,4,9,14,0,8,9,14,3,0,0,0,0,0,0,0,0,0,0,0,0,0,0],"split_type":[0,0,0,0,0,0,0,0,0,0,0,0,0,0,0,0,0,0,0,0,0,0,0,0,0,0,0,0,0],"sum_hessian":[3.207E3,2.294E3,9.13E2,2.004E3,2.9E2,8.11E2,1.02E2,3.9E1,1.965E3,2.89E2,1E0,7.01E2,1.1E2,9.5E1,7E0,2.4E1,1.5E1,1.645E3,3.2E2,2.87E2,2E0,5.58E2,1.43E2,1.08E2,2E0,5.9E1,3.6E1,2E0,5E0],"tree_param":{"num_deleted":"0","num_feature":"20","num_nodes":"29","size_leaf_vector":"0"}},{"base_weights":[1.1885535E0,7.527841E-1,5.0960493E0,2.7373555E-1,3.3147824E0,4.2843122E0,8.5255995E0,-1.2146974E-1,1.6023196E0,3.2042935E0,1.3452046E0,3.560596E0,6.8500786E0,1.0751808E1,5.1152477E0,2.1252058E-1,-8.880227E-3,1.3151892E-1,5.6531917E-2,1.277288E-1,2.894685E-1,2.1825205E-1,1.2883037E-1,4.0325662E-1,2.191538E-1,4.5495215E-1,8.7495655E-1,2.85808E-1,1.07975714E-1],"categories":[],"categories_nodes":[],"categories_segments":[],"categories_sizes":[],"default_left":[0,0,0,0,0,0,0,0,0,0,0,0,0,0,0,0,0,0,0,0,0,0,0,0,0,0,0,0,0],"id":48,"left_children":[1,3,5,7,9,11,13,15,17,19,-1,21,23,25,27,-1,-1,-1,-1,-1,-1,-1,-1,-1,-1,-1,-1,-1,-1],"loss_changes":[5.497804E3,3.5681438E3,8.654541E2,1.2871251E3,1.107502E3,4.6582764E2,4.0812354E2,4.645887E2,2.695487E2,7.527739E2,0E0,1.5339868E2,1.3550952E2,2.422373E2,3.383539E1,0E0,0E0,0E0,0E0,0E0,0E0,0E0,0E0,0E0,0E0,0E0,0E0,0E0,0E0],"parents":[2147483647,0,0,1,1,2,2,3,3,4,4,5,5,6,6,7,7,8,8,9,9,11,11,12,12,13,13,14,14],"right_children":[2,4,6,8,10,12,14,16,18,20,-1,22,24,26,28,-1,-1,-1,-1,-1,-1,-1,-1,-1,-1,-1,-1,-1,-1],"split_conditions":[1.2354472E1,4.0803847E0,2.3793745E1,4.4778075E0,6E0,5.276659E-1,6.445661E-1,5.083333E-1,3.4293202E-1,3.590446E0,1.3452046E0,1.2450548E1,1.4446841E1,3.742244E1,9.304613E-1,2.1252058E-1,-8.880227E-3,1.3151892E-1,5.6531917E-2,1.277288E-1,2.894685E-1,2.1825205E-1,1.2883037E-1,4.0325662E-1,2.191538E-1,4.5495215E-1,8.7495655E-1,2.85808E-1,1.07975714E-1],"split_indices":[8,9,8,8,19,9,14,3,1,8,0,14,14,8,1,0,0,0,0,0,0,0,0,0,0,0,0,0,0],"split_type":[0,0,0,0,0,0,0,0,0,0,0,0,0,0,0,0,0,0,0,0,0,0,0,0,0,0,0,0,0],"sum_hessian":[3.23E3,2.907E3,3.23E2,2.45E3,4.57E2,2.63E2,6E1,1.889E3,5.61E2,4.56E2,1E0,2.07E2,5.6E1,3.5E1,2.5E1,2.3E1,1.866E3,1.75E2,3.86E2,3.66E2,9E1,1.12E2,9.5E1,3.6E1,2E1,3E1,5E0,2E1,5E0],"tree_param":{"num_deleted":"0","num_feature":"20","num_nodes":"29","size_leaf_vector":"0"}},{"base_weights":[1.1088437E0,5.791874E-1,3.9496298E0,4.1079354E-1,4.0088005E0,3.1274033E0,5.4087253E0,1.4454579E-3,1.1716553E0,3.6414337E0,1.2244259E1,3.0208535E0,9.4390166E-1,6.6308064E0,3.7469146E0,-1.4853735E-3,1.3115743E0,3.532922E-1,5.254975E-2,1.3146952E-1,2.533215E-1,8.2761925E-1,-1.2470613E-1,1.918737E-1,1.0825906E-1,2.9523218E-1,4.5180058E-1,2.0703025E-1,3.081953E-2],"categories":[],"categories_nodes":[],"categories_segments":[],"categories_sizes":[],"default_left":[0,0,0,0,0,0,0,0,0,0,0,0,0,0,0,0,0,0,0,0,0,0,0,0,0,0,0,0,0],"id":49,"left_children":[1,3,5,7,9,11,13,15,17,19,21,23,-1,25,27,-1,-1,-1,-1,-1,-1,-1,-1,-1,-1,-1,-1,-1,-1],"loss_changes":[4.844159E3,1.5669131E3,5.901372E2,8.066728E2,3.396432E2,4.9007373E2,3.427422E2,1.3776646E3,6.369164E2,1.6406384E2,3.5875763E2,2.1878784E2,0E0,1.2654248E2,9.481189E1,0E0,0E0,0E0,0E0,0E0,0E0,0E0,0E0,0E0,0E0,0E0,0E0,0E0,0E0],"parents":[2147483647,0,0,1,1,2,2,3,3,4,4,5,5,6,6,7,7,8,8,9,9,10,10,11,11,13,13,14,14],"right_children":[2,4,6,8,10,12,14,16,18,20,22,24,-1,26,28,-1,-1,-1,-1,-1,-1,-1,-1,-1,-1,-1,-1,-1,-1],"split_conditions":[9.744789E0,1.4446841E1,1.5935004E1,4.801416E-1,4.590628E1,2.9528513E1,1.0659143E1,9E0,5.083333E-1,1.5221988E0,1.0344695E-1,4.3580565E-3,9.4390166E-1,2.552864E1,9.904213E-1,-1.4853735E-3,1.3115743E0,3.532922E-1,5.254975E-2,1.3146952E-1,2.533215E-1,8.2761925E-1,-1.2470613E-1,1.918737E-1,1.0825906E-1,2.9523218E-1,4.5180058E-1,2.0703025E-1,3.081953E-2],"split_indices":[8,14,8,8,14,14,14,19,3,8,0,14,0,8,0,0,0,0,0,0,0,0,0,0,0,0,0,0,0],"split_type":[0,0,0,0,0,0,0,0,0,0,0,0,0,0,0,0,0,0,0,0,0,0,0,0,0,0,0,0,0],"sum_hessian":[3.22E3,2.715E3,5.05E2,2.589E3,1.26E2,3.25E2,1.8E2,1.684E3,9.05E2,1.22E2,4E0,3.24E2,1E0,1.02E2,7.8E1,1.683E3,1E0,1.7E1,8.88E2,7.3E1,4.9E1,3E0,1E0,1.64E2,1.6E2,8.1E1,2.1E1,6.9E1,9E0],"tree_param":{"num_deleted":"0","num_feature":"20","num_nodes":"29","size_leaf_vector":"0"}},{"base_weights":[1.0779804E0,6.934892E-1,3.31346E0,2.5800522E-3,1.6383713E0,3.0479722E0,1.5141451E1,5.139168E0,-3.3617925E-2,2.168264E0,4.771702E-1,2.8591325E0,9.8282585E0,2.4871052E1,4.509875E0,-8.2198836E-2,8.710332E-1,-3.3976191E-3,2.405298E-1,1.6246405E-1,6.1627865E-2,5.1988836E-2,-1.4290618E-2,1.22932196E-1,2.587474E-1,7.4557096E-1,2.7113757E-1,-1.0379582E-1,1.6063385E0,4.8451234E-2,3.8638586E-1],"categories":[],"categories_nodes":[],"categories_segments":[],"categories_sizes":[],"default_left":[0,0,0,0,0,0,0,0,0,0,0,0,0,0,0,0,0,0,0,0,0,0,0,0,0,0,0,0,0,0,0],"id":50,"left_children":[1,3,5,7,9,11,13,15,17,19,21,23,25,27,29,-1,-1,-1,-1,-1,-1,-1,-1,-1,-1,-1,-1,-1,-1,-1,-1],"loss_changes":[2.7344202E3,1.7743815E3,1.4203164E3,2.922752E2,7.0534326E2,5.583174E2,9.222446E2,9.4501794E2,2.5995773E2,7.930686E2,1.5525964E2,4.018501E2,1.8786597E2,1.0442908E3,6.087504E1,0E0,0E0,0E0,0E0,0E0,0E0,0E0,0E0,0E0,0E0,0E0,0E0,0E0,0E0,0E0,0E0],"parents":[2147483647,0,0,1,1,2,2,3,3,4,4,5,5,6,6,7,7,8,8,9,9,10,10,11,11,12,12,13,13,14,14],"right_children":[2,4,6,8,10,12,14,16,18,20,22,24,26,28,30,-1,-1,-1,-1,-1,-1,-1,-1,-1,-1,-1,-1,-1,-1,-1,-1],"split_conditions":[4.01814E0,6.766669E-2,3.9282146E1,3.8333333E-1,2.3912765E-2,5.5820495E-3,7.02767E-2,2.5E-1,9.904816E-1,4.3580565E-3,9.430349E-1,2.1739246E1,6.1098224E-1,3.374406E-2,4.590628E1,-8.2198836E-2,8.710332E-1,-3.3976191E-3,2.405298E-1,1.6246405E-1,6.1627865E-2,5.1988836E-2,-1.4290618E-2,1.22932196E-1,2.587474E-1,7.4557096E-1,2.7113757E-1,-1.0379582E-1,1.6063385E0,4.8451234E-2,3.8638586E-1],"split_indices":[9,0,9,3,15,11,0,3,10,14,0,14,17,0,14,0,0,0,0,0,0,0,0,0,0,0,0,0,0,0,0],"split_type":[0,0,0,0,0,0,0,0,0,0,0,0,0,0,0,0,0,0,0,0,0,0,0,0,0,0,0,0,0,0,0],"sum_hessian":[3.183E3,2.717E3,4.66E2,1.57E3,1.147E3,4.57E2,9E0,1E1,1.56E3,7.87E2,3.6E2,4.46E2,1.1E1,4E0,5E0,7E0,3E0,1.55E3,1E1,3.64E2,4.23E2,2.07E2,1.53E2,3.82E2,6.4E1,4E0,7E0,1E0,3E0,3E0,2E0],"tree_param":{"num_deleted":"0","num_feature":"20","num_nodes":"31","size_leaf_vector":"0"}},{"base_weights":[1.0357381E0,6.137339E-1,4.4917154E0,1.4101693E-1,2.9106126E0,4.1552944E0,1.1170691E1,-2.0466797E-1,1.4257954E0,2.5392408E0,1.0243795E1,3.7305589E0,8.292457E0,1.3899303E1,5.6768594E0,-1.125072E-3,-5.3269584E-2,1.02979206E-1,2.2595342E-2,7.297102E-2,1.9609419E-1,1.1138746E0,3.268943E-1,2.3088896E-1,1.23582534E-1,4.8640728E-1,2.664122E-1,1.0796955E0,4.638207E-1,3.2280236E-1,2.5043298E-2],"categories":[],